{
    "in_shape": [
        null,
        66
    ],
    "layers": [
        {
            "type": "dense",
            "activation": "elu",
            "shape": [
                null,
                128
            ],
            "weights": [
                [
                    [
                        0.25832289457321167,
                        0.12153717130422592,
                        0.035725172609090805,
                        0.18786369264125824,
                        0.028334081172943115,
                        -0.0007666075835004449,
                        0.016016338020563126,
                        -0.030591076239943504,
                        -0.06592052429914474,
                        -0.15871727466583252,
                        -0.11761971563100815,
                        0.12059704214334488,
                        0.021914849057793617,
                        -0.26674556732177734,
                        0.24319277703762054,
                        -0.30826520919799805,
                        -0.029332933947443962,
                        0.13195085525512695,
                        0.17556171119213104,
                        -0.2675653100013733,
                        0.1513776034116745,
                        -0.006926249247044325,
                        -0.14506292343139648,
                        -0.11079306900501251,
                        0.08055267482995987,
                        0.19856597483158112,
                        0.08363638818264008,
                        0.0525980181992054,
                        0.0833176001906395,
                        0.05711575224995613,
                        0.2755374014377594,
                        -0.09603598713874817,
                        -0.042113471776247025,
                        0.14445513486862183,
                        -0.18178394436836243,
                        -0.07087384909391403,
                        -0.13299471139907837,
                        -0.025569897145032883,
                        0.04317380115389824,
                        0.0029388980474323034,
                        -0.08401713520288467,
                        0.11506406217813492,
                        -0.09446108341217041,
                        0.05577266961336136,
                        -0.010905533097684383,
                        -0.08596719801425934,
                        -0.018651001155376434,
                        0.13220517337322235,
                        0.18430155515670776,
                        0.25975263118743896,
                        0.18561755120754242,
                        -0.17194108664989471,
                        -0.21283702552318573,
                        0.27516964077949524,
                        -0.11749259382486343,
                        -0.1702711284160614,
                        -0.16073010861873627,
                        -0.07100453972816467,
                        0.2673427164554596,
                        -0.014832032844424248,
                        0.045605555176734924,
                        -0.10118276625871658,
                        0.1690046340227127,
                        -0.14868305623531342,
                        -0.12727998197078705,
                        0.15324905514717102,
                        -0.1209966242313385,
                        -0.2913675606250763,
                        0.07134133577346802,
                        -0.03378743678331375,
                        0.02343077026307583,
                        -0.025752786546945572,
                        0.055770762264728546,
                        -0.1444300264120102,
                        -0.24406524002552032,
                        -0.017196934670209885,
                        0.40803876519203186,
                        0.15022796392440796,
                        0.08293353766202927,
                        0.22752287983894348,
                        -0.17995785176753998,
                        -0.20478391647338867,
                        0.1933935135602951,
                        0.09391579777002335,
                        0.18961048126220703,
                        -0.09341130405664444,
                        -0.1660519242286682,
                        -0.09316625446081161,
                        -0.08862794935703278,
                        0.03558260574936867,
                        -0.2357170134782791,
                        0.042588427662849426,
                        0.05758863314986229,
                        -0.2092544287443161,
                        -0.1223745346069336,
                        -0.08042531460523605,
                        -0.10222487896680832,
                        0.11484016478061676,
                        0.12709090113639832,
                        -0.04172839969396591,
                        0.05307289958000183,
                        -0.31137120723724365,
                        0.1651133894920349,
                        0.10450965166091919,
                        0.10947361588478088,
                        0.2358241230249405,
                        -0.014175666496157646,
                        -0.0014429218135774136,
                        0.0474553145468235,
                        0.21820153295993805,
                        -0.11478042602539062,
                        0.11134117841720581,
                        0.05248290300369263,
                        -0.1006292924284935,
                        -0.08595140278339386,
                        -0.05547162890434265,
                        0.050383612513542175,
                        0.061680909246206284,
                        -0.3287773132324219,
                        0.018294107168912888,
                        0.027038151398301125,
                        -0.017780078575015068,
                        0.20704421401023865,
                        -0.21424654126167297,
                        -0.24430064857006073,
                        -0.15457838773727417,
                        0.06813013553619385,
                        -0.16396114230155945
                    ],
                    [
                        0.02904617413878441,
                        -0.18650370836257935,
                        -0.005303716287016869,
                        -0.15583236515522003,
                        -0.34175723791122437,
                        0.1313764750957489,
                        0.08025602996349335,
                        -0.18200433254241943,
                        -0.08133351057767868,
                        0.10466895252466202,
                        -0.11449505388736725,
                        0.021455051377415657,
                        -0.08409794420003891,
                        -0.07656402885913849,
                        0.28259754180908203,
                        -0.10386548191308975,
                        -0.04323716461658478,
                        -0.17157822847366333,
                        0.100423164665699,
                        0.048459719866514206,
                        -0.23038727045059204,
                        0.26602423191070557,
                        0.17080102860927582,
                        0.08369819074869156,
                        -0.2513744831085205,
                        0.20216941833496094,
                        -0.04506484791636467,
                        0.046365801244974136,
                        0.037847451865673065,
                        0.13974995911121368,
                        0.1409890502691269,
                        0.04348606616258621,
                        0.014656892977654934,
                        0.12217690795660019,
                        0.033485058695077896,
                        0.12814608216285706,
                        0.08653981983661652,
                        -0.2610660195350647,
                        0.004727499093860388,
                        0.012607593089342117,
                        0.13215436041355133,
                        -0.08821719139814377,
                        0.08933018147945404,
                        0.03613791987299919,
                        -0.18555863201618195,
                        -0.0544879287481308,
                        0.12247955799102783,
                        -0.31112584471702576,
                        -0.10775531828403473,
                        -0.2325310856103897,
                        0.1093568354845047,
                        -0.125303253531456,
                        0.011261356994509697,
                        0.1775972843170166,
                        0.20591367781162262,
                        -0.16529905796051025,
                        -0.09375762939453125,
                        -0.18018634617328644,
                        -0.12577271461486816,
                        -0.12593531608581543,
                        0.059256166219711304,
                        0.11602526903152466,
                        -0.07171560823917389,
                        0.0016416331054642797,
                        -0.15066905319690704,
                        0.28041139245033264,
                        -0.02816169336438179,
                        0.07519222795963287,
                        0.03212505206465721,
                        -0.07004203647375107,
                        0.05642222985625267,
                        -0.18291720747947693,
                        -0.059739477932453156,
                        -0.15580083429813385,
                        0.04459679499268532,
                        0.02569001540541649,
                        -0.1000768318772316,
                        -0.056799229234457016,
                        -0.3157629072666168,
                        0.062458448112010956,
                        -0.19175346195697784,
                        -0.027236368507146835,
                        -0.21015895903110504,
                        0.06246364861726761,
                        -0.05221251770853996,
                        -0.08732958137989044,
                        -0.2225809395313263,
                        0.19444578886032104,
                        0.1755973994731903,
                        0.16007556021213531,
                        -0.034174006432294846,
                        -0.09614672511816025,
                        0.08677513897418976,
                        -0.0519481897354126,
                        -0.07970217615365982,
                        -0.12002035230398178,
                        -0.04362883418798447,
                        -0.081121526658535,
                        0.06151840090751648,
                        -0.11500200629234314,
                        -0.16749779880046844,
                        -0.21132443845272064,
                        -0.20318759977817535,
                        -0.07489234209060669,
                        -0.26005545258522034,
                        0.024897145107388496,
                        -0.102127805352211,
                        0.008892932906746864,
                        0.06346138566732407,
                        0.20114552974700928,
                        0.08821630477905273,
                        0.2602296769618988,
                        0.05382797122001648,
                        -0.09800900518894196,
                        0.3790310323238373,
                        -0.06357357650995255,
                        0.1452712118625641,
                        0.09650303423404694,
                        -0.008123311214148998,
                        -0.11402010172605515,
                        0.05184454843401909,
                        -0.12243998050689697,
                        -0.04706199839711189,
                        0.01178416796028614,
                        0.21954739093780518,
                        0.11372833698987961,
                        0.052680082619190216,
                        -0.028636569157242775
                    ],
                    [
                        -0.17422308027744293,
                        -0.3498351573944092,
                        0.3712432086467743,
                        0.23773986101150513,
                        -0.04876179248094559,
                        -0.1164284273982048,
                        -0.19612407684326172,
                        0.10926754772663116,
                        0.02227175235748291,
                        -0.17926253378391266,
                        0.21467120945453644,
                        -0.5103930234909058,
                        0.30390068888664246,
                        -0.003220002166926861,
                        -0.013165337033569813,
                        -0.03302909433841705,
                        -0.04616459459066391,
                        -0.22650320827960968,
                        0.20215566456317902,
                        0.25984784960746765,
                        -0.1527632176876068,
                        0.1518794447183609,
                        0.33081212639808655,
                        0.027813579887151718,
                        0.15094774961471558,
                        -0.11184339225292206,
                        0.03614042326807976,
                        -0.18040694296360016,
                        -0.1435297727584839,
                        -0.0370246022939682,
                        -0.14223456382751465,
                        -0.31232836842536926,
                        0.22430536150932312,
                        0.18796038627624512,
                        -0.09147543460130692,
                        -0.23981493711471558,
                        0.04251815006136894,
                        -0.2646535038948059,
                        0.10602147877216339,
                        0.23429930210113525,
                        -0.258536696434021,
                        -0.09778311848640442,
                        0.09704896807670593,
                        -0.23313339054584503,
                        0.13980033993721008,
                        -0.026719747111201286,
                        -0.19579210877418518,
                        -0.0955040454864502,
                        -0.309318482875824,
                        -0.17456898093223572,
                        0.24289476871490479,
                        -0.031022006645798683,
                        0.48146533966064453,
                        0.20948654413223267,
                        -0.21157673001289368,
                        -0.08658912032842636,
                        0.049731284379959106,
                        0.09497422724962234,
                        0.016055140644311905,
                        -0.08290179073810577,
                        0.16465424001216888,
                        0.23106347024440765,
                        -0.037863168865442276,
                        0.15331141650676727,
                        -0.07153306156396866,
                        0.04235458001494408,
                        -0.24163220822811127,
                        -0.43370023369789124,
                        -0.24266670644283295,
                        0.21925963461399078,
                        -0.06851126253604889,
                        0.1145382672548294,
                        -0.5456215739250183,
                        -0.29428353905677795,
                        0.14658387005329132,
                        -0.6070752739906311,
                        -0.06772119551897049,
                        -0.16539441049098969,
                        0.41098546981811523,
                        -0.08332004398107529,
                        -0.06003470718860626,
                        -0.13005244731903076,
                        -0.32247236371040344,
                        -0.15760335326194763,
                        -0.5217182040214539,
                        -0.22299663722515106,
                        0.004298900254070759,
                        -0.03997143357992172,
                        -0.035165052860975266,
                        -0.039889704436063766,
                        0.20008213818073273,
                        -0.4215187728404999,
                        0.06360450387001038,
                        0.06641753017902374,
                        -0.20967935025691986,
                        0.2084444761276245,
                        0.36925363540649414,
                        0.15018139779567719,
                        -0.02765488252043724,
                        0.022536329925060272,
                        -0.1388733983039856,
                        0.06998234242200851,
                        -0.3404000401496887,
                        0.17467021942138672,
                        -0.0287679061293602,
                        0.1603771150112152,
                        0.508305549621582,
                        0.08527600765228271,
                        0.1268080174922943,
                        -0.247105211019516,
                        0.20382486283779144,
                        0.11712317168712616,
                        0.3598569929599762,
                        -0.13041669130325317,
                        -0.19701558351516724,
                        -0.25089606642723083,
                        8.857976354192942e-05,
                        0.1518007516860962,
                        0.02726338990032673,
                        0.020369520410895348,
                        0.02939908765256405,
                        0.5918503403663635,
                        -0.2033219337463379,
                        0.2458859384059906,
                        0.16038724780082703,
                        0.017974229529500008,
                        -0.45006006956100464,
                        0.13155320286750793
                    ],
                    [
                        2.3021087646484375,
                        1.3139616250991821,
                        1.8443325757980347,
                        -0.7733060717582703,
                        -1.6715391874313354,
                        -1.1954600811004639,
                        -0.35328084230422974,
                        -1.170385479927063,
                        0.039949625730514526,
                        1.587192416191101,
                        -3.136812925338745,
                        -1.5671790838241577,
                        0.19773699343204498,
                        -2.119036912918091,
                        3.00567626953125,
                        -0.33392539620399475,
                        0.5701172351837158,
                        2.5213193893432617,
                        -1.4229657649993896,
                        1.685032606124878,
                        -0.8385924696922302,
                        0.5655410289764404,
                        3.2065699100494385,
                        -2.5464084148406982,
                        -1.7174874544143677,
                        2.292478084564209,
                        0.5579923987388611,
                        -0.20314373075962067,
                        3.048065423965454,
                        1.5764127969741821,
                        2.6714229583740234,
                        0.024598220363259315,
                        -1.055468201637268,
                        1.0117946863174438,
                        -2.131958484649658,
                        2.248793601989746,
                        1.6874796152114868,
                        -4.224577903747559,
                        1.3933172225952148,
                        -1.4089422225952148,
                        -0.9654760360717773,
                        -1.2406681776046753,
                        0.6885163187980652,
                        -1.012412428855896,
                        -3.6841201782226562,
                        0.3038944602012634,
                        0.4891176223754883,
                        -3.883476734161377,
                        -0.4048255980014801,
                        1.125617265701294,
                        -3.1353161334991455,
                        -1.3487629890441895,
                        0.5093593001365662,
                        -1.7339231967926025,
                        2.0359644889831543,
                        -0.19859732687473297,
                        -0.8949781656265259,
                        -2.052940845489502,
                        -3.465482234954834,
                        -1.8305596113204956,
                        0.10387595742940903,
                        0.2855965197086334,
                        -1.419191837310791,
                        1.6608357429504395,
                        0.9357655644416809,
                        2.2394490242004395,
                        0.7040939331054688,
                        0.31621333956718445,
                        -0.0536702461540699,
                        -1.1128548383712769,
                        -0.6111199259757996,
                        0.8996196389198303,
                        -2.2517223358154297,
                        -3.1124987602233887,
                        -0.016352087259292603,
                        1.053648829460144,
                        -1.0208497047424316,
                        -0.7660059928894043,
                        -2.40669584274292,
                        1.7982285022735596,
                        -0.40788620710372925,
                        -2.084024667739868,
                        1.3301821947097778,
                        -1.6530113220214844,
                        -0.5738829374313354,
                        -2.644735336303711,
                        -1.746837854385376,
                        -1.0295394659042358,
                        3.052100896835327,
                        0.49003034830093384,
                        1.0507526397705078,
                        -0.7763573527336121,
                        -0.8008460402488708,
                        -0.46274903416633606,
                        -1.536840558052063,
                        0.3726959526538849,
                        0.6862084865570068,
                        -1.305966854095459,
                        1.6030833721160889,
                        -2.593071937561035,
                        0.8514131307601929,
                        -1.3506550788879395,
                        1.6146973371505737,
                        2.772350788116455,
                        -0.2885892689228058,
                        -0.5897360444068909,
                        -0.3629867434501648,
                        0.274060994386673,
                        0.21127668023109436,
                        0.03937284275889397,
                        -1.5345220565795898,
                        -0.6793642044067383,
                        1.9246506690979004,
                        -2.3187272548675537,
                        -1.5015836954116821,
                        -1.1649260520935059,
                        -0.534823477268219,
                        0.09755457937717438,
                        0.8428050875663757,
                        -0.3076424300670624,
                        1.8610520362854004,
                        1.1523425579071045,
                        -1.6026945114135742,
                        1.3276481628417969,
                        0.38923442363739014,
                        -1.4774246215820312,
                        2.0173349380493164,
                        1.6128462553024292
                    ],
                    [
                        -2.635103225708008,
                        0.5934739112854004,
                        -3.062687397003174,
                        -0.22701191902160645,
                        -1.4865684509277344,
                        1.7352007627487183,
                        -0.441255122423172,
                        0.3731038570404053,
                        1.5589282512664795,
                        -1.1700584888458252,
                        3.1336863040924072,
                        -1.9592489004135132,
                        2.715519905090332,
                        0.09765784442424774,
                        0.5151031613349915,
                        1.7153936624526978,
                        0.5557483434677124,
                        2.695460081100464,
                        -1.7043592929840088,
                        0.02436351217329502,
                        -1.1909549236297607,
                        -1.8992228507995605,
                        1.6623072624206543,
                        -1.9981893301010132,
                        -0.2954785227775574,
                        -0.8010014295578003,
                        1.2668572664260864,
                        2.793092966079712,
                        -2.4935338497161865,
                        2.07867431640625,
                        -1.0477300882339478,
                        2.9037771224975586,
                        -0.5526248216629028,
                        -2.02838134765625,
                        0.5408670902252197,
                        -0.8504637479782104,
                        2.769108772277832,
                        -1.157401442527771,
                        -2.547581434249878,
                        1.2535463571548462,
                        0.8808938264846802,
                        -1.5074886083602905,
                        2.675051689147949,
                        1.8984721899032593,
                        -0.5819379091262817,
                        -1.8436013460159302,
                        1.1983015537261963,
                        -3.304476261138916,
                        -0.8485762476921082,
                        0.9912447333335876,
                        0.22459210455417633,
                        -0.2897975742816925,
                        0.37205782532691956,
                        -1.5122064352035522,
                        0.2961808443069458,
                        0.2603011429309845,
                        -2.4786550998687744,
                        1.8459296226501465,
                        1.3786572217941284,
                        0.2198215276002884,
                        1.7356535196304321,
                        0.05303318426012993,
                        -1.2214218378067017,
                        -2.697047710418701,
                        1.267187476158142,
                        -2.050551176071167,
                        0.9923169016838074,
                        0.45298632979393005,
                        -0.716210126876831,
                        -1.603222370147705,
                        0.47184428572654724,
                        -0.8066708445549011,
                        -0.15180793404579163,
                        -2.079089641571045,
                        2.9273386001586914,
                        -2.618623733520508,
                        -0.33683323860168457,
                        -3.127666711807251,
                        -1.202085018157959,
                        -1.5573822259902954,
                        2.039234161376953,
                        1.4259138107299805,
                        0.9566892981529236,
                        1.9089555740356445,
                        0.17116063833236694,
                        2.5832533836364746,
                        -0.5637101531028748,
                        -1.086564302444458,
                        -1.0766420364379883,
                        1.5452663898468018,
                        1.271883249282837,
                        0.0613991841673851,
                        1.862444281578064,
                        -0.7215120792388916,
                        1.4888893365859985,
                        -0.818437397480011,
                        2.7889270782470703,
                        3.5386879444122314,
                        -1.3561314344406128,
                        1.4859435558319092,
                        1.8731067180633545,
                        3.2832770347595215,
                        -0.7018804550170898,
                        -2.1253230571746826,
                        0.8129644393920898,
                        -0.12683995068073273,
                        -1.9042350053787231,
                        1.1506340503692627,
                        1.3163068294525146,
                        -0.5659968852996826,
                        1.5848233699798584,
                        -1.9192529916763306,
                        -3.020841360092163,
                        -2.751060962677002,
                        -0.17042194306850433,
                        0.4428451359272003,
                        2.7525479793548584,
                        0.49391186237335205,
                        0.3459821939468384,
                        0.547805905342102,
                        0.1973305642604828,
                        1.1475884914398193,
                        -3.815819025039673,
                        0.3233068585395813,
                        1.0198636054992676,
                        3.5124692916870117,
                        -1.5759479999542236,
                        1.522146463394165
                    ],
                    [
                        0.9832805395126343,
                        7.3286614418029785,
                        -7.973778247833252,
                        -7.890406608581543,
                        4.501369953155518,
                        -14.054743766784668,
                        8.949543952941895,
                        5.355332374572754,
                        -1.529371738433838,
                        -2.699030876159668,
                        1.7838783264160156,
                        -9.21937084197998,
                        -8.643022537231445,
                        -8.889986038208008,
                        0.7649383544921875,
                        13.009690284729004,
                        15.15654468536377,
                        -2.648759126663208,
                        8.262415885925293,
                        -4.681901454925537,
                        1.0483635663986206,
                        9.927815437316895,
                        -0.4787898063659668,
                        16.109813690185547,
                        10.852931022644043,
                        -2.0243372917175293,
                        -2.4763522148132324,
                        -6.961674213409424,
                        -9.134366989135742,
                        -10.317695617675781,
                        -1.8707302808761597,
                        -13.453963279724121,
                        -4.520759582519531,
                        -4.552577972412109,
                        0.8809770345687866,
                        -9.640946388244629,
                        5.7879557609558105,
                        -0.9340339303016663,
                        8.414932250976562,
                        -0.9587256908416748,
                        12.239703178405762,
                        -11.880752563476562,
                        -5.132659435272217,
                        9.538602828979492,
                        11.009489059448242,
                        13.44393539428711,
                        -4.436489582061768,
                        9.283329963684082,
                        4.1545305252075195,
                        -14.706929206848145,
                        -6.397818565368652,
                        -5.686626434326172,
                        -6.216909408569336,
                        -6.0713791847229,
                        10.107599258422852,
                        -8.813334465026855,
                        0.5740705132484436,
                        4.3601226806640625,
                        8.245074272155762,
                        19.005817413330078,
                        2.782993793487549,
                        -5.738624095916748,
                        -16.670700073242188,
                        0.8087754845619202,
                        -5.35487174987793,
                        -4.37570858001709,
                        -8.845770835876465,
                        -4.501503944396973,
                        1.5875896215438843,
                        -12.302469253540039,
                        -9.417343139648438,
                        -1.6139709949493408,
                        1.2129936218261719,
                        7.150144577026367,
                        -7.050041675567627,
                        3.0670318603515625,
                        5.276792526245117,
                        1.3994355201721191,
                        -3.261814594268799,
                        16.40123748779297,
                        -4.055994510650635,
                        10.159134864807129,
                        -7.965307235717773,
                        -11.565657615661621,
                        -5.967817783355713,
                        -4.911208152770996,
                        6.274011135101318,
                        -0.8041229248046875,
                        -6.993174076080322,
                        8.48410415649414,
                        -6.822929382324219,
                        -0.0418567880988121,
                        5.594480991363525,
                        -10.036138534545898,
                        -9.79659366607666,
                        -12.132678031921387,
                        -0.4881642460823059,
                        11.269753456115723,
                        0.8428257703781128,
                        3.1083366870880127,
                        -3.599205732345581,
                        -9.573442459106445,
                        -2.738129138946533,
                        -6.851824760437012,
                        18.293489456176758,
                        -2.7427785396575928,
                        -0.19702963531017303,
                        -3.2843942642211914,
                        14.416788101196289,
                        2.3986687660217285,
                        -5.945927619934082,
                        13.914373397827148,
                        -8.039207458496094,
                        -1.1417452096939087,
                        9.504049301147461,
                        11.040253639221191,
                        0.20642708241939545,
                        -2.9948437213897705,
                        -5.291708946228027,
                        12.437358856201172,
                        4.858939170837402,
                        7.137417316436768,
                        -12.714741706848145,
                        0.4810793697834015,
                        10.851634979248047,
                        11.047102928161621,
                        1.710060477256775,
                        -15.216875076293945
                    ],
                    [
                        -0.21520179510116577,
                        0.9186365008354187,
                        -0.2187960147857666,
                        0.08134520798921585,
                        -0.06681755930185318,
                        0.8554531931877136,
                        0.5916997790336609,
                        0.895526647567749,
                        0.4676721394062042,
                        0.6713796854019165,
                        -0.703933835029602,
                        -0.003988905344158411,
                        -0.111747607588768,
                        -0.0568806454539299,
                        -0.6762216687202454,
                        0.4961632490158081,
                        -0.19111742079257965,
                        0.09407991170883179,
                        -0.5655918121337891,
                        -0.732515275478363,
                        -0.614838719367981,
                        -0.6259474158287048,
                        -0.2591001093387604,
                        0.0031729370821267366,
                        0.13147547841072083,
                        0.1918824464082718,
                        0.30159881711006165,
                        -0.36754345893859863,
                        0.0336560420691967,
                        -0.5690368413925171,
                        -0.08925195038318634,
                        -0.5050308108329773,
                        0.7973529696464539,
                        -0.49991434812545776,
                        -0.07510336488485336,
                        -0.4560718834400177,
                        -0.5583609938621521,
                        0.600401759147644,
                        0.2594800889492035,
                        0.7221994400024414,
                        -0.5749869346618652,
                        -0.06740211695432663,
                        0.26525723934173584,
                        0.2791259288787842,
                        -0.06404467672109604,
                        0.2555959224700928,
                        -0.8618683218955994,
                        0.40748172998428345,
                        -0.42092326283454895,
                        0.17538967728614807,
                        -0.5295417308807373,
                        0.4130697548389435,
                        0.18039211630821228,
                        -0.3971145749092102,
                        0.5023892521858215,
                        -0.438152939081192,
                        0.24043366312980652,
                        0.4736567437648773,
                        -0.22020870447158813,
                        -0.819083034992218,
                        -0.3056826889514923,
                        -0.04378249868750572,
                        -0.2140258103609085,
                        -0.2249922901391983,
                        0.968862771987915,
                        0.6625840067863464,
                        0.09144378453493118,
                        -0.07028960436582565,
                        0.3619219958782196,
                        0.017701061442494392,
                        0.5049535036087036,
                        -0.24457783997058868,
                        0.25939813256263733,
                        0.3107753098011017,
                        0.6132959127426147,
                        -0.18109150230884552,
                        0.007146116346120834,
                        0.5080685615539551,
                        0.531475841999054,
                        -0.15365557372570038,
                        -0.0057268594391644,
                        0.27097705006599426,
                        0.1675424426794052,
                        0.5413954854011536,
                        -0.3127809166908264,
                        0.303036630153656,
                        -0.41112303733825684,
                        -1.0217195749282837,
                        -0.7753350138664246,
                        -0.5366261601448059,
                        -0.14074097573757172,
                        0.5048153400421143,
                        -0.17246651649475098,
                        0.1373244822025299,
                        0.6893495321273804,
                        0.2104760706424713,
                        0.005070389248430729,
                        0.12392564862966537,
                        0.01415812037885189,
                        -0.5623562932014465,
                        0.09953705221414566,
                        -0.30820906162261963,
                        0.09084860980510712,
                        0.8771341443061829,
                        -0.22258567810058594,
                        -0.5551943778991699,
                        -0.25954991579055786,
                        -0.12205733358860016,
                        0.011884521692991257,
                        0.3983314037322998,
                        -0.6759000420570374,
                        0.2341872602701187,
                        0.4612521827220917,
                        0.2510402500629425,
                        -0.47920331358909607,
                        0.1545483022928238,
                        -0.2265395075082779,
                        0.13554202020168304,
                        0.4129548668861389,
                        -0.07782559096813202,
                        0.970787763595581,
                        -0.13808925449848175,
                        -0.08725891262292862,
                        0.6153407096862793,
                        0.6364395022392273,
                        0.3610033094882965,
                        0.707082986831665,
                        -0.45890095829963684
                    ],
                    [
                        0.47744494676589966,
                        0.3208172023296356,
                        -0.4572812020778656,
                        -0.40251240134239197,
                        0.7399322986602783,
                        0.040351249277591705,
                        -0.6294257044792175,
                        -0.8148508071899414,
                        0.38461005687713623,
                        0.4779517352581024,
                        0.3307372033596039,
                        0.4001481533050537,
                        -0.663733720779419,
                        0.6291638016700745,
                        0.32556501030921936,
                        -0.12492293119430542,
                        -0.0027514605317264795,
                        -0.19677004218101501,
                        0.5475355982780457,
                        0.23354963958263397,
                        -0.8153222799301147,
                        -0.6999863386154175,
                        -0.5795587301254272,
                        0.34959739446640015,
                        0.454700767993927,
                        -0.03100682608783245,
                        -0.3551174998283386,
                        0.2967418134212494,
                        0.5399031639099121,
                        -0.15846078097820282,
                        0.15677280724048615,
                        -0.3888365924358368,
                        0.16225109994411469,
                        1.0634548664093018,
                        0.322603315114975,
                        -0.5455453395843506,
                        0.11104746162891388,
                        -0.5590041279792786,
                        0.542508065700531,
                        -0.7114564180374146,
                        -0.07570185512304306,
                        -0.6063624620437622,
                        1.0535000562667847,
                        -0.7274957299232483,
                        -0.4760306775569916,
                        -0.09203120321035385,
                        -0.7808648347854614,
                        0.22414007782936096,
                        0.441912978887558,
                        -0.22714002430438995,
                        -0.47417163848876953,
                        -0.42805933952331543,
                        -0.31244900822639465,
                        0.3651975989341736,
                        -0.810366690158844,
                        -0.08345548063516617,
                        -0.2761542499065399,
                        1.0347908735275269,
                        -0.08295805752277374,
                        0.6037864089012146,
                        0.17381346225738525,
                        0.27914759516716003,
                        1.0533277988433838,
                        0.8118457198143005,
                        0.1291363537311554,
                        -0.8569610118865967,
                        -0.6515929698944092,
                        0.32348546385765076,
                        0.4096349775791168,
                        0.6942604184150696,
                        -1.2019438743591309,
                        0.14326277375221252,
                        0.5163367390632629,
                        -0.6889228224754333,
                        0.014760697260499,
                        0.42298102378845215,
                        -0.41380277276039124,
                        0.7114298939704895,
                        0.7415682077407837,
                        1.2539294958114624,
                        -0.33376452326774597,
                        -0.3406902551651001,
                        -0.14945153892040253,
                        -0.9138867855072021,
                        -0.5357444286346436,
                        -0.31917229294776917,
                        -0.38416221737861633,
                        0.4982849359512329,
                        0.3663215637207031,
                        -0.10131485760211945,
                        -0.9679234623908997,
                        -0.7193496823310852,
                        0.869010865688324,
                        0.864428699016571,
                        0.43767499923706055,
                        -0.37842345237731934,
                        -0.7080211043357849,
                        -0.297691285610199,
                        0.8426377773284912,
                        -0.22946809232234955,
                        -0.19223536550998688,
                        0.33283206820487976,
                        -0.2474088966846466,
                        -0.23702676594257355,
                        0.17180463671684265,
                        0.12118922919034958,
                        -0.14015677571296692,
                        -0.20953792333602905,
                        -0.14183317124843597,
                        0.5921922922134399,
                        -0.6982167363166809,
                        0.08875215798616409,
                        1.021498203277588,
                        0.39628058671951294,
                        -0.8169271349906921,
                        0.19513192772865295,
                        1.1644161939620972,
                        -0.5803998708724976,
                        0.6265226602554321,
                        -0.396049439907074,
                        1.2034856081008911,
                        -0.5524193644523621,
                        0.6724318861961365,
                        0.8505921363830566,
                        -0.8897156119346619,
                        0.44806626439094543,
                        0.20844142138957977,
                        -0.6202226877212524
                    ],
                    [
                        0.17296405136585236,
                        0.4076060354709625,
                        -0.16352948546409607,
                        -0.21324828267097473,
                        -0.15778052806854248,
                        0.09090893715620041,
                        0.26365044713020325,
                        -0.1697070300579071,
                        0.06927767395973206,
                        0.12702538073062897,
                        -0.08385153114795685,
                        0.19941812753677368,
                        -0.18333961069583893,
                        -0.17355434596538544,
                        0.0622468963265419,
                        0.12217503786087036,
                        -0.16521112620830536,
                        0.34015634655952454,
                        -0.0632600262761116,
                        0.0066938274540007114,
                        -0.09667344391345978,
                        -0.1618686318397522,
                        0.08235453069210052,
                        0.03886101394891739,
                        0.09732657670974731,
                        0.07375500351190567,
                        0.04842964559793472,
                        -0.10766252875328064,
                        0.09445209056138992,
                        0.13937166333198547,
                        -0.08295051008462906,
                        -0.15307602286338806,
                        -0.25179097056388855,
                        -0.1605273336172104,
                        0.07634886354207993,
                        0.09018006920814514,
                        -0.13605879247188568,
                        0.20803183317184448,
                        -0.18567046523094177,
                        -0.14460335671901703,
                        0.16567745804786682,
                        -0.10976451635360718,
                        0.028124310076236725,
                        0.14108861982822418,
                        -0.06143852695822716,
                        -0.1965199112892151,
                        0.22118429839611053,
                        0.07448829710483551,
                        0.26766857504844666,
                        0.20331238210201263,
                        0.008612342178821564,
                        0.20463413000106812,
                        -0.2401849627494812,
                        -0.20567966997623444,
                        -0.0076341875828802586,
                        -0.15093089640140533,
                        0.005433991085737944,
                        -0.11530531942844391,
                        0.17331275343894958,
                        -0.28201451897621155,
                        -0.24121029675006866,
                        -0.19375550746917725,
                        0.02400711551308632,
                        -0.20754723250865936,
                        -0.202886164188385,
                        -0.1897541880607605,
                        0.12360121309757233,
                        0.19334639608860016,
                        -0.08399644494056702,
                        -0.04022017493844032,
                        0.2292446345090866,
                        -0.006875231396406889,
                        0.26116707921028137,
                        0.1329435408115387,
                        0.22187404334545135,
                        0.3918974697589874,
                        -0.0284954234957695,
                        0.01970677822828293,
                        -0.18797829747200012,
                        0.05308142304420471,
                        0.0712808296084404,
                        0.1436939537525177,
                        0.21364706754684448,
                        0.04711080715060234,
                        0.29542672634124756,
                        0.19697585701942444,
                        0.3120771050453186,
                        0.07746949791908264,
                        0.14133107662200928,
                        -0.07414140552282333,
                        0.08719823509454727,
                        0.3110049068927765,
                        -0.13022984564304352,
                        0.05094311386346817,
                        0.0036050104536116123,
                        -0.06951301544904709,
                        -0.12006355822086334,
                        -0.20727545022964478,
                        0.12013014405965805,
                        -0.14388641715049744,
                        0.26337355375289917,
                        0.062302328646183014,
                        0.32952481508255005,
                        -0.07872776687145233,
                        0.09024868905544281,
                        -0.0071196360513567924,
                        -0.33624371886253357,
                        -0.006557352840900421,
                        -0.16974516212940216,
                        -0.09981148689985275,
                        0.08715464919805527,
                        0.020859280601143837,
                        -0.14883293211460114,
                        -0.10434331744909286,
                        -0.11221786588430405,
                        0.12670038640499115,
                        0.15478159487247467,
                        0.09230557084083557,
                        0.08711177110671997,
                        -0.06674840301275253,
                        -0.13375705480575562,
                        -0.4155776798725128,
                        0.2362694889307022,
                        -0.0843035951256752,
                        0.10445288568735123,
                        0.3257918655872345,
                        0.0644192323088646,
                        -0.07835577428340912
                    ],
                    [
                        -0.45281121134757996,
                        -1.8236634731292725,
                        0.7319170236587524,
                        1.3441356420516968,
                        1.2383760213851929,
                        1.066186547279358,
                        -0.6700950860977173,
                        0.10513614118099213,
                        -1.1019757986068726,
                        -0.8338479995727539,
                        -0.2655135989189148,
                        -0.33189377188682556,
                        -1.1590114831924438,
                        0.17805586755275726,
                        0.586010754108429,
                        1.4434924125671387,
                        -0.5179373025894165,
                        -0.9997170567512512,
                        1.2438520193099976,
                        0.9889736175537109,
                        -0.5641434192657471,
                        0.05870385840535164,
                        -1.085486650466919,
                        0.016791170462965965,
                        -0.1934274286031723,
                        -1.242544412612915,
                        -1.343599796295166,
                        0.3442796766757965,
                        -0.06469465047121048,
                        -1.2584011554718018,
                        -0.2337101250886917,
                        -1.051849603652954,
                        0.3337654769420624,
                        0.1419149488210678,
                        -1.1007124185562134,
                        -0.8484987020492554,
                        -0.10368011891841888,
                        -0.6159487962722778,
                        0.457765132188797,
                        0.8091251850128174,
                        -0.6418325901031494,
                        0.21786390244960785,
                        0.3029690384864807,
                        -0.6920660138130188,
                        1.024533748626709,
                        -0.49199968576431274,
                        0.31604549288749695,
                        0.6998215317726135,
                        -0.437563419342041,
                        0.5528249740600586,
                        1.9409087896347046,
                        -0.992388129234314,
                        -0.42235469818115234,
                        1.152335286140442,
                        -1.154836893081665,
                        0.19029684364795685,
                        -1.2518329620361328,
                        1.2838691473007202,
                        0.7700917720794678,
                        0.05990443751215935,
                        0.8457322716712952,
                        0.7407426834106445,
                        -0.06290248036384583,
                        -0.916165292263031,
                        -0.01151285134255886,
                        -0.11135293543338776,
                        -1.1232272386550903,
                        -1.3286595344543457,
                        -0.18204525113105774,
                        1.1122064590454102,
                        -0.2639312148094177,
                        1.4397140741348267,
                        0.3534567356109619,
                        -0.058215320110321045,
                        0.6485233306884766,
                        -0.8047561645507812,
                        0.21995268762111664,
                        -1.2299288511276245,
                        -0.18418319523334503,
                        0.8958783149719238,
                        0.12013012170791626,
                        -0.4319756031036377,
                        0.1485508233308792,
                        0.6437534093856812,
                        -0.5407961010932922,
                        0.4408210813999176,
                        -0.0441262386739254,
                        -1.1831333637237549,
                        -0.393267959356308,
                        -0.1384449303150177,
                        0.8482126593589783,
                        -1.3684720993041992,
                        -1.0719146728515625,
                        0.7793644070625305,
                        -1.0364291667938232,
                        -0.6681678295135498,
                        -0.5549361705780029,
                        -0.08510363847017288,
                        -1.1053166389465332,
                        -0.17884327471256256,
                        -0.7172179222106934,
                        -0.7801343202590942,
                        -0.2315872460603714,
                        1.1859898567199707,
                        -0.22520387172698975,
                        1.790557622909546,
                        0.8571445345878601,
                        -0.8943808674812317,
                        1.3579306602478027,
                        -0.5816917419433594,
                        0.5679698586463928,
                        -0.9934508800506592,
                        -0.4212264120578766,
                        1.3746095895767212,
                        0.46530380845069885,
                        -0.2852165102958679,
                        0.16574646532535553,
                        -1.6165813207626343,
                        0.8077476620674133,
                        -0.08516467362642288,
                        0.6793888211250305,
                        -0.09899232536554337,
                        0.8602507710456848,
                        -0.03858569636940956,
                        -0.821659505367279,
                        -0.77920001745224,
                        -0.8904405236244202,
                        0.4199773073196411
                    ],
                    [
                        -0.36225053668022156,
                        0.2082284390926361,
                        0.11375188082456589,
                        0.8621251583099365,
                        -1.0112706422805786,
                        -0.056021735072135925,
                        -0.45751288533210754,
                        0.06404303014278412,
                        0.009325283579528332,
                        -0.558260977268219,
                        -1.1321508884429932,
                        1.1196664571762085,
                        -1.1790484189987183,
                        1.125839114189148,
                        2.0875566005706787,
                        -0.046852149069309235,
                        -2.514885902404785,
                        1.513540506362915,
                        -1.0852631330490112,
                        -1.2811743021011353,
                        -0.28262144327163696,
                        0.8480486869812012,
                        0.3805694282054901,
                        1.7198172807693481,
                        -1.1932836771011353,
                        -2.3548176288604736,
                        1.1555320024490356,
                        -1.2180911302566528,
                        -0.8911723494529724,
                        -0.301948219537735,
                        -0.8258660435676575,
                        -0.7844882011413574,
                        1.45330011844635,
                        0.3491198718547821,
                        0.581312894821167,
                        0.9340616464614868,
                        0.6442170739173889,
                        -0.19072476029396057,
                        -1.949817419052124,
                        -1.35014808177948,
                        0.10185375809669495,
                        -3.9297935962677,
                        -0.5427513122558594,
                        1.7618616819381714,
                        -1.0255552530288696,
                        0.5127385258674622,
                        0.6990841031074524,
                        1.2102789878845215,
                        -0.9312140941619873,
                        0.7175890803337097,
                        -1.441625952720642,
                        0.6576856374740601,
                        1.1857013702392578,
                        1.4268313646316528,
                        -0.09371281415224075,
                        -1.4488869905471802,
                        -3.2528140544891357,
                        -0.7189818620681763,
                        1.219852089881897,
                        1.4435900449752808,
                        0.729703962802887,
                        -0.09678968787193298,
                        -0.6100477576255798,
                        1.8858942985534668,
                        -0.8537653684616089,
                        -0.5001697540283203,
                        1.7979305982589722,
                        0.4328729212284088,
                        0.8326429128646851,
                        -0.7211494445800781,
                        -1.3059855699539185,
                        0.0950077548623085,
                        1.207663893699646,
                        1.547731876373291,
                        -0.6440554261207581,
                        -0.6185770034790039,
                        -1.2753372192382812,
                        2.5327200889587402,
                        1.1860905885696411,
                        -1.3340307474136353,
                        0.055837925523519516,
                        0.3763670325279236,
                        -0.5612756609916687,
                        0.558113157749176,
                        2.0724921226501465,
                        1.7528507709503174,
                        -0.2724054455757141,
                        1.3161005973815918,
                        -0.0455264076590538,
                        0.6949908137321472,
                        2.1295719146728516,
                        0.6455397605895996,
                        1.133317470550537,
                        0.0680842250585556,
                        1.459587574005127,
                        -0.5437455177307129,
                        -1.6613965034484863,
                        -1.3019076585769653,
                        -0.6828600168228149,
                        -0.12587034702301025,
                        -0.7443825006484985,
                        0.1516297310590744,
                        -0.45479151606559753,
                        -1.2799023389816284,
                        -0.4787757992744446,
                        -0.7829591035842896,
                        0.3258320093154907,
                        1.9163691997528076,
                        0.2135293334722519,
                        1.7367576360702515,
                        0.4616338312625885,
                        -0.009485853835940361,
                        -1.718322515487671,
                        -0.6233230233192444,
                        -1.3628031015396118,
                        0.8710790276527405,
                        1.0926538705825806,
                        1.2488409280776978,
                        0.9445568323135376,
                        -1.8049489259719849,
                        -1.3199899196624756,
                        -0.7135433554649353,
                        -1.362807035446167,
                        -1.064017415046692,
                        1.8253207206726074,
                        1.4669902324676514,
                        -0.0909857451915741,
                        0.08677879720926285
                    ],
                    [
                        0.6521753668785095,
                        0.3792158365249634,
                        -0.5064070224761963,
                        0.5387114882469177,
                        0.11287893354892731,
                        -1.294613242149353,
                        -1.2402830123901367,
                        -0.1353505253791809,
                        -1.0201467275619507,
                        -0.6890780925750732,
                        0.508125901222229,
                        0.2227649837732315,
                        1.1902016401290894,
                        -0.09111592918634415,
                        -0.7932295799255371,
                        -0.8900679349899292,
                        0.656464159488678,
                        1.5099157094955444,
                        -0.1509193480014801,
                        -0.2548668086528778,
                        0.48549580574035645,
                        -0.7510071992874146,
                        0.3642105162143707,
                        1.7192375659942627,
                        0.8923227787017822,
                        -1.0389609336853027,
                        -1.2999340295791626,
                        0.06552635878324509,
                        -0.5401436686515808,
                        -0.20869678258895874,
                        -1.410476565361023,
                        0.8509417176246643,
                        1.9130134582519531,
                        0.4072055220603943,
                        -0.6963079571723938,
                        0.15078139305114746,
                        0.785822331905365,
                        -0.9023391008377075,
                        -0.5659010410308838,
                        -0.6672685742378235,
                        -1.6352368593215942,
                        -0.03808623179793358,
                        -0.4065096974372864,
                        0.293873131275177,
                        -0.2408677190542221,
                        0.42611193656921387,
                        -0.8655464053153992,
                        0.34575241804122925,
                        -1.147670030593872,
                        1.1213809251785278,
                        -0.076602041721344,
                        0.31147322058677673,
                        0.8785302042961121,
                        -1.0949113368988037,
                        0.9685456156730652,
                        0.08262690156698227,
                        0.3767816126346588,
                        0.9608644843101501,
                        -0.8035637736320496,
                        -1.5751748085021973,
                        -1.0042237043380737,
                        0.3415049612522125,
                        0.7339088320732117,
                        0.805193305015564,
                        0.12923039495944977,
                        -1.692362666130066,
                        -0.4330389201641083,
                        -0.574883759021759,
                        0.4574410617351532,
                        -0.7688617706298828,
                        1.1177228689193726,
                        0.9212633967399597,
                        -0.9209340810775757,
                        -0.7011842727661133,
                        -0.01620369963347912,
                        0.5359014272689819,
                        -1.3266990184783936,
                        1.687133550643921,
                        1.197273850440979,
                        -1.0280742645263672,
                        0.946704626083374,
                        0.763940691947937,
                        0.6738273501396179,
                        0.7675507664680481,
                        -0.9483031630516052,
                        1.6806379556655884,
                        0.8513288497924805,
                        -0.6466460227966309,
                        -0.4059821665287018,
                        -0.44787466526031494,
                        0.09881337732076645,
                        -1.037024974822998,
                        -0.37230178713798523,
                        -0.44901689887046814,
                        0.5661147236824036,
                        0.6324318647384644,
                        0.6724455952644348,
                        -1.1127327680587769,
                        -1.2043225765228271,
                        1.0274147987365723,
                        0.774189293384552,
                        0.13110370934009552,
                        1.3751718997955322,
                        0.07344961911439896,
                        -0.7627143859863281,
                        -0.4496352970600128,
                        -0.4292418658733368,
                        0.75870281457901,
                        0.07616575807332993,
                        0.09368252009153366,
                        0.6467132568359375,
                        -2.297909736633301,
                        1.2940943241119385,
                        0.9170956611633301,
                        0.3413759171962738,
                        -1.2228915691375732,
                        -1.2213020324707031,
                        2.4042346477508545,
                        -0.3387829065322876,
                        0.6368947625160217,
                        -1.4520329236984253,
                        0.5750035643577576,
                        0.49928438663482666,
                        0.031056854873895645,
                        0.7851808071136475,
                        -0.5721529722213745,
                        0.7262105941772461,
                        -1.1031564474105835
                    ],
                    [
                        -0.04133525490760803,
                        -0.22751420736312866,
                        0.20782847702503204,
                        0.931739866733551,
                        -1.3250837326049805,
                        -0.5227569341659546,
                        -0.6728898882865906,
                        0.7911710739135742,
                        -0.664015531539917,
                        -0.5675140023231506,
                        -0.5025466084480286,
                        -0.6834315061569214,
                        0.6300565004348755,
                        -0.956559956073761,
                        0.08534674346446991,
                        0.08835133165121078,
                        -0.5680434107780457,
                        0.6014363765716553,
                        1.4032955169677734,
                        0.2365318387746811,
                        -0.544480562210083,
                        0.3926204741001129,
                        -0.09631067514419556,
                        0.9908586144447327,
                        0.3111746907234192,
                        0.7798997759819031,
                        -0.787764847278595,
                        0.9473545551300049,
                        0.14436738193035126,
                        0.46343865990638733,
                        0.08230616897344589,
                        0.26692506670951843,
                        0.43355050683021545,
                        -0.20757445693016052,
                        -1.4698647260665894,
                        -1.5170382261276245,
                        1.078109622001648,
                        -0.3407234847545624,
                        0.4820776581764221,
                        0.6341992616653442,
                        0.9857077598571777,
                        -0.04212702438235283,
                        0.9770603179931641,
                        -0.39254897832870483,
                        1.1668468713760376,
                        1.2202770709991455,
                        -0.24565739929676056,
                        -0.6528048515319824,
                        -0.9892157316207886,
                        -0.4253702759742737,
                        -0.005501539912074804,
                        -0.8885601162910461,
                        0.6471453309059143,
                        0.3129196763038635,
                        -0.37693479657173157,
                        -0.4019947052001953,
                        -0.26514968276023865,
                        0.5479783415794373,
                        -0.1161968857049942,
                        -0.10458700358867645,
                        -0.7430782318115234,
                        0.8814941048622131,
                        0.5432654619216919,
                        0.8260140419006348,
                        0.5267106890678406,
                        0.5999826788902283,
                        -1.183240532875061,
                        -0.7911648750305176,
                        -0.1483631730079651,
                        1.2199082374572754,
                        -0.7322231531143188,
                        1.6120789051055908,
                        0.6766051054000854,
                        -1.4117255210876465,
                        0.5772581696510315,
                        -0.44930800795555115,
                        -0.8317373991012573,
                        -0.4886353611946106,
                        -0.26262426376342773,
                        -0.5010436177253723,
                        -0.5660920739173889,
                        -0.881148636341095,
                        -0.6125362515449524,
                        0.4127669036388397,
                        -0.16389913856983185,
                        -0.7472795248031616,
                        -0.8460216522216797,
                        -0.7292802929878235,
                        -0.06721863895654678,
                        -0.3357340395450592,
                        0.38058337569236755,
                        -0.43106257915496826,
                        0.25999659299850464,
                        -0.8584938049316406,
                        0.07952868193387985,
                        -0.642474889755249,
                        0.9102143049240112,
                        -0.49231067299842834,
                        0.3899078667163849,
                        0.3035694658756256,
                        0.0074515813030302525,
                        1.2019717693328857,
                        -0.09939034283161163,
                        0.7899474501609802,
                        -0.12264283746480942,
                        0.1825675517320633,
                        1.3977097272872925,
                        -0.42862656712532043,
                        1.554182767868042,
                        -0.7269079089164734,
                        -0.09145753085613251,
                        0.23017092049121857,
                        0.7946645021438599,
                        0.09095066040754318,
                        -0.5177792906761169,
                        0.793658435344696,
                        0.28624874353408813,
                        -0.42578303813934326,
                        0.08949141949415207,
                        -0.04101387411355972,
                        0.42421528697013855,
                        -0.14631178975105286,
                        -1.037465214729309,
                        -0.2958729863166809,
                        -0.5414318442344666,
                        -1.7601064443588257,
                        0.35059377551078796,
                        0.22976122796535492
                    ],
                    [
                        1.722922444343567,
                        -1.3556890487670898,
                        -1.3311327695846558,
                        -1.4121874570846558,
                        0.8312817811965942,
                        2.1223256587982178,
                        -0.6318340301513672,
                        -0.042221032083034515,
                        0.6676962375640869,
                        -1.9669756889343262,
                        -1.2326433658599854,
                        0.9957783818244934,
                        1.2371681928634644,
                        1.1564866304397583,
                        -0.925445556640625,
                        0.24725811183452606,
                        0.7564555406570435,
                        1.576967477798462,
                        0.9528176784515381,
                        -0.430923730134964,
                        -0.38213732838630676,
                        0.7722466588020325,
                        -0.5734321475028992,
                        1.5430485010147095,
                        -1.2479220628738403,
                        -0.2822103500366211,
                        0.5368824005126953,
                        -1.4001680612564087,
                        -0.3422200381755829,
                        0.43632403016090393,
                        -0.2853407561779022,
                        -0.5297914743423462,
                        -1.8256468772888184,
                        0.3979246914386749,
                        2.2051775455474854,
                        -0.6824588179588318,
                        -1.0597904920578003,
                        0.873457670211792,
                        1.085423231124878,
                        -0.5231768488883972,
                        0.15848150849342346,
                        0.3169358968734741,
                        0.8439626693725586,
                        -1.0294544696807861,
                        -0.1488606333732605,
                        -0.31558263301849365,
                        0.27333125472068787,
                        1.0065741539001465,
                        0.539334774017334,
                        0.43388575315475464,
                        -0.283528596162796,
                        0.517708420753479,
                        -0.6571674346923828,
                        -1.0660405158996582,
                        1.8276606798171997,
                        1.2293108701705933,
                        -0.40120530128479004,
                        -0.01178775168955326,
                        1.0298467874526978,
                        -1.9906193017959595,
                        -0.9289253950119019,
                        -1.6892646551132202,
                        -0.2624724209308624,
                        0.6455948948860168,
                        -1.6939815282821655,
                        -1.3683630228042603,
                        0.8152782917022705,
                        1.0862576961517334,
                        -1.1058354377746582,
                        -0.3001669943332672,
                        0.7546917200088501,
                        -0.5483372211456299,
                        0.3570411801338196,
                        1.1729881763458252,
                        0.03279620036482811,
                        -0.45761242508888245,
                        -0.28341928124427795,
                        0.6455199718475342,
                        -0.4269680976867676,
                        0.9507967829704285,
                        1.3895373344421387,
                        -0.5516136884689331,
                        1.8212624788284302,
                        -1.3917922973632812,
                        1.5591002702713013,
                        0.7323374152183533,
                        1.2141342163085938,
                        -1.2329258918762207,
                        0.8238909840583801,
                        1.8339276313781738,
                        -1.2538090944290161,
                        1.2700833082199097,
                        -1.3419290781021118,
                        -0.773158848285675,
                        1.7562057971954346,
                        -1.148783564567566,
                        1.700173020362854,
                        0.7151511311531067,
                        0.3425185978412628,
                        -0.7977809309959412,
                        0.7278692126274109,
                        1.6026177406311035,
                        -0.870015561580658,
                        -0.9209543466567993,
                        -1.337294101715088,
                        0.7116127610206604,
                        -0.12803548574447632,
                        -1.424980878829956,
                        0.39268770813941956,
                        1.5240294933319092,
                        0.3775039315223694,
                        -0.15151651203632355,
                        -1.0589925050735474,
                        -1.0795625448226929,
                        0.4919987618923187,
                        -0.16864348948001862,
                        -1.7224388122558594,
                        -0.01698516309261322,
                        1.8534690141677856,
                        -0.4861692488193512,
                        -0.42065563797950745,
                        -1.2201812267303467,
                        1.295797348022461,
                        1.6005859375,
                        1.6545623540878296,
                        3.3542640209198,
                        -0.8033729791641235,
                        0.9808086156845093
                    ],
                    [
                        -0.5890331864356995,
                        -0.39583727717399597,
                        -0.5517587065696716,
                        -0.992067277431488,
                        1.1595007181167603,
                        -0.6008917689323425,
                        0.8096769452095032,
                        -0.5223730802536011,
                        -0.5705001950263977,
                        -1.079798698425293,
                        0.33552607893943787,
                        0.11742079257965088,
                        1.2487460374832153,
                        -0.2574136257171631,
                        0.06020257994532585,
                        0.17802058160305023,
                        1.165212631225586,
                        -0.4836191236972809,
                        0.38574573397636414,
                        -0.3693196773529053,
                        -0.9493024349212646,
                        -0.5153506398200989,
                        0.5455182194709778,
                        0.5992037653923035,
                        -0.6989800333976746,
                        0.05589618906378746,
                        0.8789132237434387,
                        1.0428391695022583,
                        -0.35413646697998047,
                        -0.49526506662368774,
                        -0.19870586693286896,
                        -0.2393391728401184,
                        -0.016117500141263008,
                        -0.5117302536964417,
                        0.1480323225259781,
                        0.09443739801645279,
                        0.6121410131454468,
                        -1.4897540807724,
                        -1.0344555377960205,
                        -1.878095030784607,
                        -0.3564492166042328,
                        0.5476682186126709,
                        1.6812912225723267,
                        -0.8080494999885559,
                        0.5496320128440857,
                        1.1991901397705078,
                        1.3530536890029907,
                        0.4343476891517639,
                        -0.5756285190582275,
                        0.36989614367485046,
                        1.3304427862167358,
                        -1.3061308860778809,
                        1.1117812395095825,
                        1.0761686563491821,
                        0.09784308075904846,
                        -1.1131048202514648,
                        0.17479898035526276,
                        -1.001070261001587,
                        0.7911841869354248,
                        0.9496151804924011,
                        1.1482431888580322,
                        -1.0702106952667236,
                        -1.3527973890304565,
                        0.5976932048797607,
                        -1.7181981801986694,
                        0.5637314319610596,
                        0.4823835790157318,
                        0.3896796703338623,
                        -0.76114422082901,
                        -0.7088644504547119,
                        0.006907994858920574,
                        -0.458426296710968,
                        -0.6971293091773987,
                        0.31682288646698,
                        -1.232656717300415,
                        -0.4293268322944641,
                        0.7981706857681274,
                        0.3246772289276123,
                        0.5993549823760986,
                        0.7405946850776672,
                        -1.0274487733840942,
                        -0.6760302782058716,
                        -0.2722811996936798,
                        0.728248119354248,
                        -0.785837709903717,
                        -0.4745340049266815,
                        0.7682555913925171,
                        0.30366092920303345,
                        0.9638121724128723,
                        0.3884386420249939,
                        -0.6182836890220642,
                        0.34491756558418274,
                        1.112404704093933,
                        1.0106300115585327,
                        -0.12742891907691956,
                        0.011464179493486881,
                        -1.0352915525436401,
                        -0.22083309292793274,
                        -0.42506131529808044,
                        0.42846962809562683,
                        -1.1383541822433472,
                        -0.06995125859975815,
                        1.070814609527588,
                        1.0617122650146484,
                        -0.4026651978492737,
                        -1.3855278491973877,
                        0.29186809062957764,
                        -0.9614335298538208,
                        0.2017953097820282,
                        0.2065967470407486,
                        -0.2517907917499542,
                        2.1391401290893555,
                        -1.0003435611724854,
                        -0.14285720884799957,
                        -0.3154292404651642,
                        -0.9525453448295593,
                        -0.211578369140625,
                        0.858836829662323,
                        1.1727194786071777,
                        0.48160502314567566,
                        0.3552596867084503,
                        0.47202661633491516,
                        -0.08424773812294006,
                        0.691257655620575,
                        -0.22034122049808502,
                        1.1690384149551392,
                        1.3570430278778076,
                        1.6091771125793457
                    ],
                    [
                        0.916693925857544,
                        -0.21316352486610413,
                        -1.1778059005737305,
                        0.8594785928726196,
                        0.8347665071487427,
                        -1.1228141784667969,
                        -0.23442032933235168,
                        0.21364234387874603,
                        1.319165587425232,
                        0.20901422202587128,
                        1.2614622116088867,
                        -1.2701494693756104,
                        -0.7125782370567322,
                        1.2766152620315552,
                        -1.0336170196533203,
                        -0.04052487388253212,
                        -0.9638574719429016,
                        0.301233172416687,
                        -1.867318868637085,
                        0.47780629992485046,
                        -0.5169517993927002,
                        -1.0763664245605469,
                        -1.1140282154083252,
                        0.045297518372535706,
                        -0.5562410950660706,
                        -1.225434422492981,
                        -1.8681650161743164,
                        -0.5714372396469116,
                        0.12347633391618729,
                        1.284936785697937,
                        -0.274454265832901,
                        0.4789825975894928,
                        0.3759414255619049,
                        1.3078640699386597,
                        0.8285907506942749,
                        -0.2586667239665985,
                        -0.6624415516853333,
                        0.32247278094291687,
                        -0.004453567788004875,
                        1.462614893913269,
                        -1.5827394723892212,
                        -0.3323447108268738,
                        -0.4970671534538269,
                        -0.4694196879863739,
                        0.4349764883518219,
                        0.16708938777446747,
                        -1.3069617748260498,
                        0.6973608136177063,
                        -1.1212776899337769,
                        0.22138315439224243,
                        1.4719748497009277,
                        1.4214407205581665,
                        0.7323603630065918,
                        0.6182406544685364,
                        -0.784741222858429,
                        -0.8196484446525574,
                        0.17697955667972565,
                        1.6205509901046753,
                        0.20107866823673248,
                        0.2738845944404602,
                        0.04495371878147125,
                        1.140241265296936,
                        -0.12827368080615997,
                        -0.3105868995189667,
                        0.751844048500061,
                        -0.32336175441741943,
                        -0.7241843938827515,
                        0.49268510937690735,
                        0.17413127422332764,
                        1.1737061738967896,
                        -0.9082586765289307,
                        -0.49538475275039673,
                        -0.5322951674461365,
                        0.7799045443534851,
                        0.13330380618572235,
                        -0.8949121832847595,
                        1.3576420545578003,
                        -0.6139829754829407,
                        0.6556549668312073,
                        0.8487987518310547,
                        -0.2760009467601776,
                        0.654681384563446,
                        -0.7248952984809875,
                        0.3633255064487457,
                        -0.923502504825592,
                        0.3695165812969208,
                        1.1058119535446167,
                        -0.49701961874961853,
                        -0.47959041595458984,
                        -1.1077980995178223,
                        -0.30629435181617737,
                        0.07265821099281311,
                        -0.14571508765220642,
                        -0.42739951610565186,
                        -1.2166715860366821,
                        1.313703179359436,
                        0.4471672475337982,
                        -0.9255064725875854,
                        -1.9561285972595215,
                        -0.5458616614341736,
                        -0.29005861282348633,
                        -0.7012963891029358,
                        0.02295290306210518,
                        -0.2735256552696228,
                        1.614773154258728,
                        0.8927270174026489,
                        1.2091606855392456,
                        0.5944979786872864,
                        0.09049832075834274,
                        -0.1167411357164383,
                        0.4490586221218109,
                        0.3726675510406494,
                        0.7133219838142395,
                        0.21787236630916595,
                        0.4759063124656677,
                        -0.10199597477912903,
                        -1.7847625017166138,
                        -0.7303066849708557,
                        -0.48532184958457947,
                        -0.8716170787811279,
                        -0.8259158134460449,
                        1.0908418893814087,
                        -0.08742540329694748,
                        0.4763968288898468,
                        -0.7239319682121277,
                        -0.04091561585664749,
                        0.29554396867752075,
                        0.9029411673545837
                    ],
                    [
                        -1.074387550354004,
                        0.42803990840911865,
                        -0.2373322695493698,
                        1.6143794059753418,
                        0.8792015314102173,
                        0.32088667154312134,
                        -1.1669520139694214,
                        1.3615913391113281,
                        -0.3279206156730652,
                        -0.7654467821121216,
                        0.9342900514602661,
                        -2.116793632507324,
                        -0.1726282238960266,
                        1.4035427570343018,
                        -0.716246485710144,
                        -1.638214111328125,
                        0.8300233483314514,
                        0.20965994894504547,
                        0.7371541261672974,
                        2.0775609016418457,
                        0.38399508595466614,
                        0.16480964422225952,
                        -1.9978724718093872,
                        -1.2257285118103027,
                        -2.381831407546997,
                        -0.5609691739082336,
                        -0.37153393030166626,
                        0.038252539932727814,
                        0.6311177611351013,
                        -0.000186379678780213,
                        -0.8914343118667603,
                        1.2100341320037842,
                        -0.5516767501831055,
                        -0.23470209538936615,
                        0.38827285170555115,
                        -2.105140447616577,
                        -0.2620439827442169,
                        -1.1129909753799438,
                        -0.0960126668214798,
                        0.3737315237522125,
                        -0.2632317543029785,
                        -0.20788271725177765,
                        1.2537506818771362,
                        -2.1905746459960938,
                        0.14138132333755493,
                        -0.7941221594810486,
                        0.12896345555782318,
                        -1.5119062662124634,
                        -2.037795305252075,
                        0.4426705837249756,
                        0.009766647592186928,
                        -0.35766008496284485,
                        0.8824230432510376,
                        -1.2522929906845093,
                        0.25873878598213196,
                        1.133788824081421,
                        0.9935407042503357,
                        -0.11662118136882782,
                        1.4358774423599243,
                        -0.42423030734062195,
                        0.9691575169563293,
                        -0.13133788108825684,
                        -0.7704546451568604,
                        -0.6464983224868774,
                        -0.7778286933898926,
                        0.3323132395744324,
                        -1.0806864500045776,
                        -0.7137162089347839,
                        1.3930258750915527,
                        0.3857627213001251,
                        -1.150537371635437,
                        -1.038207769393921,
                        -0.6584863662719727,
                        -0.19384066760540009,
                        1.0778342485427856,
                        -0.9058516621589661,
                        -0.4500705301761627,
                        -0.6529653668403625,
                        -0.21731935441493988,
                        -1.067618489265442,
                        0.2083788961172104,
                        0.564257800579071,
                        -0.4449554979801178,
                        -0.4641152620315552,
                        -1.7709999084472656,
                        -0.48770564794540405,
                        -1.3582279682159424,
                        -0.44713294506073,
                        0.9080809354782104,
                        0.658582866191864,
                        -0.10181321203708649,
                        -0.8634041547775269,
                        0.8579041957855225,
                        0.9845597743988037,
                        -1.3754589557647705,
                        -0.41880786418914795,
                        0.34141767024993896,
                        -1.1091601848602295,
                        -0.46787306666374207,
                        0.19396205246448517,
                        -0.7004467844963074,
                        0.16518135368824005,
                        -2.2592854499816895,
                        -0.7708026766777039,
                        -0.6820412278175354,
                        -0.8112308382987976,
                        0.29371705651283264,
                        -0.5850233435630798,
                        1.4460337162017822,
                        -0.5725743770599365,
                        -0.3645942211151123,
                        -0.5607624053955078,
                        -0.690652072429657,
                        -0.4657580852508545,
                        -0.8139702677726746,
                        -0.04049951210618019,
                        0.31076160073280334,
                        0.7770525217056274,
                        0.46302488446235657,
                        1.4893105030059814,
                        -1.5665348768234253,
                        1.7651374340057373,
                        -0.3598189055919647,
                        0.733001708984375,
                        -0.27123120427131653,
                        -1.2700157165527344,
                        0.004233375657349825,
                        -1.2665281295776367
                    ],
                    [
                        -0.27623531222343445,
                        0.37758100032806396,
                        0.018711240962147713,
                        -0.8457599878311157,
                        -0.7167459726333618,
                        0.7874757647514343,
                        -0.3694978356361389,
                        0.04178372770547867,
                        1.0020051002502441,
                        0.7479925751686096,
                        -0.022314395755529404,
                        0.4350264072418213,
                        0.62730473279953,
                        -0.0658552423119545,
                        -0.8803591728210449,
                        0.09425554424524307,
                        0.32201847434043884,
                        -0.3239269256591797,
                        -0.20873107016086578,
                        -0.24859927594661713,
                        1.2758655548095703,
                        -0.641108512878418,
                        -0.20812608301639557,
                        0.09768844395875931,
                        0.8172860741615295,
                        -0.9127415418624878,
                        1.2812530994415283,
                        0.8294910192489624,
                        -1.5279427766799927,
                        0.8029525876045227,
                        0.27531975507736206,
                        0.7335448265075684,
                        -0.07326614856719971,
                        -0.07953397184610367,
