{"use_imu": true, "observation_history": 2, "action_scale": 0.75, "kp": 5.0, "kd": 0.25, "default_pose": [0.25999999046325684, 0.0, -0.5199999809265137, -0.25999999046325684, 0.0, 0.5199999809265137, 0.25999999046325684, 0.0, -0.5199999809265137, -0.25999999046325684, 0.0, 0.5199999809265137], "joint_upper_limits": [2.509999990463257, 3.140000104904175, 0.7099999785423279, 1.2200000286102295, 0.41999998688697815, 2.7899999618530273, 2.509999990463257, 3.140000104904175, 0.7099999785423279, 1.2200000286102295, 0.41999998688697815, 2.7899999618530273], "joint_lower_limits": [-1.2200000286102295, -0.41999998688697815, -2.7899999618530273, -2.509999990463257, -3.140000104904175, -0.7099999785423279, -1.2200000286102295, -0.41999998688697815, -2.7899999618530273, -2.509999990463257, -3.140000104904175, -0.7099999785423279], "in_shape": [null, 72], "layers": [{"type": "dense", "activation": "elu", "shape": [null, 256], "weights": [[[-0.0824025571346283, -0.06856504082679749, -0.07097449898719788, 0.04160870984196663, 0.009031780064105988, 0.21619883179664612, -0.025438833981752396, 0.09164324402809143, 0.008758229203522205, 0.1937006264925003, -0.10758227854967117, 0.11958775669336319, 0.007973910309374332, -0.055457912385463715, 0.26133492588996887, 0.168879434466362, -0.19538730382919312, -0.04984757676720619, -0.24526827037334442, -0.23016497492790222, 0.051868267357349396, -0.3163128197193146, 0.09968148916959763, -0.1263493448495865, 0.1804390400648117, -0.08543749153614044, 0.014210373163223267, 0.07757160067558289, -0.05486138164997101, -0.14117112755775452, 0.020415719598531723, 0.1245412826538086, -0.03973767161369324, -0.25155577063560486, 0.17004667222499847, 0.1298695206642151, 0.10043551027774811, 0.04757455736398697, -0.021774988621473312, 0.04741070419549942, 0.3478904962539673, -0.03098192811012268, 0.47406673431396484, 0.09943388402462006, -0.09449351578950882, 0.08704344928264618, -0.22411257028579712, 0.076067253947258, -0.2799273729324341, -0.043808843940496445, 0.19580942392349243, 0.053961921483278275, 0.14736558496952057, -0.03302488476037979, -0.0850396528840065, -0.16360774636268616, -0.012430348433554173, 0.0512586273252964, -0.270309180021286, -0.13785666227340698, -0.051463235169649124, -0.019681237637996674, 0.21538686752319336, -0.011120620183646679, -0.03896300867199898, -0.08583593368530273, -0.12468551844358444, -0.008330906741321087, 0.024646330624818802, -0.24754206836223602, 0.06449984759092331, 0.07916045188903809, 0.04070211946964264, -0.03968740999698639, -0.07463948428630829, -0.20470547676086426, -0.07481464743614197, 0.2528541088104248, -0.15705470740795135, 0.03187893331050873, -0.09167424589395523, 0.24772712588310242, -0.15048879384994507, -0.04709463194012642, 0.1918887495994568, -0.35597988963127136, -0.07676263153553009, 0.17028670012950897, 0.0005155582330189645, -0.1081073060631752, -0.049844395369291306, 0.021734708920121193, -0.3067082464694977, -0.015771986916661263, 0.049045316874980927, -0.05506380274891853, 0.018122460693120956, 0.09904851019382477, 0.2507838010787964, 0.15042713284492493, 0.02410891465842724, 0.03160644322633743, -0.1560480296611786, -0.0770520269870758, -0.011806642636656761, -0.07320219278335571, -0.02142772078514099, 0.0269145704805851, 0.12682217359542847, 0.024355435743927956, 0.07881158590316772, -0.008897338062524796, 0.02955958992242813, 0.1813788115978241, -0.026859799399971962, 0.1472628116607666, 0.0881161242723465, -0.027781818062067032, 0.14852719008922577, 0.09307612478733063, 0.34156569838523865, -0.010105302557349205, 0.2010919600725174, 0.012799854390323162, 0.36749067902565, -0.09299873560667038, -0.07471611350774765, 0.0977897047996521, 0.2088596671819687, -0.04031696915626526, -0.07402186840772629, 0.05561286211013794, -0.12735779583454132, -0.0890294760465622, 0.03479207307100296, 0.1784878671169281, 0.08465839922428131, 0.31040289998054504, -0.038503993302583694, -0.058378953486680984, -0.19447273015975952, -0.10786699503660202, 0.1213003396987915, 0.2793261706829071, -0.010705196298658848, -0.3428472578525543, 0.16341476142406464, 0.2199706882238388, 0.05958456173539162, 0.027534423395991325, -0.06140837073326111, 0.03254267945885658, -0.17715027928352356, -0.16902346909046173, -0.047562677413225174, -0.12585432827472687, -0.11250222474336624, 0.056963395327329636, -0.06564545631408691, 0.13637793064117432, 0.024573538452386856, -0.06606242805719376, 0.040548741817474365, 0.13139431178569794, -0.22758908569812775, 0.12064755707979202, -0.2521282136440277, -0.2822006344795227, -0.12232527881860733, 0.2351546734571457, -0.06356370449066162, 0.23849594593048096, -0.3660868704319, 0.2128775268793106, 0.023854628205299377, 0.0028753001242876053, 0.012444958090782166, 0.2962995171546936, 0.09352745115756989, 0.14398819208145142, -0.13355380296707153, 0.10819022357463837, -0.1530044674873352, -0.11925316601991653, 0.04102861136198044, -0.13577528297901154, -0.013802370056509972, -0.07217728346586227, 0.09929612278938293, -0.008362086489796638, 0.026236368343234062, -0.04909162595868111, -0.03721574321389198, -0.08618463575839996, 0.32152998447418213, -0.20136131346225739, -0.1651536524295807, 0.24694684147834778, -0.13787941634655, 0.39453136920928955, -0.16205011308193207, -0.07282521575689316, -0.03213170915842056, 0.022400109097361565, 0.13894455134868622, -0.0234452486038208, -0.018287882208824158, 0.07226156443357468, 0.09041564166545868, -0.09374527633190155, -0.16563482582569122, -0.08970153331756592, -0.09898317605257034, -0.06373376399278641, -0.019897140562534332, 0.1350778192281723, -0.08317425101995468, 0.08878208696842194, -0.04203341156244278, -0.1077195480465889, -0.10498761385679245, -0.08621102571487427, 0.15195636451244354, 0.09255818277597427, 0.09887579828500748, 0.17544054985046387, 0.07947257161140442, 0.22377702593803406, 0.15356071293354034, -0.011386829428374767, 0.02541457489132881, -0.11799397319555283, -0.027414383366703987, -0.05574218928813934, -0.0010133684845641255, -0.22075118124485016, -0.235441654920578, -0.008601490408182144, -0.092429518699646, -0.19707396626472473, 0.025115611031651497, -0.10385189950466156, 0.0006979753961786628, 0.13458716869354248, 0.0674978494644165, -0.006445675622671843, -0.024900035932660103, 0.31673741340637207, 0.19839534163475037, -0.025702597573399544, 0.379938542842865, 0.07061344385147095, 0.16849340498447418, 0.17646251618862152, -0.11093097925186157, -0.2519073188304901], [0.04489346593618393, -0.06655365228652954, -0.37283188104629517, -0.23463112115859985, -0.1511353701353073, 0.06916619092226028, -0.05984030291438103, 0.249309703707695, -0.05568109452724457, 0.013154803775250912, -0.0007978375651873648, 0.020943233743309975, 0.36097490787506104, -0.015634777024388313, -0.3319299817085266, 0.0019537881016731262, -0.08171533048152924, -0.11249875277280807, -0.19026339054107666, -0.016059331595897675, -0.002625242341309786, -0.3193032145500183, -0.04577271267771721, -0.03135976940393448, 0.04609553515911102, 0.051165252923965454, -0.03464329615235329, 0.03723618760704994, -0.24326735734939575, 0.14050595462322235, 0.07540175318717957, 0.12283129245042801, 0.2144429087638855, -0.04937521740794182, 0.009612266905605793, -0.10585016012191772, -0.0613737590610981, 0.17979933321475983, -0.0835336223244667, -0.09582377970218658, 0.0900251492857933, -0.1387496143579483, -0.4517948031425476, -0.1388469934463501, 0.058125607669353485, -0.0005934498040005565, -0.12470261752605438, 0.02884376049041748, 0.1106758862733841, 0.22695553302764893, -0.218812957406044, 0.1687849462032318, 0.1380719095468521, -0.2712685167789459, -0.2731802761554718, 0.07268770784139633, -0.0521768257021904, 0.2150440663099289, -0.09439121931791306, -0.1435348242521286, 0.2670026123523712, 0.06843238323926926, 0.16148163378238678, -0.03850667178630829, -0.2219385951757431, 0.006289413198828697, 0.03919126093387604, 0.011730191297829151, 0.39718636870384216, 0.06164757162332535, -0.046961426734924316, -0.028404338285326958, -0.049737606197595596, -0.5084087252616882, 0.0850781723856926, -0.1607871651649475, -0.015624331310391426, -0.08159513026475906, -0.17146368324756622, -0.08740751445293427, 0.1585497409105301, 0.0769580528140068, -0.0469588078558445, -0.24988916516304016, 0.1375681459903717, -0.15879188477993011, 0.25823140144348145, 0.14166192710399628, 0.07136450707912445, 0.25570401549339294, 0.1166321337223053, 0.07016238570213318, -0.02977040968835354, -0.13102039694786072, -0.06898266822099686, 0.08255445957183838, -0.09790052473545074, -0.04611251875758171, -0.2875644564628601, 0.09367451816797256, -0.2583351135253906, -0.06816351413726807, 0.3100830912590027, -0.15476027131080627, 0.334335595369339, 0.17777487635612488, -0.22893992066383362, -0.09831270575523376, 0.10372092574834824, -0.08114666491746902, 0.08682451397180557, -0.3052501082420349, 0.08075880259275436, -0.1551346480846405, 0.11707492917776108, -0.10190802067518234, 0.1431683599948883, 0.08878999203443527, -0.1889447420835495, -0.08911298215389252, -0.37910035252571106, 0.10295896977186203, 0.06627573817968369, -0.07928728312253952, -0.058519329875707626, -0.0785180926322937, 0.22917050123214722, -0.0751555934548378, 0.006471830885857344, 0.16590562462806702, -0.10809377580881119, 0.009253435768187046, 0.008030539378523827, -0.032646600157022476, -0.2466343641281128, -0.08755423873662949, -0.5758453607559204, 0.15262770652770996, 0.012377743609249592, -0.13586685061454773, 0.12664474546909332, 0.38644298911094666, 0.026573317125439644, 0.18486768007278442, -0.03380722925066948, -0.05606512725353241, 0.20477350056171417, 0.0724036768078804, -0.2676777243614197, -0.023333443328738213, 0.1292782574892044, 0.34675174951553345, 0.2065412402153015, 0.012275641784071922, 0.09535922110080719, 0.10893711447715759, -0.08951006084680557, 0.023215938359498978, -0.3395005464553833, -0.021245663985610008, -0.22072967886924744, 0.3101738393306732, -0.093665212392807, -0.09475015848875046, -0.10431171208620071, 0.20674437284469604, -0.1510665863752365, 0.11128640919923782, -0.08267831802368164, 0.00924170482903719, -0.18798889219760895, -0.438377320766449, -0.16198685765266418, -0.0666753426194191, -0.15899984538555145, 0.19947080314159393, -0.1564621478319168, -0.05380306392908096, 0.08752693235874176, -0.06247076019644737, 0.12924683094024658, 0.09993777424097061, 0.3038541078567505, -0.018338043242692947, 0.08790921419858932, -0.010026340372860432, 0.25391796231269836, 0.074943408370018, -0.03585905209183693, -0.012204405851662159, -0.0641179233789444, -0.23051272332668304, 0.10453318804502487, -0.20491455495357513, -0.021471424028277397, 0.26794418692588806, -0.03291807696223259, 0.28194910287857056, -0.05372384935617447, -0.16635581851005554, 0.06859759986400604, -0.21803413331508636, 0.018122097477316856, 0.09138253331184387, 0.07961936295032501, 0.016497336328029633, 0.0997457206249237, 0.1646638661623001, -0.08115284889936447, 0.18560898303985596, -0.16291475296020508, -0.13746316730976105, 0.27823832631111145, 0.1674945056438446, -0.03465534746646881, 0.2255856841802597, 0.0859997421503067, -0.16668656468391418, 0.05127834528684616, 0.16012421250343323, -0.10826598852872849, 0.16562020778656006, 0.19713814556598663, 0.2474324107170105, 0.31901124119758606, 0.35219115018844604, -0.05897359549999237, 0.029692701995372772, -0.1429288238286972, -0.006140416953712702, -0.06260208040475845, 0.06395964324474335, 0.31348279118537903, -0.25438064336776733, -0.12088343501091003, 0.13881665468215942, 0.2575516700744629, -0.03297729045152664, 0.043591368943452835, -0.06934370845556259, 0.06950393319129944, -0.3501577377319336, -0.13855688273906708, 0.08770980685949326, -0.030986515805125237, 0.3364405930042267, 0.0028420111630111933, -0.035699497908353806, -0.13183879852294922, -0.09183897823095322, 0.06156061589717865, -0.15686781704425812, 0.1808367222547531, -0.15702711045742035, 0.12878571450710297, -0.12882763147354126], [0.021517692133784294, -0.26521554589271545, 0.1256038248538971, -0.20875275135040283, 0.06630657613277435, 0.06127207726240158, 0.17558366060256958, 0.06969305872917175, 0.12039975821971893, 0.0834927186369896, 0.23442213237285614, 0.0832965299487114, 0.21673735976219177, -0.1706247627735138, -0.03363003209233284, 0.013837037608027458, -0.2904227674007416, -0.06641171872615814, 0.296602338552475, -0.06311380863189697, 0.10078631341457367, 0.14391085505485535, 0.10661973804235458, 0.13324256241321564, -0.23823171854019165, 0.06180012226104736, 0.07534132152795792, -0.23357103765010834, -0.2227528840303421, 0.1877811849117279, -0.04870838671922684, -0.05342644080519676, -0.001734536956064403, -0.4677061140537262, -0.25906604528427124, 0.10024543106555939, -0.03850901499390602, -0.23822273313999176, -0.030770346522331238, -0.25307533144950867, 0.05250510200858116, -0.12694548070430756, -0.1861419528722763, -0.2840070128440857, 0.12036831676959991, 0.11582262814044952, 0.03242436796426773, -0.19335950911045074, 0.14677587151527405, 0.41204169392585754, 0.08881384134292603, -0.17418429255485535, -0.19191183149814606, 0.025652043521404266, -0.20502471923828125, -0.07219679653644562, -0.007723596412688494, 0.2139609307050705, 0.025123026221990585, -0.045030377805233, -0.26449325680732727, -0.47178423404693604, 0.010512289591133595, 0.20407208800315857, -0.3886430263519287, 0.10579428821802139, 0.24931761622428894, -0.13030265271663666, -0.3448215425014496, -0.10974615812301636, 0.06661281734704971, -0.18953044712543488, 0.00796481966972351, -0.06653188169002533, -0.05825124308466911, 0.02373158000409603, 0.09074707329273224, 0.3444134593009949, 0.0439654141664505, 0.024935854598879814, 0.11406191438436508, 0.029237400740385056, 0.317548006772995, 0.09820926189422607, -0.2837713360786438, -0.0675133541226387, -0.10980750620365143, 0.34046119451522827, 0.15139900147914886, -0.27927538752555847, -0.2440343052148819, 0.056362200528383255, -0.03341066464781761, -0.01317825261503458, 0.3984324038028717, 0.06716423481702805, -0.018681222572922707, -0.15132975578308105, 0.07820902019739151, 0.27432140707969666, -0.280020534992218, -0.20344500243663788, -0.3114897608757019, -0.05318504199385643, 0.03915489464998245, 0.1887354999780655, -0.04683797061443329, -0.1077306717634201, 0.11438629031181335, 0.05751675367355347, 0.16925431787967682, 0.14320652186870575, 0.005060830619186163, -0.09217709302902222, 0.03110985830426216, 0.2364879995584488, 0.059204600751399994, -0.4404047727584839, 0.03472205996513367, 0.048478562384843826, 0.015470844693481922, 0.21218806505203247, 0.7758107781410217, 0.17032574117183685, 0.09740611910820007, 0.036444179713726044, 0.028118515387177467, -0.02971184439957142, -0.012816205620765686, 0.011051044799387455, 0.06522311270236969, -0.2421494871377945, -0.20212684571743011, 0.5884684324264526, -0.21703863143920898, -0.015527707524597645, 0.03715604171156883, -0.1422782838344574, 0.03621416538953781, 0.1497551053762436, 0.12460728734731674, 0.32951629161834717, -0.2462274730205536, 0.05117581784725189, -0.26634594798088074, -0.3743436932563782, 0.07091688364744186, -0.281737744808197, 0.21856218576431274, -0.23905205726623535, 0.23787108063697815, -0.03196609392762184, 0.010989822447299957, 0.034814588725566864, 0.1972774714231491, 0.08500615507364273, -0.2882503569126129, 0.49681252241134644, -0.21368809044361115, -0.29192790389060974, 0.03790959715843201, -0.406133234500885, 0.004811423830688, 0.15703359246253967, 0.05484750121831894, 0.17849132418632507, 0.4299834668636322, 0.41689783334732056, 0.12287216633558273, -0.16515293717384338, -0.09626974910497665, 0.023325815796852112, 0.01440358068794012, -0.009109008125960827, 0.08865173906087875, 0.30547165870666504, -0.6144547462463379, -0.12748192250728607, 0.3077588975429535, -0.1895011067390442, -0.06973695755004883, 0.10707194358110428, -0.019575798884034157, 0.0015281002270057797, 0.22981572151184082, 0.07407260686159134, 0.2845168709754944, 0.02348802611231804, -0.03777642920613289, 0.07273632287979126, 0.11611499637365341, -0.029970526695251465, -0.19545729458332062, 0.709926962852478, -0.05948339030146599, 0.05908826366066933, 0.03290592133998871, 0.15313634276390076, 0.4544031023979187, -0.13856148719787598, 0.06818521022796631, 0.384569376707077, 0.01781349629163742, 0.1233101338148117, -0.25050368905067444, -0.18714000284671783, -0.15164083242416382, -0.06648177653551102, -0.1544298678636551, -0.2585575580596924, -0.0823831781744957, 0.008083425462245941, 0.33784395456314087, 0.1449691504240036, 0.2285560816526413, -0.01732097566127777, 0.17510631680488586, 0.10995227098464966, -0.015075172297656536, 0.07397402822971344, 0.751390814781189, -0.11049863696098328, 0.05911174789071083, -0.2839469909667969, -0.28161996603012085, -0.12862028181552887, 0.04729773476719856, -0.050013359636068344, 0.42461732029914856, -0.10302770137786865, -0.05685461685061455, 0.06827347725629807, -0.06859021633863449, 0.06553933769464493, -0.11827028542757034, 0.019385486841201782, -0.2841281294822693, -0.5024077296257019, 0.05646393075585365, -0.18151429295539856, -0.1678496152162552, 0.07486323267221451, -0.2952495515346527, -0.3047212064266205, -0.27803894877433777, -0.24885377287864685, 0.11056962609291077, -0.017495889216661453, -0.23300327360630035, 0.10832132399082184, -0.11015190929174423, -0.5216888785362244, -0.09714400768280029, 0.1267664134502411, -0.4318467974662781, -0.14053168892860413], [0.9795086979866028, -0.17402051389217377, -0.4472351372241974, 0.6036043763160706, 1.864366888999939, 0.805472731590271, -1.613025188446045, 1.5111969709396362, 0.8316649198532104, 1.6759448051452637, -0.4955611824989319, -0.2654954493045807, 0.6885607242584229, 1.51685631275177, -0.12324380874633789, 1.7957587242126465, 0.5451788306236267, -0.5079525113105774, 1.106772541999817, -0.27778446674346924, -0.016755321994423866, -0.9330196380615234, 0.38542407751083374, -0.9733250737190247, -0.9021739363670349, -1.541762351989746, -0.4287152886390686, 0.2198428213596344, 0.12769082188606262, 0.5738500952720642, 1.8381860256195068, 0.3343522846698761, -0.07673764228820801, -0.34856343269348145, -0.8990119695663452, 0.14917278289794922, 0.5444353818893433, -1.4943273067474365, 0.7773007154464722, -0.7520661950111389, -2.090641975402832, -0.3312186300754547, 1.0426664352416992, 0.0582144595682621, 0.6808112263679504, -0.8950721025466919, 1.3386626243591309, -1.56122624874115, 0.3167562484741211, 0.6096190810203552, -0.6760568618774414, -0.7085539698600769, 0.010659887455403805, -0.45943906903266907, 0.7179716229438782, 1.1651103496551514, -0.401623398065567, -0.18004310131072998, 0.008909626863896847, -0.0444546677172184, -1.5176523923873901, -0.04511459171772003, -2.259511709213257, -1.357415795326233, 0.5739061832427979, 2.410402297973633, 1.284325122833252, 1.2570350170135498, 0.7357040643692017, -1.784132957458496, -0.890006959438324, 1.1586710214614868, 1.0722121000289917, -2.3738062381744385, 0.38408300280570984, 2.350404739379883, -0.349819153547287, 1.097456693649292, -1.6839795112609863, 0.6848686933517456, -0.23271413147449493, -1.3080192804336548, -1.2237831354141235, -1.1422616243362427, -0.8293805122375488, 0.23767517507076263, -0.20670926570892334, -1.5871001482009888, -0.35074371099472046, 1.177214503288269, 0.7791712880134583, -0.11293119937181473, 0.28153640031814575, 1.1007318496704102, -1.7012888193130493, -0.3008052706718445, -1.2695449590682983, -0.3997654914855957, -0.28168734908103943, 0.6984348893165588, -1.700156807899475, 0.876985490322113, 0.6533420085906982, 0.34645456075668335, 0.5735645294189453, 0.7941898107528687, -1.3691325187683105, 1.1282272338867188, 1.5324695110321045, -1.3585516214370728, 1.4881312847137451, -2.0406134128570557, 0.16203589737415314, -0.024347756057977676, 0.5063717365264893, 0.8671726584434509, -0.13982628285884857, 0.03426231071352959, 0.3508942723274231, -0.8467109203338623, -0.11480787396430969, 0.8348198533058167, 0.3432036340236664, 0.776278555393219, 0.30193787813186646, -2.212420701980591, 1.1766678094863892, 2.0196521282196045, 1.1646323204040527, 1.4744950532913208, -2.3264598846435547, 1.1154991388320923, 0.44031545519828796, -0.25287193059921265, 0.5866034626960754, 0.20247678458690643, 0.11066544055938721, -0.3061666190624237, 1.0584396123886108, -0.09496083855628967, 2.116069793701172, -0.4235023856163025, 0.5517987012863159, 1.7075340747833252, -0.37741875648498535, -1.8272836208343506, -1.174575686454773, -1.4674729108810425, -2.8143789768218994, 0.26966020464897156, -0.13637588918209076, 0.6768798232078552, 0.5002623200416565, -1.1907861232757568, 0.35361185669898987, 0.7058382034301758, -0.9324531555175781, -2.0152697563171387, 0.025838881731033325, 0.4134223163127899, 1.482478380203247, -0.033621687442064285, -2.0227854251861572, 0.4042981266975403, -1.7384406328201294, -1.0869393348693848, 0.46124064922332764, 0.591358482837677, -1.053148865699768, 1.860613465309143, 0.14654459059238434, -2.768122434616089, -0.22630342841148376, -0.4408135414123535, -0.32797491550445557, -0.9838796257972717, -0.22547630965709686, 1.2445446252822876, 0.31398826837539673, 0.24850547313690186, -0.20627976953983307, -0.2030390202999115, 1.8035550117492676, -1.306946873664856, -0.10270361602306366, -0.4202709197998047, 0.501388669013977, 0.4093295633792877, 0.6960167288780212, -0.009492297656834126, -0.8706513047218323, -2.142517328262329, 0.8795621991157532, 1.7643344402313232, 0.984955906867981, 1.7796497344970703, 0.05929836630821228, 0.9475169777870178, 0.615149974822998, 2.098571538925171, -0.2898835241794586, 0.05301247537136078, -0.5955268740653992, 0.8393058776855469, -0.6041921377182007, 1.2726343870162964, 1.8589684963226318, 0.947023332118988, -0.055651117116212845, 0.46795862913131714, -0.9470999240875244, -1.4638240337371826, 1.3260462284088135, -0.4481809437274933, 0.8628839254379272, 0.7558546662330627, 0.8632957339286804, -0.8432536721229553, 0.7135730385780334, -1.1105796098709106, -0.3710835874080658, -2.3336424827575684, 1.9280890226364136, 0.5347887277603149, 1.735830545425415, 0.24462160468101501, 0.9592844247817993, -0.8277231454849243, 0.6497545838356018, -1.0355924367904663, 0.5840447545051575, -1.439005732536316, 0.3800407648086548, -1.4819306135177612, -0.6175622344017029, -1.4880622625350952, -1.9038716554641724, -1.2654333114624023, -0.6202598214149475, 1.1052844524383545, -1.1425880193710327, -1.766311526298523, -1.891113519668579, 0.6169922947883606, 0.8517224192619324, 0.6467205286026001, 0.41357165575027466, -1.3197605609893799, 0.026906223967671394, 1.5360965728759766, -1.8720569610595703, 0.9575188755989075, 1.840040683746338, 1.205828070640564, 0.07821192592382431, 0.3821190297603607], [0.4045487940311432, -0.08413004875183105, 1.677053689956665, -0.6830940246582031, 0.7320972681045532, -1.8206332921981812, 0.6981649398803711, 0.9480192065238953, -0.10971111804246902, -0.589363694190979, -0.878471314907074, -0.5399919748306274, 1.0227655172348022, 0.1453050822019577, -0.6828756928443909, -1.4641139507293701, 1.010249137878418, 0.49800148606300354, 1.803702712059021, 0.996404767036438, -0.49356284737586975, -0.8374351859092712, -1.2705637216567993, -0.366677463054657, 0.5341801643371582, -0.3030102252960205, -1.0441654920578003, -0.03761661425232887, -1.7969605922698975, -0.19052903354167938, -0.14929769933223724, -1.5361900329589844, -0.766655683517456, -2.084463357925415, 1.7644801139831543, 0.6442834138870239, 0.8576144576072693, -0.2560557723045349, 0.4653112590312958, 1.8633822202682495, -2.305926561355591, 0.7989678978919983, -1.8584880828857422, -1.830432415008545, -1.2553679943084717, -1.530369520187378, 0.718431830406189, -1.7405736446380615, 0.09045647829771042, -0.2631795108318329, -0.05388360470533371, -0.5039742588996887, -0.524212658405304, 0.7749913334846497, -0.05527793988585472, 2.4883084297180176, 1.3127092123031616, -1.520716667175293, 1.522291660308838, 1.2500056028366089, -0.600730836391449, 0.6926560997962952, -0.0056309774518013, 2.026470422744751, 1.8284164667129517, 1.3028419017791748, -2.0154621601104736, 1.083653450012207, -0.5432564616203308, -1.0009515285491943, -0.9617544412612915, -1.4281620979309082, 2.0648326873779297, 1.0120850801467896, 1.198850393295288, 1.7381277084350586, -0.13869081437587738, 0.9183157086372375, 0.35283300280570984, 0.17176200449466705, -0.7893977761268616, -3.178960084915161, -0.032690051943063736, -0.4312381148338318, 0.05058131739497185, 0.37044602632522583, 0.28017306327819824, -1.5494344234466553, 0.5964438915252686, -2.443692207336426, 1.306645154953003, -1.9327133893966675, -1.024823546409607, 0.032125893980264664, -0.9133815169334412, -1.003881812095642, 0.8442776203155518, 1.6904200315475464, -0.8640117645263672, 1.9434601068496704, -0.7483576536178589, -1.2046765089035034, -0.9608793258666992, -0.8906415104866028, 0.31132441759109497, -0.5467485189437866, 1.626853346824646, -2.0588271617889404, -2.0831329822540283, -1.6971510648727417, -0.1618555188179016, 1.882596731185913, 0.9925313591957092, 1.1562541723251343, 1.0482202768325806, -1.6371103525161743, -1.2972458600997925, 0.8546664118766785, 0.026446159929037094, -1.6424874067306519, -1.3870255947113037, -0.3974599838256836, -0.13190966844558716, -1.2039597034454346, -2.5514414310455322, -1.0739721059799194, 2.589794158935547, -1.1244983673095703, 2.2333836555480957, 2.6169850826263428, -0.15843737125396729, -1.4163373708724976, -0.2010238915681839, 0.9920575022697449, 0.07478469610214233, 0.8522530198097229, -0.0821744054555893, -1.1479859352111816, -0.48302507400512695, -1.4363762140274048, 0.06553110480308533, 1.619725227355957, -1.338997721672058, 0.7804827690124512, 0.8927326798439026, 0.869471549987793, -0.17077438533306122, 0.5187678337097168, 1.0871717929840088, -0.8277561068534851, -0.908860981464386, 0.5396822094917297, -0.6878476738929749, -0.2879106104373932, 2.3278603553771973, 1.5243337154388428, -0.1650984287261963, 0.08830654621124268, -2.066382884979248, 0.36037296056747437, -1.3048607110977173, 0.7073259949684143, -1.1369304656982422, -1.062840223312378, -0.4283468723297119, -0.913894534111023, 1.9525094032287598, 0.8878160715103149, 0.19829808175563812, -0.9795697331428528, -1.5057817697525024, 1.3858150243759155, 0.18116715550422668, -0.3567005395889282, -2.3475325107574463, -0.7041081190109253, 0.5302779674530029, 0.08242695778608322, 0.11106248199939728, -0.4753097593784332, -2.351809501647949, 0.003170138457790017, 1.9565633535385132, -0.8516250252723694, 0.0024755855556577444, -1.5195012092590332, 0.13949176669120789, -0.8588610887527466, -0.15140578150749207, -0.9780086278915405, -0.606762170791626, -0.32947418093681335, 0.7672910094261169, -0.7804162502288818, -0.7015337347984314, -0.31503331661224365, 1.4440968036651611, -0.16075453162193298, -0.2187231481075287, -1.5782591104507446, 1.5551156997680664, 0.27507519721984863, 1.5031646490097046, -0.4091337323188782, 2.4067938327789307, -1.6140844821929932, -0.4689640998840332, -0.39668864011764526, 0.21813593804836273, 0.5058738589286804, 0.2951139211654663, 1.4567937850952148, -0.2502063810825348, -0.5060203075408936, 0.7843105792999268, 0.8568117618560791, 0.8288635015487671, 0.26609328389167786, 1.2920526266098022, -0.47835245728492737, -0.6838101744651794, 0.4218989312648773, 0.6218903064727783, -0.23615460097789764, 1.9529531002044678, 1.3990020751953125, 1.4287153482437134, 0.12933242321014404, 1.0641640424728394, 2.506671667098999, -1.6499640941619873, 1.3238264322280884, -0.8698495030403137, -1.9095786809921265, 0.7000881433486938, 0.537225067615509, 2.771993637084961, -0.19424977898597717, 1.0204583406448364, 1.2882133722305298, 2.4254393577575684, 2.2497689723968506, 0.10234783589839935, -1.1929600238800049, -1.3879969120025635, 1.8843669891357422, 0.3065629005432129, -1.4386451244354248, 0.8172202706336975, -0.5550336837768555, -0.24526621401309967, 0.8363498449325562, -0.21574988961219788, -0.5769363045692444, 0.8916735053062439, -1.2996628284454346], [1.0818027257919312, 5.068295478820801, -7.248971939086914, 5.545699596405029, -4.614313125610352, -2.665112257003784, 2.274902820587158, 0.7506402730941772, -1.7348984479904175, 14.969409942626953, -11.354231834411621, 7.137107849121094, -0.5457897782325745, -1.5181838274002075, -3.315279722213745, -8.812239646911621, 6.327541351318359, -9.910480499267578, -5.981381416320801, -9.389922142028809, -0.2924007177352905, 10.684850692749023, 0.7668195366859436, -3.9132893085479736, -1.2354499101638794, 6.673249244689941, 0.6625266671180725, -13.666814804077148, -2.7364447116851807, 0.7074097990989685, -0.9132505655288696, 5.658356666564941, 6.930617332458496, -1.7445168495178223, -4.827175617218018, 8.331263542175293, -3.399864673614502, 4.387131214141846, 4.217545032501221, 4.617886066436768, 7.18664026260376, 6.553184509277344, 6.225833892822266, -1.0941499471664429, 3.889368772506714, 2.8780269622802734, 3.685279369354248, 4.659474849700928, 1.7239551544189453, 0.5241783261299133, -2.583658456802368, -1.0311506986618042, -3.6943092346191406, 6.060159683227539, -13.086036682128906, 0.45161545276641846, -11.541949272155762, 9.361869812011719, 4.050851821899414, -0.2662564516067505, 1.2767142057418823, -7.113580703735352, -0.10073168575763702, -6.286025524139404, -2.0801143646240234, 2.006377935409546, 0.4307708144187927, 6.366814136505127, 6.377768039703369, 5.961333274841309, -2.202195882797241, 1.4117159843444824, 6.7928972244262695, 6.927884578704834, 4.6463470458984375, 2.942127227783203, 13.10638427734375, 9.104007720947266, 0.5416748523712158, -1.1239348649978638, 2.31670880317688, 14.18099308013916, -2.523759603500366, 11.087057113647461, 0.5787348747253418, 13.277754783630371, 11.371927261352539, -2.1006052494049072, 7.602659702301025, 15.499248504638672, 11.747547149658203, -0.31533482670783997, 5.0514421463012695, 8.157936096191406, -3.1199910640716553, -5.844612121582031, -1.9680389165878296, 2.103013038635254, 4.715465545654297, 1.9900938272476196, 1.5700953006744385, -9.287527084350586, 6.053018569946289, 0.8416743278503418, 5.305349349975586, 1.6114667654037476, 7.74619722366333, -14.173952102661133, -4.185975551605225, 4.907926559448242, -1.9112701416015625, 0.597106397151947, 0.20907039940357208, 1.6140393018722534, -3.3209304809570312, 9.210951805114746, -2.1631619930267334, -1.7838858366012573, -5.178267955780029, 1.2945008277893066, 3.5589065551757812, 0.07913147658109665, 1.7373052835464478, 7.682731628417969, -1.263052225112915, 4.437163352966309, -8.267230987548828, 2.353037118911743, -7.328808784484863, 1.0348249673843384, 4.652286529541016, 2.8729910850524902, 10.64850902557373, -1.1510393619537354, 4.868118762969971, 1.587406039237976, 3.191934823989868, -0.6848467588424683, 6.674292087554932, -5.944182395935059, 0.7824329733848572, -0.8093442916870117, -0.6543678641319275, 1.482048749923706, -0.4130007028579712, -0.27323347330093384, 0.9470815062522888, -0.1695081740617752, 1.443313717842102, 3.404331922531128, -0.004576325882226229, 0.03386630490422249, 3.5102291107177734, 2.328223705291748, -5.430336952209473, -3.618387460708618, -8.415003776550293, 3.556105613708496, -2.593423843383789, -0.25822463631629944, -0.16334547102451324, 11.490652084350586, 0.7912560701370239, 1.1921809911727905, -4.250033855438232, -2.5929477214813232, -4.506934642791748, -8.185778617858887, 2.809866428375244, -0.04101191833615303, -4.524519920349121, 8.874024391174316, -3.8555996417999268, -3.0687458515167236, 3.3770031929016113, -1.0771467685699463, -0.5708446502685547, 2.2897915840148926, -3.260761260986328, 0.24150317907333374, 0.7458799481391907, -10.481316566467285, -2.890369415283203, -5.715991497039795, 14.926115036010742, 0.9826080799102783, 9.361337661743164, -1.2574926614761353, -4.169349670410156, 0.1728273332118988, -2.8165016174316406, 6.013579845428467, 0.1393032819032669, 0.8861950635910034, -8.436429023742676, 3.4504401683807373, -3.762556552886963, -5.110651969909668, -2.6549015045166016, -0.9338183403015137, -0.6304928064346313, -0.197374626994133, 3.59116792678833, -0.5934589505195618, -5.432949066162109, 3.691096305847168, -0.43742451071739197, 8.587564468383789, -3.241079807281494, 3.3328335285186768, -4.485779762268066, -5.512231826782227, -4.52971076965332, -8.834500312805176, -6.365242004394531, 8.03759765625, 0.865628719329834, -1.1812328100204468, 2.39548921585083, -8.178833961486816, 4.071653366088867, 1.2821438312530518, 3.212611198425293, 1.022769570350647, -8.555774688720703, -4.554132461547852, 2.3224425315856934, 7.963024616241455, -1.2361774444580078, -0.5230530500411987, 8.184548377990723, 3.120006561279297, 6.083085060119629, 4.638095855712891, 6.161376476287842, -3.877033233642578, 7.300162315368652, -5.775422096252441, 0.9473053812980652, 8.145827293395996, 11.997575759887695, 0.012178940698504448, 8.89791488647461, 3.343207836151123, -3.6063966751098633, 9.65708065032959, 1.6360567808151245, -2.1218600273132324, -2.959155559539795, 10.094436645507812, 4.011988639831543, -2.466409921646118, -5.685776233673096, 2.188913345336914, -1.0212140083312988, -6.8275465965271], [0.6082800626754761, 0.3273952901363373, 0.8961002230644226, 0.633292555809021, -0.3119300305843353, 0.6148980259895325, 0.0058071850799024105, -0.011027141474187374, -0.6943100690841675, -0.09903156012296677, 0.26251018047332764, -0.28079578280448914, -0.34222736954689026, -0.18724147975444794, -0.008430750109255314, -1.0377708673477173, -0.07992866635322571, -0.4692159593105316, -0.5231223106384277, -0.34764963388442993, 0.9009156227111816, 0.16602244973182678, -1.066182017326355, -0.12572090327739716, -0.4135432541370392, -0.5327422618865967, -0.3507903218269348, -0.7548316717147827, 0.5263998508453369, -0.5412120819091797, -0.666100263595581, 0.7579227685928345, 0.5988231897354126, -0.38973578810691833, -0.3933464586734772, -0.2281235009431839, -0.645412802696228, 0.5681147575378418, -0.3101293742656708, -0.0515994131565094, 0.11723849922418594, 0.6062750816345215, 0.19685129821300507, -0.3454430103302002, -0.07592977583408356, -0.10452652722597122, -0.5360606908798218, 0.3644086420536041, -0.09794916212558746, -0.20734494924545288, -0.7946021556854248, -0.1090819239616394, -1.5056098699569702, 1.2086598873138428, 0.31725171208381653, 0.2406311333179474, -0.0010858349269255996, 0.2889804542064667, -0.5762335658073425, 0.07101505249738693, 0.45076483488082886, 0.42054086923599243, -0.992271900177002, 1.0354443788528442, 0.5765241384506226, -0.14848847687244415, -1.1135499477386475, -2.689451217651367, 0.04575733095407486, -0.14076939225196838, 0.5752371549606323, 0.5680580139160156, -0.4118432402610779, 0.15265321731567383, -0.07046962529420853, 0.3894490897655487, 0.024444296956062317, 0.21004480123519897, 0.4897876977920532, 0.19034060835838318, -1.524314045906067, -0.3263092637062073, 0.48507508635520935, 0.058988623321056366, 0.43028801679611206, 0.12364306300878525, 0.3883137106895447, 0.22931136190891266, 1.325432300567627, 0.5219178795814514, 0.6850765943527222, 1.3688656091690063, 0.29299473762512207, 0.08435602486133575, 0.7867782711982727, -0.21860277652740479, 0.2804611623287201, 0.02538936771452427, -0.1566809117794037, -0.18401312828063965, 0.4752189517021179, 0.029035797342658043, -0.7655932903289795, -0.07111260294914246, -0.05861270800232887, -1.9018418788909912, 0.739473819732666, -0.6897004246711731, -0.014305279590189457, 0.5342737436294556, 0.44641104340553284, -0.8331566452980042, -0.7036697268486023, 0.00837195385247469, -0.2347143143415451, -0.20051833987236023, 0.03235834464430809, -0.19164513051509857, -0.5338564515113831, 0.17676952481269836, -0.03463684394955635, -0.02141219936311245, 0.4596480131149292, -0.9935240149497986, -0.26396113634109497, 0.7859789133071899, -0.5160577893257141, -0.16203665733337402, -0.14608916640281677, 0.3668595254421234, 0.34223878383636475, -0.44059938192367554, 0.8867871165275574, -0.04194755107164383, 0.01605534367263317, 0.8655688762664795, -0.08462119847536087, -1.1107620000839233, -0.16901442408561707, 0.13137437403202057, -0.7378345727920532, 0.4019288122653961, -0.624260663986206, -0.19868554174900055, 0.49150940775871277, 0.21801091730594635, -1.3329579830169678, -0.20704291760921478, 0.12023425102233887, 0.39831802248954773, -0.26665306091308594, 0.6396052241325378, 0.7220847010612488, -0.2709082067012787, -0.675335168838501, -0.9151053428649902, 0.2002408504486084, 0.4611785411834717, 0.39132142066955566, -0.08699110895395279, 0.48039430379867554, 0.3231903314590454, 0.8198158740997314, 0.55899578332901, -0.13824793696403503, 0.05117034539580345, -0.35056984424591064, 0.29501694440841675, 0.014315903186798096, 0.9676681160926819, 0.07545509189367294, -0.8475953340530396, -0.6016104817390442, -0.11946992576122284, 0.3493068516254425, -0.2938556671142578, -0.44985073804855347, 0.24685898423194885, 0.020101865753531456, 0.4393857717514038, 0.3369169235229492, 0.14536936581134796, -0.3904714286327362, 0.6974522471427917, 0.1213798001408577, 0.8573283553123474, 0.31368184089660645, 0.4384126365184784, -0.5184233784675598, -0.46977582573890686, 0.43685322999954224, -1.09434175491333, -0.3389056921005249, 0.034124378114938736, 0.6316124200820923, 0.4107906222343445, -0.5583711862564087, -0.784424901008606, 0.3283648192882538, 0.5326117873191833, -0.5740155577659607, 0.1148327887058258, 0.5476536750793457, -0.5541990995407104, 0.35044029355049133, -0.16142405569553375, -0.4970782995223999, 0.21259529888629913, -0.3000181317329407, -0.40390464663505554, -0.40263304114341736, -0.6285446882247925, -0.3280949890613556, -0.5042611956596375, 0.25993919372558594, -0.17461155354976654, 0.185878723859787, -0.2144879698753357, 0.420849472284317, 0.28844335675239563, -0.0631691962480545, -0.6490740776062012, 0.7537208795547485, 0.15730859339237213, 0.14906969666481018, -0.9148895740509033, -0.15206316113471985, -0.24607805907726288, 0.05491906404495239, 0.4593866467475891, -0.9031364917755127, 0.3087212145328522, 0.19293904304504395, -0.154817596077919, 0.6048895716667175, -0.5787445306777954, -0.5311118960380554, -0.7139326333999634, 0.5311525464057922, 0.18686498701572418, 0.2422126829624176, 0.3613985478878021, 0.6821961998939514, -0.12782473862171173, 0.41500747203826904, -0.1156938374042511, 0.3327077329158783, 0.5075529217720032, 0.49769145250320435, -0.7526599168777466, 0.3755868375301361, -0.22373846173286438, -0.6485120058059692, -0.3169613778591156, -0.046103380620479584, -0.010105089284479618], [0.48546528816223145, -0.19066716730594635, 0.09168807417154312, 0.11666896939277649, 0.3996432423591614, 1.2923463582992554, 0.6531171202659607, -0.5075679421424866, 0.10411907732486725, 0.4245206415653229, 0.8699830174446106, 1.5394527912139893, 0.8816125988960266, 0.9747880697250366, -0.2580268085002899, -0.06940697133541107, -0.24375206232070923, -0.03717232123017311, -0.2520492970943451, 0.33293628692626953, 1.1924893856048584, -0.7231594920158386, -0.20420874655246735, 0.9145421385765076, -0.2337045967578888, 0.07847625762224197, 0.46978190541267395, -1.1564384698867798, -0.3617960810661316, -0.6924416422843933, 0.14615000784397125, -0.5187796354293823, -0.03401791304349899, -0.07870976626873016, -0.11095915734767914, 0.05826523154973984, 0.1380964070558548, -0.6692158579826355, 0.5956258773803711, 0.12999844551086426, -0.598553478717804, 0.08630602061748505, -0.4172218441963196, 0.3970394730567932, 0.7440508604049683, -0.19926077127456665, 0.2419583648443222, 0.13188640773296356, -0.6621636748313904, -0.4826851189136505, 2.1635806560516357, 0.30181264877319336, 2.2103514671325684, -0.17610371112823486, -0.2538006007671356, -0.7930681109428406, -0.600303053855896, -0.5113675594329834, -0.36818259954452515, -0.029807167127728462, -0.7527731657028198, 0.38729268312454224, -0.052542995661497116, -0.6998447179794312, -0.369931697845459, -0.4640374481678009, 0.10607386380434036, -0.11354763060808182, -0.2250160127878189, -0.12073623389005661, 0.2557617425918579, -0.2099042683839798, -0.6843894124031067, 0.035796187818050385, -0.721669614315033, -0.41787654161453247, 0.0470263697206974, 0.5760878920555115, 0.006577640771865845, -0.11899219453334808, 0.3626553416252136, -0.45919549465179443, 0.33885109424591064, -0.6895388960838318, -0.5345649123191833, 0.34926289319992065, 0.3909667134284973, -0.5892814993858337, 0.9560262560844421, -0.027599859982728958, 0.6796709895133972, 0.10575232654809952, -0.8131908774375916, 1.0149673223495483, 0.12839053571224213, -0.15926091372966766, -0.05875103175640106, 0.5921611189842224, 0.05140484496951103, -0.5094801187515259, -0.4893200099468231, -0.3558657169342041, 0.2941209077835083, 0.0027751291636377573, 0.5047475695610046, -1.2535892724990845, 0.524028480052948, -0.5828951001167297, 1.299181580543518, 0.990553617477417, -0.04264815151691437, -0.6383566856384277, 0.009740937501192093, 0.2188473343849182, -1.6229115724563599, -0.18578076362609863, -0.05940188840031624, 0.06227019056677818, -0.2587568163871765, 0.5981104373931885, -0.45614027976989746, -0.030516792088747025, 0.19916823506355286, -0.2455105185508728, -1.3885257244110107, -1.626809000968933, 0.3083321452140808, 0.9066901803016663, -0.6119234561920166, -0.05241750553250313, -0.48075610399246216, -0.8253169655799866, 1.3810724020004272, 0.5146701335906982, -0.6987694501876831, -0.7018162608146667, -0.4214981198310852, -1.199208378791809, 1.017254114151001, -0.08112901449203491, 0.9317715764045715, -0.32948732376098633, -0.2924294173717499, -0.6459663510322571, 0.26259922981262207, 0.13275626301765442, -1.0827456712722778, -0.12745147943496704, -0.28506404161453247, 0.6798800230026245, -0.2773202061653137, 0.8987221121788025, 0.030986744910478592, -0.5820466876029968, 0.4856812059879303, 0.6611250042915344, 1.5973539352416992, -0.5526824593544006, -0.33770230412483215, 0.943742036819458, 1.582486867904663, -0.22674855589866638, -0.4655078053474426, 0.025030657649040222, -0.5017449259757996, -0.3062092065811157, 0.8322890400886536, -0.20225082337856293, -0.032455090433359146, -0.548291027545929, -0.23917509615421295, 1.02880859375, -2.0811023712158203, -0.30955207347869873, -0.052307479083538055, -0.33365246653556824, -0.7006174921989441, -0.5124329924583435, 0.14270031452178955, -0.58379727602005, 0.3518417477607727, 0.886139452457428, 0.6751284003257751, 0.8311328291893005, -0.06601773202419281, 0.47325482964515686, -0.7692950963973999, -0.004108894150704145, -0.11050751805305481, -0.1832713782787323, 0.2909165620803833, 1.3312597274780273, 0.5499800443649292, -0.6176465153694153, -0.6715306043624878, 0.34543466567993164, -0.06425917893648148, 0.738395631313324, -0.05629812553524971, 0.3876122534275055, -1.1749272346496582, -0.05690840631723404, 0.20484638214111328, -0.3091645836830139, -0.6312273740768433, 0.7044736742973328, -0.15370237827301025, 0.5445748567581177, 0.09532880783081055, 0.16810066998004913, 0.0771985724568367, -0.1672070324420929, -0.24966175854206085, -0.19165383279323578, -0.22746285796165466, -0.687484085559845, -0.07530780136585236, -0.37888678908348083, 0.6457182168960571, 0.4163099229335785, -0.44406208395957947, 0.9458791017532349, -0.6565929055213928, 0.13523969054222107, -0.6175894737243652, 0.4850119352340698, 1.0021898746490479, 1.7684742212295532, 0.5129354000091553, -0.7345006465911865, -0.5212396383285522, -0.11974620819091797, -1.7696043252944946, 0.07648429274559021, -0.6147496104240417, -0.3667372465133667, -0.9595761895179749, 0.19214220345020294, 0.8597614169120789, 0.7707640528678894, 1.4672045707702637, -0.21657244861125946, -0.68495774269104, -0.17230916023254395, 1.0667921304702759, -1.2772520780563354, 0.5152893662452698, -0.5149035453796387, 0.10304860770702362, 0.032605838030576706, 0.04766657575964928, 0.32729384303092957, -0.7048452496528625, 0.37276262044906616, 0.11631130427122116, -0.7020025253295898], [0.06867990642786026, 0.255997896194458, -0.3636051416397095, 0.3181276321411133, -0.143260657787323, -0.13233491778373718, 0.15962612628936768, -0.08707300573587418, 0.18094177544116974, 0.08760889619588852, 0.020861981436610222, -0.01676831766963005, -0.19020357728004456, 0.18887504935264587, 0.21025608479976654, -0.08766590803861618, 0.20670394599437714, -0.1625855416059494, -0.14490915834903717, -0.03186125308275223, 0.12693706154823303, -0.1682070791721344, 0.06122489646077156, 0.19117788970470428, 0.008548283949494362, 0.13797540962696075, -0.1516466587781906, -0.0043604932725429535, -0.08211185783147812, -0.23506060242652893, 0.0532388836145401, 0.11423617601394653, -0.11545208841562271, 0.4139084219932556, -0.030982505530118942, -0.13901954889297485, -0.023548206314444542, 0.11571099609136581, 0.16450025141239166, -0.03363283351063728, -0.44388893246650696, -0.05983811244368553, 0.1391063630580902, 0.24572770297527313, -0.31344255805015564, -0.13256080448627472, -0.19649411737918854, 0.22363393008708954, -0.04670191928744316, -0.4015519917011261, 0.20780672132968903, 0.10412895679473877, 0.05312130227684975, 0.01665312610566616, 0.07046931236982346, -0.04932510107755661, 0.1250731348991394, -0.29599666595458984, -0.036502573639154434, -0.0642349049448967, 0.2501000761985779, 0.41378599405288696, -0.18999424576759338, 0.15971462428569794, 0.27380800247192383, -0.08516862988471985, 0.054496265947818756, -0.2195601761341095, 0.4361429214477539, 0.4026128351688385, -0.15066702663898468, 0.34591978788375854, 0.018202507868409157, 0.0939730852842331, -0.15585805475711823, -0.18160508573055267, -0.19538410007953644, -0.030535483732819557, -0.03603716567158699, 0.0537259466946125, -0.1234549805521965, 0.1295563280582428, -0.04470851272344589, 0.14871655404567719, 0.17221511900424957, -0.2846767008304596, 0.15657933056354523, -0.22633619606494904, -0.05339369177818298, -0.291236013174057, -0.13852204382419586, -0.054025277495384216, -0.05178060382604599, -0.14938804507255554, -0.39055904746055603, 0.03506269305944443, 0.03482102230191231, -0.17977556586265564, -0.02644619345664978, 0.0280488058924675, 0.3654656708240509, -0.04309948533773422, -0.18651585280895233, 0.106663279235363, 0.2506997585296631, 0.02169475145637989, -0.026861028745770454, -0.0013451159466058016, -0.07940316200256348, -0.13090814650058746, -0.2055448591709137, -0.3228878974914551, 0.03285707160830498, 0.03310459107160568, -0.0546085387468338, 0.018499376252293587, -0.2937599718570709, 0.41232365369796753, 0.10458322614431381, 0.16544950008392334, 0.41764122247695923, -0.08051920682191849, -0.47451072931289673, -0.07303082197904587, -0.21814091503620148, 0.24749602377414703, 0.39761438965797424, 0.2944883108139038, -0.11710312962532043, 0.1351056694984436, -0.045625533908605576, 0.2376662790775299, 0.2676216959953308, -0.47367802262306213, 0.30952343344688416, 0.035533078014850616, -0.09582791477441788, 0.20589038729667664, 0.3742784857749939, -0.13435377180576324, -0.21053269505500793, 0.14020591974258423, -0.0017208693316206336, 0.108645960688591, 0.1123458594083786, 0.2955477833747864, -0.4343004524707794, 0.18474943935871124, -0.10258248448371887, 0.15938730537891388, -0.2179761528968811, 0.14485670626163483, 0.05920090526342392, -0.027623040601611137, 0.11709792912006378, 0.10913372039794922, 0.10234987735748291, -0.4057886600494385, 0.07615666836500168, 0.4007832109928131, 0.027010437101125717, 0.12022026628255844, 0.05599963665008545, -0.0441380999982357, 0.04608869552612305, -0.024670856073498726, -0.5640718340873718, -0.04770134761929512, -0.12112973630428314, 0.14212267100811005, 0.2231288105249405, -0.08752438426017761, -0.12902091443538666, -0.018617620691657066, 0.07730640470981598, 0.006170500069856644, 0.45630204677581787, 0.3158089220523834, -0.05632511153817177, -0.002907413523644209, 0.18513169884681702, -0.1821366399526596, 0.006124872248619795, 0.10744912177324295, -0.38184794783592224, -0.10516481846570969, -0.025711901485919952, -0.2383282631635666, -0.06561920791864395, 0.1282273679971695, -0.14423862099647522, -0.2448316216468811, 0.23789003491401672, -0.5092129111289978, 0.12484343349933624, -0.11692614108324051, -0.059783510863780975, -0.09909770637750626, -0.35061925649642944, 0.21522311866283417, -0.0433797650039196, -0.4729519784450531, 0.184981569647789, -0.2635897696018219, 0.15624436736106873, 0.08867362141609192, 0.13428831100463867, 0.06695844233036041, -0.1752086877822876, 0.06884733587503433, 0.22872145473957062, 0.3151876926422119, -0.24535173177719116, -0.032677311450242996, -0.01371054071933031, 0.2697034478187561, -0.058306243270635605, -0.04312465712428093, 0.09366534650325775, -0.18012171983718872, -0.7193673849105835, 0.11702211946249008, -0.2071715146303177, 0.2055501490831375, 0.4056687653064728, 0.20180337131023407, -0.2387816160917282, -0.23356732726097107, -0.29252034425735474, -0.1803259402513504, -0.03752259165048599, -0.11709350347518921, -0.00943045038729906, -0.13105341792106628, 0.08603906631469727, -0.07845399528741837, 0.3684130012989044, 0.2513512372970581, -0.1595534384250641, -0.09059756994247437, -0.004443078301846981, -0.1890803724527359, 0.2996329367160797, -0.026238583028316498, 0.11939723044633865, 0.23904021084308624, -0.22540439665317535, -0.14994943141937256, 0.11817499250173569, -0.057520341128110886, -0.137419655919075, 0.42735928297042847, -0.04292433336377144, 0.3905470371246338, 0.5122114419937134, 0.24263234436511993], [0.21809406578540802, -0.17230002582073212, -0.5341801047325134, 0.11905083805322647, 0.5075342655181885, -0.03581717610359192, 0.7052168250083923, 1.172620415687561, -1.3116052150726318, 0.03321477398276329, -0.28131720423698425, 1.140121579170227, 0.4431021809577942, 0.21865473687648773, -0.4289904832839966, -0.24066516757011414, -0.7659851908683777, -0.07284361869096756, -0.23841139674186707, 0.1682235449552536, -0.054056353867053986, -0.4210321307182312, 0.23180469870567322, 0.27752405405044556, 0.3639809489250183, -0.05130560323596001, -0.9598060250282288, 0.8014524579048157, -0.7022199034690857, -0.4069306552410126, 0.14174865186214447, 0.6404096484184265, 0.6691451668739319, 0.17586712539196014, -0.26784828305244446, -0.8116869926452637, 0.7396597266197205, -0.5751577615737915, -0.02263406664133072, 0.1075751781463623, -0.5943455100059509, 0.917540967464447, -0.2459084540605545, -0.43943965435028076, -0.16935227811336517, -1.4677536487579346, 0.6934733390808105, 0.9377120137214661, 0.37171030044555664, -0.46442776918411255, 0.35033687949180603, -0.8320939540863037, -0.06237408518791199, 0.1381373107433319, 0.4528134763240814, -0.33977338671684265, -0.26016026735305786, 0.46827900409698486, 0.5371475219726562, -0.17205363512039185, -0.3924016058444977, -0.6154217720031738, 0.2782105803489685, -0.21952947974205017, -0.34165117144584656, -0.10149768739938736, 0.4881410598754883, -0.0066431546583771706, 0.734056830406189, 0.5683796405792236, -0.9555621147155762, -0.9549930691719055, -0.6518477201461792, -1.1382337808609009, -0.22927212715148926, -1.3804758787155151, -0.6816901564598083, 0.929124116897583, -1.8200600147247314, 0.6705076694488525, -0.1526525467634201, -0.35227906703948975, -0.34912922978401184, 0.29550793766975403, -1.224573016166687, -0.1601601392030716, 0.6179295778274536, -0.06253091245889664, 0.4692533016204834, 0.6845767498016357, -0.11366648972034454, 0.9292857646942139, -0.16850313544273376, -0.7142223119735718, -0.7544553875923157, -0.107265904545784, -0.08843107521533966, -0.2879405915737152, -0.9955126047134399, 0.40928637981414795, -0.5919587016105652, 0.2112286388874054, 0.03710753843188286, 0.5525096654891968, 0.22627262771129608, -0.08001402765512466, -0.49046164751052856, -0.5394160747528076, -0.8750939965248108, -0.2395613044500351, 1.435778260231018, 0.4286636710166931, -0.8093339800834656, 1.4473598003387451, 1.1101375818252563, -0.5406320095062256, -0.565828263759613, -0.6678186058998108, -0.43067196011543274, -0.7698866724967957, -0.059003546833992004, -0.06418057531118393, -0.23002763092517853, 0.7264724373817444, 0.14027456939220428, -0.24949784576892853, 0.20296429097652435, 0.19151856005191803, -0.33272475004196167, 0.48255738615989685, -1.0170962810516357, 0.48453858494758606, 0.48543494939804077, -0.6512407064437866, 0.39871013164520264, 0.931418776512146, 0.22744935750961304, -0.3837394714355469, -0.18574103713035583, 0.426861435174942, 0.39187851548194885, -0.6122033596038818, -0.03433159738779068, 0.3721964657306671, -0.18260589241981506, 0.9311143755912781, -0.3504849374294281, -0.6655533313751221, -0.7532845735549927, 0.006563779432326555, -0.586125373840332, -0.5694935917854309, -0.1775103062391281, -0.5086777806282043, 0.5527185201644897, 0.7713139057159424, 0.06765671074390411, 0.2777547538280487, 0.2464471459388733, 0.095179483294487, -0.5640988349914551, -0.20865556597709656, -0.3144284188747406, 0.28845036029815674, 0.04227469861507416, 0.7631024122238159, 0.2953404188156128, 0.2159123569726944, -0.949335515499115, 0.7337403893470764, -0.16936710476875305, -0.14609110355377197, 0.3919390141963959, 0.9227424263954163, -0.894600510597229, 0.533322274684906, -0.12548880279064178, 0.8730577826499939, -0.19299572706222534, -0.36333394050598145, 0.2190319299697876, -0.4363209903240204, 1.870982050895691, -0.5535891652107239, 0.5172625780105591, 0.7203590869903564, 0.5014543533325195, 0.4156666696071625, -0.1655195951461792, -0.7981151938438416, -0.8538312315940857, -0.47540220618247986, -0.3763619661331177, 0.3355296552181244, -0.691466748714447, 0.7995346784591675, -0.8127055764198303, 0.6736891269683838, -0.423139363527298, 0.3262719213962555, 0.061474159359931946, 0.7624332308769226, -0.39073580503463745, 1.1283094882965088, 0.05030330270528793, 0.9901294112205505, 0.425175279378891, 0.4004534184932709, 0.293922483921051, -0.265072762966156, 0.33471253514289856, 0.10610891878604889, 0.42302417755126953, 0.29809704422950745, -0.1310514211654663, -0.32544153928756714, 0.24202615022659302, 0.22405175864696503, 0.4898824095726013, -1.1050630807876587, 0.2939898371696472, -0.2130250483751297, 1.3664426803588867, 0.1740541309118271, 0.6674715280532837, -0.552478551864624, 0.01014576107263565, -0.05118158087134361, 0.28104156255722046, 0.7941456437110901, 0.4646669030189514, -1.0562553405761719, 0.14550289511680603, -0.3019532859325409, -0.5397017002105713, -0.8297387957572937, -0.23088842630386353, 0.09703235328197479, -0.7091723680496216, 0.028760302811861038, -0.7388222217559814, 0.8079864382743835, 0.10933587700128555, 0.7756171822547913, -0.06672823429107666, 0.898267388343811, 0.6386293768882751, 0.4437195062637329, -0.8709585070610046, 0.008856674656271935, 0.6862969994544983, 0.03725932538509369, 0.8859056830406189, -0.8109776377677917, 0.7708650231361389, -0.751139223575592], [-1.1726042032241821, -1.1939302682876587, -1.388098120689392, -0.8263930678367615, -0.07660169154405594, 0.11413495242595673, 1.1951390504837036, 0.8203545808792114, -0.3349899649620056, -0.18231409788131714, -0.13874277472496033, -0.8966949582099915, 0.03223635256290436, -1.2589670419692993, -0.2379385232925415, -0.8285290598869324, 1.0304657220840454, -1.2074203491210938, -0.21378900110721588, -1.4012874364852905, 0.47996416687965393, -0.3623115122318268, -0.8702775239944458, 0.9174525141716003, -0.24718374013900757, 0.041703492403030396, -0.19059589505195618, 0.7089087963104248, -0.3458884656429291, 1.0725048780441284, -0.17414648830890656, -0.1551920771598816, 0.5762774348258972, -0.4052749276161194, -0.2376536875963211, 0.8449398279190063, -0.19428399205207825, -0.7171183228492737, 0.5733768343925476, 0.6425503492355347, 0.012637781910598278, 0.5576022267341614, 0.34547531604766846, 0.36154672503471375, 0.5512836575508118, 0.26590287685394287, 0.44994425773620605, -0.9455769062042236, -0.21096567809581757, -0.314209908246994, 0.11371216177940369, 0.21764104068279266, -0.36712801456451416, 0.9557363390922546, 0.9727652668952942, 1.0188580751419067, -1.0462837219238281, -0.34696853160858154, -0.3126939833164215, 0.5233540534973145, -0.967609167098999, -0.457974910736084, 0.36266598105430603, 1.0186073780059814, 0.7513033747673035, 0.588232696056366, 0.47432243824005127, -0.38446933031082153, -0.5940386652946472, -0.44207876920700073, 0.14767682552337646, -0.18221236765384674, -0.16061781346797943, 0.8130192756652832, -0.4942179024219513, -0.5858158469200134, 0.9190407395362854, 0.21326221525669098, 0.11587859690189362, -0.7291092872619629, 0.17245396971702576, -0.42438578605651855, -1.1999168395996094, 0.19081944227218628, 0.39526817202568054, 0.21832723915576935, 0.701548159122467, -1.0010764598846436, 0.055489681661129, 1.0025815963745117, -0.37920621037483215, -0.45731988549232483, -0.44909995794296265, -0.8094835877418518, -0.5578441619873047, -0.6401614546775818, 0.38241225481033325, 0.6602227091789246, 1.5023231506347656, 0.44791868329048157, 0.2494749128818512, -0.39787957072257996, -0.4186902940273285, -0.1505095362663269, -0.023704111576080322, 0.13612811267375946, -0.041142482310533524, 0.22437697649002075, 0.49219346046447754, -0.23741871118545532, -0.8384824395179749, -0.11358564347028732, 0.47696933150291443, 1.2175137996673584, 0.9969227313995361, 0.11629851162433624, -1.455956220626831, 0.6553131937980652, 0.4958817660808563, -0.6608633399009705, 0.17354696989059448, -0.7607247233390808, -0.21715475618839264, -0.5322113633155823, 0.6337313055992126, 0.36666667461395264, -0.22517730295658112, -0.7746061682701111, 0.27153196930885315, 0.41187578439712524, 0.053133707493543625, -1.3897361755371094, -0.26860302686691284, 0.8884349465370178, 0.9059151411056519, -0.4920945167541504, -0.679612398147583, -1.5276461839675903, 0.22967757284641266, -0.47865724563598633, -0.11128418147563934, -0.10590095818042755, -0.31413984298706055, -0.22218036651611328, 0.4549430310726166, -0.045392248779535294, 0.18685811758041382, -1.2592432498931885, -0.19350309669971466, -0.49521633982658386, -0.6659659743309021, 0.6545449495315552, 0.3634316325187683, -0.20683589577674866, -0.11956057697534561, 0.9440909028053284, 0.3110581934452057, -0.1793154925107956, -0.20315580070018768, 0.6900875568389893, 0.34369274973869324, -0.9222508072853088, -0.14898350834846497, -0.6998439431190491, 0.5890525579452515, 0.30011487007141113, 0.6658443212509155, -0.47452113032341003, 0.025303786620497704, -0.2388591468334198, 0.6163521409034729, -0.5779541730880737, -0.31399381160736084, -0.9559618234634399, 0.013540028594434261, 0.19078035652637482, -0.3006817698478699, -0.3158048093318939, 0.914490282535553, -0.3773324191570282, 0.6458966732025146, 0.881432294845581, 0.43537887930870056, -0.9158874154090881, 0.2511419951915741, -0.4836663007736206, -0.8385830521583557, 1.1850121021270752, -0.24198871850967407, -1.0046563148498535, -0.17322370409965515, 0.055502522736787796, 0.8045081496238708, -0.33173874020576477, 0.25176241993904114, 0.40898922085762024, -0.3312177062034607, -0.19018492102622986, 0.6929694414138794, 0.18748445808887482, 0.5746316313743591, -0.25232556462287903, 0.35515761375427246, -0.5520147085189819, 0.5121826529502869, 0.33026596903800964, -0.5850145220756531, -0.43443191051483154, -0.9152554273605347, -0.42948055267333984, -0.9079319834709167, -0.0020574333611875772, -0.1532745063304901, -0.15769162774085999, -0.07397186011075974, 1.2981843948364258, 0.035475339740514755, 0.7460857629776001, -0.6494128108024597, 0.7786887288093567, -0.015732737258076668, -0.041200682520866394, 0.7657084465026855, -0.19080866873264313, -0.36188092827796936, -0.1632816642522812, -0.9293208122253418, 0.6997024416923523, 0.5279203057289124, 0.5927304625511169, -0.18811775743961334, 1.2726325988769531, -1.1722368001937866, -0.7854893207550049, 0.03226291388273239, 0.23264525830745697, 0.7005795240402222, 0.8345483541488647, 0.3092048168182373, -0.0817369669675827, 0.32133209705352783, -0.5245686769485474, -0.715705394744873, -0.04125671461224556, -0.736367404460907, 0.513596773147583, 0.18971946835517883, 0.5111054182052612, -1.2406998872756958, 0.3811272084712982, -0.3629671633243561, 0.30032193660736084, -0.6364425420761108, -0.21417884528636932, -0.6257914900779724, 0.3389529585838318], [0.8356660604476929, -1.306571364402771, -1.8297759294509888, 1.9428666830062866, 1.3719019889831543, -2.0023343563079834, -1.6166081428527832, 2.337780475616455, 0.31637975573539734, 0.9844180345535278, -3.4362850189208984, 3.9688615798950195, -0.23018424212932587, 0.1984049528837204, -1.6829209327697754, 1.794379472732544, 5.983692646026611, -1.7365436553955078, -2.2065186500549316, 2.184634208679199, 1.9457460641860962, -0.3746648132801056, 0.5049212574958801, 2.6561779975891113, -1.8023680448532104, 1.865659236907959, -1.3010684251785278, -2.1861572265625, -1.487501859664917, -1.4859029054641724, 1.0613404512405396, -0.34719574451446533, -2.322434902191162, -1.420379400253296, -1.4664846658706665, 2.777116060256958, 1.196161150932312, 2.472651958465576, -0.03541693463921547, 0.2400732785463333, 1.573062539100647, 1.6899555921554565, -1.2438749074935913, -0.22314266860485077, 0.580600917339325, 3.569538116455078, 0.8242706060409546, -0.9522859454154968, -0.971655547618866, -2.5783793926239014, 0.7424845695495605, 0.46227335929870605, 0.1372603476047516, 2.1770410537719727, 1.6903966665267944, 1.8724186420440674, -4.440670490264893, 0.26471060514450073, 0.350070059299469, -2.2611584663391113, -0.6196073889732361, -0.14314858615398407, 1.9680453538894653, 1.3273868560791016, -2.307058095932007, -0.3214498460292816, -1.6824721097946167, -0.08794527500867844, -0.7669918537139893, 2.0200066566467285, 1.358367919921875, -0.38894736766815186, -0.6447154879570007, 1.6238700151443481, -2.077596426010132, 0.42307591438293457, 3.304579973220825, 1.9747743606567383, 4.259249687194824, -1.1282474994659424, -1.9165081977844238, -0.45960888266563416, 3.309755802154541, -0.10925161838531494, 2.409616708755493, 1.7512227296829224, 2.2913897037506104, -0.9704706072807312, 0.7690438628196716, 2.399639368057251, 0.20027492940425873, 1.284706711769104, 1.285925269126892, 3.8548829555511475, -1.1851154565811157, 0.6242262721061707, -2.4421932697296143, 0.22633026540279388, 6.589599132537842, 3.089528799057007, -0.812385082244873, -1.0133376121520996, 0.6921935081481934, 1.9086930751800537, -0.9150848388671875, -1.6885952949523926, -1.6665279865264893, -1.5794402360916138, -1.9067939519882202, -0.470104843378067, 3.6701183319091797, 0.14847934246063232, -1.3894007205963135, 4.663693904876709, 1.1648869514465332, 0.6046451926231384, 1.660476565361023, -0.7074797749519348, -3.877077579498291, -0.3709700107574463, -1.465710997581482, 0.25380846858024597, -2.3782413005828857, 3.5967772006988525, 1.213005781173706, 1.436804175376892, -2.680328845977783, -2.038156747817993, -0.2089686244726181, -0.21752095222473145, -0.0073334467597305775, 1.7110143899917603, 2.0494813919067383, -0.3427738547325134, 3.003648042678833, -1.4695125818252563, -3.5756146907806396, 3.5030906200408936, -3.293139696121216, -0.6576398611068726, -0.9347878098487854, -0.8540228009223938, -1.3096201419830322, 1.4043086767196655, -1.6063861846923828, -2.106104612350464, -0.26752883195877075, 3.638007879257202, -0.9770222902297974, 1.134642243385315, -0.043091658502817154, -1.1674221754074097, -1.2971687316894531, -0.08515040576457977, -0.056050628423690796, 1.4132359027862549, -2.0164873600006104, -0.9070543050765991, -1.8453127145767212, -1.79674232006073, -2.714176893234253, -1.4866044521331787, -1.5515118837356567, 3.1351511478424072, -0.3891054093837738, -2.7850451469421387, -0.6884182095527649, 0.2246709018945694, -3.137454032897949, -1.1357835531234741, -0.628610372543335, 0.8439089059829712, -0.6995066404342651, 2.060429334640503, -1.2330198287963867, -1.660521149635315, -0.2016296237707138, 1.4889298677444458, 1.927925705909729, -0.2652776837348938, -0.3078143894672394, -0.06307626515626907, 4.546725749969482, -0.5748158097267151, 1.072977900505066, 0.773790180683136, -0.433869332075119, -0.7534061074256897, -1.6677184104919434, 3.0420103073120117, -0.012835856527090073, -2.2324891090393066, 2.344402551651001, -1.9969570636749268, 0.4633333384990692, 0.6260488033294678, 0.0684846043586731, -0.07249408960342407, -1.293248176574707, -0.9111946225166321, -1.5527437925338745, 0.4555051922798157, 0.6309872269630432, 4.289551734924316, -2.873032569885254, 1.5188515186309814, -1.020216703414917, 0.2500459849834442, 2.0283915996551514, -1.3268758058547974, -1.5850353240966797, -3.670118570327759, -1.608899712562561, -0.7132112383842468, 2.1078712940216064, 0.02381003648042679, -2.3862462043762207, 0.29930052161216736, -3.225356340408325, 2.9318814277648926, -0.063683420419693, -0.28383660316467285, 1.1318857669830322, 1.1490856409072876, -1.1435755491256714, 0.6315120458602905, -1.560041904449463, 2.6500470638275146, -2.516260862350464, 0.5343449115753174, 1.8999160528182983, 6.032575607299805, 0.5790453553199768, -0.45269647240638733, -1.351806402206421, -2.7663612365722656, -0.7579124569892883, -0.613608717918396, -2.1501569747924805, 1.9307899475097656, 0.33984115719795227, -1.8524905443191528, -1.0306482315063477, -0.8889133930206299, -4.475438594818115, 0.3879663050174713, -3.780526638031006, -1.993837594985962, -1.9754656553268433, -2.6654913425445557, -0.18787434697151184, -1.2035977840423584, -1.711944341659546, -1.8807286024093628, -0.206826314330101, -2.270432233810425], [-1.256423830986023, 0.45353642106056213, 1.5347455739974976, -0.3413548469543457, -1.2945462465286255, 0.22292207181453705, -0.21695823967456818, -0.041071511805057526, 0.3824806213378906, 0.6480865478515625, -0.011325936764478683, -0.0008298397297039628, 1.0607497692108154, -0.5070883631706238, -1.3358263969421387, 0.38869091868400574, -0.583344042301178, 0.41312357783317566, 0.1119040921330452, -1.1076246500015259, -0.12102007865905762, -0.29893431067466736, 0.7276090979576111, -0.5035582184791565, -0.2716984450817108, -0.7465295195579529, -0.8360427021980286, 0.298938125371933, 0.20794180035591125, -1.3050038814544678, -0.8912922143936157, -0.652337908744812, -0.5774438977241516, -0.8047761917114258, 0.5743421316146851, 0.48632171750068665, 0.40029844641685486, 0.6153455376625061, -0.6266835927963257, -0.9865686297416687, -0.8530510663986206, 0.27247098088264465, -0.588943362236023, 0.26761484146118164, 0.025916041806340218, 0.7172084450721741, 0.4576055407524109, 1.4824281930923462, -0.30187469720840454, 1.5987927913665771, 0.5507150292396545, 0.9943445920944214, 0.14645861089229584, -0.3361451029777527, -0.5190009474754333, 0.3061691224575043, 0.9635822772979736, 0.6411506533622742, -0.08685524016618729, -0.41520020365715027, -0.7126335501670837, -0.6044318079948425, 1.0044670104980469, 0.27047061920166016, 0.4992402493953705, -1.426064372062683, 0.47901540994644165, 1.1338021755218506, -0.6757511496543884, 0.4967498779296875, 0.8708792328834534, -0.321823388338089, -0.5050896406173706, -0.05172476917505264, 0.6890749335289001, 0.2055162489414215, 0.05417652055621147, -0.2858971655368805, -0.5706290602684021, -0.3190348446369171, -0.10307282209396362, 0.10783199220895767, 1.4937279224395752, -0.8977171778678894, -1.1379824876785278, 0.03985565900802612, 0.060875870287418365, 0.72257399559021, 1.0944628715515137, -0.4222632050514221, 0.5548330545425415, 0.40222403407096863, 0.18596474826335907, 0.9087026119232178, 1.2915477752685547, -1.0497543811798096, 0.6233378052711487, 0.9451774954795837, -0.286075234413147, -0.19857928156852722, -0.4389225244522095, 0.4041507840156555, 0.5959442257881165, -0.5361201167106628, -0.8151527047157288, 0.20852187275886536, 1.1524509191513062, -1.134942650794983, -0.786733090877533, 1.9953970909118652, -0.08315680176019669, -0.20214638113975525, -0.1801818460226059, -0.22780612111091614, -0.7689622044563293, -0.1924397051334381, 0.1889886111021042, -1.070400357246399, 0.16055123507976532, -1.0001169443130493, 0.259412556886673, -0.6827216148376465, 0.31197547912597656, -0.1938253492116928, -1.954304814338684, 0.5459132790565491, 0.07469393312931061, -0.7106141448020935, 0.0843069925904274, -0.07128052413463593, -0.31959354877471924, 0.33393943309783936, -1.0190496444702148, 1.2943193912506104, 0.284489244222641, -0.3535612225532532, 0.7409656047821045, 0.5584384799003601, -0.7259635925292969, -0.5299826264381409, 0.05891820788383484, -0.8253595232963562, 0.6694807410240173, -0.9661441445350647, -1.1700955629348755, -0.08632248640060425, 1.5043044090270996, -0.2641647458076477, 0.20501525700092316, -1.7336405515670776, 0.9059138298034668, -0.06498907506465912, -0.10839124023914337, -0.4132223427295685, -1.544523000717163, -1.4801628589630127, 0.33275356888771057, 1.6200441122055054, -0.7538749575614929, -0.2941529154777527, -0.06354742497205734, -0.012859915383160114, 0.6314917206764221, 0.9157863259315491, 0.45424094796180725, -0.314288854598999, 0.6751722097396851, -0.07541077584028244, -0.09637384116649628, -0.47256234288215637, -1.0443793535232544, 1.111106276512146, 1.1045582294464111, 0.8461129665374756, -0.024720588698983192, 0.04708141088485718, -1.0005764961242676, -0.1465626060962677, 0.46236076951026917, 1.8495498895645142, 1.1462769508361816, -0.27529099583625793, -0.2136402428150177, -0.641100287437439, -1.3536949157714844, 0.8036059141159058, -0.2272835671901703, 0.8383167386054993, -0.19094271957874298, 0.13989517092704773, 0.3880607485771179, -0.351062148809433, 0.09837206453084946, -0.3466159701347351, -0.05706815794110298, -1.0752509832382202, -0.22087392210960388, 0.8655409812927246, 0.5800653696060181, 0.5527567267417908, -0.48427414894104004, 0.5682341456413269, 0.4297519326210022, 0.9347454905509949, 1.298972249031067, -1.3124933242797852, 0.1510433703660965, 0.03580018877983093, 0.3171967566013336, -1.1527448892593384, 0.6724517345428467, 0.11797662824392319, 0.6672770380973816, -0.5096721649169922, 0.9852179288864136, -1.1169630289077759, 0.9738729000091553, 0.10545555502176285, 0.4371926188468933, 0.4215012490749359, 0.6274416446685791, 0.020181775093078613, -0.8500168323516846, -0.9477764964103699, -0.10885068774223328, 0.2938343286514282, -1.0197288990020752, -0.45641523599624634, 1.4444506168365479, -0.7655195593833923, 0.8849372267723083, 1.1961281299591064, -0.684620201587677, -0.3128414750099182, -0.6679278612136841, 0.08053761720657349, 0.029197342693805695, -1.5306097269058228, -0.9025999903678894, 0.2277742475271225, -0.12115011364221573, -0.6856749653816223, 1.4649995565414429, -1.5389052629470825, 0.07397923618555069, -1.5073039531707764, 0.33146753907203674, -0.5018209218978882, -0.8044507503509521, 0.3169827163219452, 1.6799746751785278, -0.7967255115509033, -0.433544397354126, 0.23818117380142212, -1.1560992002487183, -1.3742953538894653], [-0.10298144817352295, 1.5308568477630615, 0.4423210620880127, 0.8712726831436157, 1.358460545539856, -0.0016114185564219952, 1.236960768699646, 0.5079847574234009, -0.8166014552116394, -0.5503265857696533, -0.7352458834648132, -0.051092009991407394, -0.47709423303604126, 0.4548978805541992, -1.3510069847106934, 0.3181898891925812, 0.6057335734367371, 0.1911003589630127, -0.1515377312898636, -0.5359179377555847, -0.10894057154655457, -1.0817997455596924, -0.31765252351760864, -0.12754882872104645, -0.8918302655220032, 0.7250586748123169, -0.5366806983947754, 0.560245156288147, 0.9761025905609131, 1.3860740661621094, 0.6686580777168274, -1.2571005821228027, -0.24714645743370056, -0.09790528565645218, -0.32449236512184143, -0.4758784770965576, -0.2529487907886505, 0.501825213432312, 0.56870037317276, 1.1245959997177124, -2.943044662475586, 0.8245722651481628, 0.18076151609420776, -0.14731000363826752, 0.5076478719711304, 0.805708110332489, -1.5225151777267456, -2.152416229248047, 0.49219033122062683, -0.6331453919410706, -0.5839347839355469, 0.007056948263198137, 0.8852971196174622, 1.304510235786438, -0.02305970899760723, 0.4814845323562622, -0.3558419346809387, -0.07722941040992737, -0.7957627177238464, 1.0538361072540283, 0.24732224643230438, 1.3718334436416626, 1.0395232439041138, 0.6334488987922668, 1.2180180549621582, -0.003318420611321926, -0.17313186824321747, -0.4322075843811035, -0.4413466155529022, 1.1977980136871338, 0.3403545320034027, -0.30131271481513977, -0.45484688878059387, -0.744587242603302, 0.3196718096733093, -0.29523298144340515, 0.1512039303779602, -1.313065767288208, 1.2505892515182495, 1.0332804918289185, -0.8794565796852112, -1.2600809335708618, 0.8584988117218018, 1.8526263236999512, 0.3981122374534607, -0.4907591640949249, 1.4130703210830688, 0.4363570511341095, -0.21138416230678558, -0.4083777070045471, -0.3182569146156311, 0.8111247420310974, -0.15455248951911926, 0.03144250810146332, -0.00724661024287343, -0.16286885738372803, -1.5530378818511963, 0.06532464921474457, 0.8894546627998352, -0.3675529956817627, 0.4411023259162903, 0.38419029116630554, -0.015527764335274696, -0.6237894296646118, 1.5293020009994507, 0.8191244602203369, 0.5926994681358337, 1.257004976272583, -0.47987672686576843, -1.0419598817825317, 0.5276380777359009, -0.9250044226646423, -0.38359206914901733, 0.9571012258529663, -0.6118015050888062, -0.2016206681728363, -1.3196724653244019, -0.6164208054542542, 1.2167811393737793, -0.2179337739944458, 0.5490318536758423, -1.2113579511642456, -0.7000235319137573, 0.4042949080467224, -0.5138778686523438, 0.3264392912387848, 0.29726457595825195, -0.3283318281173706, 0.2711400091648102, 0.2597089111804962, 0.9200441241264343, -1.628350853919983, -0.502501904964447, -0.5426855087280273, 0.2776467800140381, -0.8978363871574402, -0.5712504386901855, 0.6828156113624573, 0.006829395890235901, -1.071021318435669, 0.006370025221258402, 1.1273239850997925, -0.7256339192390442, 0.5492546558380127, 1.1644006967544556, -0.273310124874115, -1.1600062847137451, -0.7677380442619324, 1.2536990642547607, -0.9161703586578369, -0.819710910320282, -0.4083084464073181, -0.41806554794311523, -0.9459664225578308, -1.00334632396698, 1.2448601722717285, 0.7199942469596863, -0.07027994096279144, -0.8227813243865967, 1.3203017711639404, -0.4606972336769104, -0.11336450278759003, 0.6429007649421692, -1.0676742792129517, 0.008525332435965538, -0.7054209113121033, -0.2130010724067688, -0.2754978537559509, -0.07588134706020355, -1.1345998048782349, 0.9048036932945251, -0.7196587324142456, -0.4805721342563629, -0.054753176867961884, -1.2299689054489136, 1.2331169843673706, 0.9133976101875305, 0.32173553109169006, -1.097678303718567, -2.2221338748931885, -0.1357077807188034, -1.0025256872177124, 1.5262418985366821, -0.4597771465778351, 1.4008228778839111, -0.05548643320798874, -1.348036766052246, 0.4675882160663605, -0.388694167137146, -1.7337067127227783, 1.4714807271957397, 0.9943041801452637, 1.014525055885315, 0.6217286586761475, -1.217315912246704, 1.0256478786468506, -0.3275813162326813, -0.0558580681681633, -0.14710955321788788, 0.8259564638137817, 0.12062753736972809, 0.4720340073108673, -0.2663959562778473, -0.18433694541454315, -0.5697817206382751, -1.1567909717559814, -1.390832543373108, -1.4599425792694092, -0.7254154086112976, -0.3993692100048065, 0.06546373665332794, -0.4143196940422058, -0.052830711007118225, -0.8018810153007507, -0.8507593870162964, 1.057011604309082, -1.7084840536117554, -0.9930849075317383, -0.7302109599113464, -1.1131104230880737, -0.13041669130325317, 0.5851755738258362, 1.0370726585388184, 1.6369187831878662, 1.489511251449585, 0.5512761473655701, 0.652785062789917, -0.6252736449241638, -0.17001724243164062, 1.6796460151672363, -1.207403302192688, 0.13767315447330475, -0.9407683610916138, -1.2457305192947388, 0.14883925020694733, 0.045136649161577225, 0.6157557964324951, 1.3423616886138916, 1.0112050771713257, -0.2850847542285919, -0.9264324307441711, 0.8918643593788147, 0.8141406774520874, 1.104275107383728, -0.28417718410491943, 0.01605701819062233, -0.42174580693244934, -0.2704644799232483, 0.08066250383853912, -0.7012454867362976, -1.4142868518829346, 0.7784053087234497, 0.3997367024421692, -0.31981977820396423, 0.7111701369285583, 1.3957630395889282], [0.8068713545799255, -0.9349133968353271, -0.1577630490064621, -0.18230493366718292, -0.17566411197185516, -0.43700355291366577, 0.8019918203353882, 0.04718729481101036, -0.6952272653579712, -1.7741789817810059, 0.8632778525352478, -0.8039256930351257, -1.255601167678833, 0.32199567556381226, -0.8511219024658203, -0.09655468910932541, 0.5786327719688416, -1.1700695753097534, 1.192264199256897, -0.23895879089832306, 0.9808658957481384, 0.7522985935211182, 0.24529004096984863, 0.7420004606246948, -0.13745293021202087, 0.5163808465003967, -0.2395702600479126, 0.3894795775413513, 0.860698401927948, 1.0896482467651367, -1.0376399755477905, -1.1293209791183472, -0.8719015121459961, 0.2573944926261902, -0.5522653460502625, 0.7651515603065491, -1.1132349967956543, 0.7851162552833557, -0.5433081984519958, 0.7184421420097351, -0.22607922554016113, -0.7004218697547913, 0.12468557059764862, 0.20527663826942444, -0.3889472782611847, 1.3342487812042236, -0.4921531081199646, -0.03665390983223915, 1.5058815479278564, 0.30289727449417114, 0.4819612205028534, -1.0520310401916504, 0.6304918527603149, -0.6046481728553772, 0.2318774312734604, 1.3215457201004028, -0.49626752734184265, -1.1137923002243042, 1.1976070404052734, -0.532688558101654, 0.8310437202453613, 0.33542487025260925, -0.054089341312646866, 1.1683300733566284, 0.6240479946136475, 0.036318983882665634, -0.4184633791446686, -0.4049132466316223, 0.0269070565700531, -0.8671239614486694, 0.6070048213005066, -0.41539791226387024, -1.1275665760040283, 1.1936819553375244, -0.4051257073879242, 0.4266095459461212, -0.24487338960170746, -0.8854812979698181, -0.5836389660835266, 0.20384256541728973, 0.2474423348903656, -1.0975040197372437, -0.7603617906570435, 0.9408786296844482, 1.0134756565093994, -0.47817838191986084, 0.41438713669776917, -0.7301276326179504, -0.6746494174003601, 0.22712856531143188, -0.4145338535308838, 1.0147672891616821, 0.9909785389900208, -0.1483297049999237, -1.008943796157837, -1.404638648033142, 0.6504697799682617, 0.07283374667167664, 1.186025619506836, -0.24208781123161316, -0.5190063118934631, -0.3162141442298889, 0.5597307682037354, -0.5781090259552002, -0.17601746320724487, 0.2612995207309723, 0.8368098735809326, 0.27693483233451843, -1.0633461475372314, 0.01618185080587864, -1.3617585897445679, -0.5936484932899475, 1.2007701396942139, 0.02640833519399166, -1.3462125062942505, -0.0519290529191494, -0.3213607370853424, -0.8831407427787781, 1.215118408203125, 0.6036586165428162, -0.14443150162696838, -0.9551829695701599, 0.43923866748809814, -0.09239511936903, -0.11661309003829956, 1.4018818140029907, -0.21024805307388306, -1.804683804512024, -0.715368926525116, -0.3896305561065674, 1.534853219985962, -1.2975587844848633, -0.7181550860404968, 0.1306387335062027, -0.7726063132286072, 1.3182055950164795, -1.0716482400894165, -0.1701657921075821, 0.1500505656003952, -1.436058759689331, -0.9693043828010559, -0.5946885943412781, -1.2096856832504272, -1.458801507949829, 1.4306530952453613, -0.46659234166145325, 0.8509774804115295, -0.2764200270175934, 1.1971112489700317, -0.3754441738128662, -0.44118669629096985, -1.3185489177703857, 1.4238368272781372, -0.424968957901001, -0.47260013222694397, 0.17167392373085022, -1.1604479551315308, 0.9535329341888428, 0.8905805349349976, 0.0813814252614975, 1.3112738132476807, -0.9894123673439026, -0.17032504081726074, -0.07135102152824402, -0.9569648504257202, -0.46538046002388, -0.3342989683151245, 0.13735558092594147, -0.12781096994876862, -0.9160314798355103, -0.6589711904525757, 0.3303227424621582, 0.21928614377975464, -0.03595542907714844, -1.175008773803711, 0.49563756585121155, 0.5217585563659668, -0.7567469477653503, -0.4759587347507477, -0.48085451126098633, -0.23154884576797485, 1.0837044715881348, -0.5193163752555847, 0.7175764441490173, 0.3720301389694214, -0.11730146408081055, 0.8134008049964905, 0.35078778862953186, -0.5867108106613159, -0.8069270253181458, -0.4195646047592163, 0.9306764602661133, 0.5355086922645569, 0.7037709951400757, 0.8569207787513733, -0.24849174916744232, -0.4624280333518982, -1.3246736526489258, 1.1797446012496948, -0.10743019729852676, 0.1343422532081604, 0.23085524141788483, 0.9163546562194824, -0.9033985137939453, -0.343603253364563, -1.095467209815979, -0.5867230892181396, -0.5812228322029114, 0.2791281044483185, -1.5727064609527588, -1.405779480934143, -0.8888245224952698, 0.754581868648529, -0.5725624561309814, 0.40899142622947693, 0.5532383322715759, 0.31493017077445984, 0.8368199467658997, 0.601268470287323, 0.7976745367050171, -0.2481304407119751, -0.926119863986969, 0.09041795879602432, 0.3227316439151764, -1.4804317951202393, 0.5822107791900635, 0.6997438669204712, -0.17151160538196564, -0.001944993855431676, 1.2840336561203003, -0.2319268137216568, 1.0593370199203491, 0.20503123104572296, 0.9626087546348572, 1.6982579231262207, -0.6501113772392273, 0.5625789165496826, 0.029670028015971184, -0.6933050155639648, -1.4319789409637451, -0.03240266814827919, -0.7103200554847717, 1.028470754623413, -0.037723831832408905, -0.6006101965904236, 0.5138415694236755, 1.1840019226074219, -0.4875284433364868, 1.1989256143569946, -0.29950228333473206, 0.5123689770698547, 0.6181141138076782, -0.22180187702178955, -0.3718651533126831, -0.6874586343765259, 0.6028899550437927], [-0.8993225693702698, 0.012391770258545876, 0.2623903751373291, -0.3959248661994934, 0.28977927565574646, 0.20922674238681793, -1.3116321563720703, -0.4172033667564392, -1.1616880893707275, -0.7392957210540771, 0.2927015721797943, 0.26054686307907104, 1.2142044305801392, 0.4072814881801605, -1.3119033575057983, 1.5424320697784424, 0.046235304325819016, 0.4543776214122772, 1.137960433959961, 0.10779264569282532, -0.23652201890945435, -0.13997018337249756, 0.7027580738067627, 0.7107817530632019, -0.1482011377811432, -1.8160154819488525, 0.2788991928100586, 1.3492463827133179, 0.41959136724472046, -0.42685773968696594, 1.0475249290466309, -1.1660265922546387, -0.5327504277229309, -0.5257121324539185, 0.30573055148124695, 0.01587369665503502, -0.10276097804307938, -0.021572692319750786, -0.15563714504241943, -0.19605752825737, -0.6954023838043213, -0.05597274750471115, -0.15503686666488647, 0.46067777276039124, 0.7866957187652588, 0.45155835151672363, 0.7981404066085815, 0.42822182178497314, 0.8730044960975647, 1.4176325798034668, -0.28462648391723633, -0.9364395141601562, 0.9372533559799194, -0.9011474847793579, 0.09377963095903397, -0.056604597717523575, -0.31410354375839233, -0.4549126923084259, 0.3796091675758362, -0.5330879092216492, -0.36100950837135315, -0.6156209707260132, -0.46569573879241943, -0.9587118029594421, -0.8345057368278503, -0.6003360152244568, 1.3420660495758057, -0.7077633142471313, 0.46882039308547974, -0.2599430978298187, 0.7542957067489624, -1.2169015407562256, 0.9583232998847961, -0.5815572142601013, 0.028782563284039497, 0.6098454594612122, 0.5656921863555908, 1.4371638298034668, -0.7403769493103027, -0.20617282390594482, -0.4495050609111786, -0.13192108273506165, 0.07176517695188522, -1.058074951171875, 0.98631352186203, 0.5076339244842529, 0.30485472083091736, 1.0123333930969238, 0.34762516617774963, 1.11373770236969, 0.6240560412406921, 0.5268139243125916, -0.5567662715911865, 1.1964085102081299, -0.004399987403303385, 0.6048124432563782, 0.6616413593292236, 0.8486743569374084, 0.2831500768661499, 0.21338500082492828, 0.17317594587802887, 0.7512699365615845, 1.1006296873092651, -0.2924289107322693, -1.2152953147888184, -0.6136457920074463, -0.35772982239723206, -0.7958046197891235, 0.8822525143623352, 0.17440441250801086, -0.13422246277332306, 0.769150972366333, 0.20815470814704895, 0.502685546875, 0.3028067946434021, 0.14408685266971588, 0.08610884845256805, -0.9645178914070129, -0.5799729228019714, -0.4466039538383484, 0.08287974447011948, 0.6036465764045715, 0.8015215396881104, -0.45055556297302246, 0.7933156490325928, -1.1701686382293701, 1.3445359468460083, 1.0233322381973267, 0.4961593747138977, 1.2239429950714111, 0.10786640644073486, 0.6082733273506165, 0.8394732475280762, 1.4650797843933105, -1.7523273229599, 0.5332973599433899, 0.2970976233482361, -1.450456142425537, -0.02712496556341648, -0.19519607722759247, -0.13863401114940643, 0.4824586808681488, 0.7115573287010193, -0.41044333577156067, -0.1600390374660492, -1.566106915473938, 0.9956569671630859, 0.9025371074676514, 0.4654041528701782, -0.42574942111968994, -0.5185461044311523, 0.8139910697937012, 0.5613806843757629, -0.264065146446228, -0.4298059344291687, -0.7857032418251038, -0.8232122659683228, -0.24371540546417236, 0.26017624139785767, -0.2652479410171509, 1.1329399347305298, -0.44979599118232727, 0.5735473036766052, 0.5242222547531128, -0.5067166686058044, -0.14857329428195953, 0.4985126554965973, 0.47151049971580505, 1.0471020936965942, -0.36754274368286133, -1.1001224517822266, 0.7637616395950317, -0.09102552384138107, -0.08528437465429306, 0.5857352614402771, 0.7218940258026123, -0.5334035158157349, -0.440081387758255, -0.1789243072271347, 1.0670510530471802, -0.0053349994122982025, -0.3192880153656006, 0.21707504987716675, -0.439064085483551, 0.2118789702653885, -0.09128034114837646, 0.760697066783905, -0.030847731977701187, -0.22946599125862122, 0.8294134736061096, -0.36883845925331116, 0.12102299928665161, -0.9712568521499634, 0.9255954623222351, 0.005973961669951677, -0.9892244338989258, -0.08111272752285004, 1.6865875720977783, 0.2362574338912964, 0.42056018114089966, -0.6642705202102661, 1.4108045101165771, 0.27062052488327026, 1.2877795696258545, -0.45786044001579285, 1.0378479957580566, -0.38558802008628845, 0.540780782699585, -0.7495752573013306, -0.7963635325431824, 0.8283630609512329, -2.411283493041992, 1.7237807512283325, 0.7384828329086304, 0.471948504447937, 0.2990607023239136, 0.5646675229072571, 0.2382296472787857, 0.516952633857727, -0.3292751610279083, 0.8654869198799133, -0.3172476887702942, 1.0667855739593506, -0.8229188323020935, -0.1578861027956009, 1.1268812417984009, 1.0260502099990845, -0.3310295045375824, -0.07270687818527222, 0.11134607344865799, 0.40032994747161865, 0.011579038575291634, -0.30321240425109863, 1.3434712886810303, -0.3679737448692322, -0.07632118463516235, -1.3608585596084595, 0.2226804792881012, -1.1581813097000122, -0.8301147818565369, 0.4025922119617462, 0.5466115474700928, 0.5414285063743591, 0.16488170623779297, 0.1341928392648697, 0.956767737865448, 1.1222225427627563, -1.0370817184448242, -1.416518211364746, 0.49164268374443054, -0.45765045285224915, -0.26076939702033997, -0.12365049868822098, 0.6717590093612671, 0.556368350982666, 0.12979523837566376], [0.7839764952659607, 0.23477803170681, -0.32214784622192383, 0.6543388366699219, 0.26152968406677246, -0.3690926134586334, 1.255951166152954, 0.8950728178024292, 0.33615005016326904, 0.764789879322052, -0.3615448474884033, -0.09657931327819824, 0.31062042713165283, 0.8299976587295532, 1.842636227607727, 0.4719755947589874, 2.1248726844787598, -0.26406028866767883, 0.2071167379617691, 0.4374198317527771, 0.5906047224998474, -0.7074059247970581, 0.1366538405418396, -0.3724629580974579, 1.3768178224563599, -0.637238621711731, 0.49022623896598816, -0.7824942469596863, 1.5448315143585205, -0.9265551567077637, 0.6690379977226257, 0.38484328985214233, 0.5698109269142151, 0.5147522687911987, -0.30252084136009216, -0.2418150156736374, -0.012290360406041145, -0.6252350807189941, 1.261888861656189, 0.5085785388946533, 0.8242558836936951, -0.2047223150730133, -0.44598376750946045, -1.1373612880706787, -0.9065043330192566, -0.22378255426883698, 0.26335257291793823, -0.2348826825618744, -0.13324019312858582, -0.5226107835769653, 1.548516035079956, -0.1340600997209549, -0.13902577757835388, -0.3955232501029968, 0.9115292429924011, 0.04516563564538956, -0.5659158825874329, -0.32296159863471985, 0.06304215639829636, 1.0390647649765015, -0.4025213420391083, 0.39514052867889404, -0.112272247672081, 1.673000454902649, 1.653918743133545, 1.7793036699295044, -0.4277119040489197, 0.18992699682712555, 0.37725839018821716, -0.030737334862351418, -1.3431679010391235, 1.274634599685669, 0.30903682112693787, -1.4133071899414062, -0.2677299976348877, -0.21100029349327087, -0.13138511776924133, -0.7645577192306519, 1.135825514793396, 0.053101349622011185, -0.8486346006393433, -0.942721426486969, -1.890214443206787, 0.2528957426548004, 0.49960821866989136, 0.8476457595825195, 0.22054876387119293, -0.24344386160373688, 0.46256476640701294, -0.19829250872135162, 0.11567958444356918, -0.7160871028900146, 0.003298958297818899, -0.03358877822756767, -1.2938395738601685, -0.3415268361568451, 0.5842809677124023, 0.2992561161518097, -0.9165219068527222, -0.6656193733215332, -0.07227126508951187, -0.45872870087623596, -0.2842070460319519, 0.06459658592939377, 1.9182510375976562, -0.340660959482193, 1.0667961835861206, 0.7142000794410706, -0.9474530220031738, 0.34915581345558167, -0.47418659925460815, 0.694546103477478, 1.0125054121017456, -0.35864078998565674, -1.3782165050506592, -1.3035271167755127, -0.08454041182994843, 0.6143687963485718, 0.9928705096244812, -0.08742295950651169, 0.056589268147945404, 0.8790493607521057, -0.7799107432365417, 0.17608490586280823, -0.18074029684066772, 0.8616917729377747, 0.3427128195762634, -1.177077054977417, -0.5175778269767761, 1.3191184997558594, 0.5900370478630066, -1.1105942726135254, -1.0092390775680542, -0.2749798893928528, 1.7443453073501587, -0.9361379146575928, 0.031476035714149475, -0.12083227187395096, -0.7424424886703491, -1.788047432899475, 1.1790969371795654, 0.14340953528881073, 0.10843029618263245, 1.2482306957244873, 0.3297618329524994, -0.3701053559780121, 0.9953147172927856, -0.5645235776901245, -0.23102016746997833, -0.06163738667964935, -0.30819520354270935, 0.07797030359506607, 1.298872470855713, -0.34149205684661865, 2.07118821144104, 0.37312209606170654, -0.49978843331336975, 0.12671837210655212, -0.11359997093677521, 0.1361769735813141, -0.08324924856424332, 0.26799434423446655, -1.2478406429290771, -0.4650629460811615, -0.2736888825893402, -0.7879510521888733, -1.296536922454834, 0.7529897093772888, 0.3209773004055023, -0.42072808742523193, 1.3074567317962646, -0.8131822943687439, -0.5892958045005798, -1.4494380950927734, -0.6946020126342773, -0.9868876338005066, 0.6973013877868652, 1.3201537132263184, 2.1734321117401123, -0.09627138823270798, -0.868078351020813, -0.011519933119416237, 1.2485514879226685, 0.8816096782684326, -0.5434008240699768, -0.9814170002937317, -0.4198816120624542, 0.3581703007221222, -0.23424556851387024, 0.376138836145401, 1.3901969194412231, -1.625456690788269, 0.269724041223526, -0.5089206099510193, 0.6505494713783264, -0.4870929419994354, -0.48557358980178833, -0.5718796253204346, -0.24931658804416656, -0.4169548749923706, 0.535835862159729, -0.7679122090339661, 2.2429370880126953, -0.6293649077415466, -0.17910374701023102, 0.5989050269126892, -0.0077484347857534885, 0.6541270017623901, -0.4256538152694702, 1.3700770139694214, 0.7193170189857483, 2.0841026306152344, 1.0489650964736938, 0.6908330321311951, -0.2762865424156189, -0.19829708337783813, 0.4830988049507141, -0.3968702554702759, 0.03545458987355232, -0.42473283410072327, -0.790388286113739, 1.0308668613433838, 0.5331164598464966, -0.2046310007572174, -0.7406052947044373, -0.8268736004829407, -0.8637711405754089, 0.05145243927836418, 0.07645907998085022, 0.7127054333686829, 0.34909194707870483, 0.1728677600622177, 0.5961092710494995, -0.027255689725279808, 0.842960774898529, 1.2217501401901245, 0.2663410007953644, 1.2167026996612549, 1.2619050741195679, 0.39181411266326904, 2.9354352951049805, 0.32405897974967957, -1.0141490697860718, 0.8328726291656494, 0.33698463439941406, 0.6040654182434082, 1.755020022392273, 0.22929489612579346, -0.5701987743377686, -0.4234063923358917, 0.9126613736152649, 1.3399479389190674, 0.07720139622688293, 0.5922252535820007, -0.4991367757320404, 0.04703009873628616], [-0.24573755264282227, -0.04620402306318283, 0.5123550295829773, -1.019029140472412, 0.7635098099708557, 0.5671730637550354, -0.32273274660110474, 1.9719843864440918, 0.2118082046508789, -0.30365487933158875, -0.9037597179412842, 0.22392331063747406, 0.7125533819198608, 0.19867320358753204, -0.27938172221183777, -0.4816092848777771, 0.5216017365455627, -0.4340801537036896, 1.0133353471755981, 0.8577989935874939, -0.4752243757247925, 0.2583881616592407, 1.274896264076233, 1.4569536447525024, -1.2727738618850708, 0.6552775502204895, -1.468671202659607, 1.4468929767608643, -0.23754985630512238, 0.771090567111969, 0.7888344526290894, 0.7467138767242432, -0.31052350997924805, 0.4507574737071991, -1.1009496450424194, 0.16102486848831177, 1.2848879098892212, -0.7963646650314331, 1.0261173248291016, -1.366875410079956, 0.11959628760814667, -0.3072391450405121, 0.21403761208057404, -1.0913653373718262, -0.7247591614723206, 0.18468651175498962, -0.8655522465705872, -0.8449667096138, 0.5197546482086182, 0.6359636783599854, 0.22971832752227783, -0.5746103525161743, -0.06839042156934738, -1.0431180000305176, 0.869542121887207, 1.1999292373657227, 0.5663157105445862, 0.36006420850753784, 1.242226481437683, 0.03177183121442795, -0.8459457159042358, -0.7249515056610107, 0.5958835482597351, -1.2512456178665161, 1.3016133308410645, 0.4261135160923004, -0.6862788200378418, -0.27937382459640503, 0.5644683241844177, -0.8681967258453369, -0.9471123218536377, 0.5955291986465454, 0.281121164560318, -0.0555209182202816, 0.25633808970451355, -0.5385563969612122, 0.9859408140182495, 0.3632843494415283, -1.1933313608169556, -1.0676641464233398, -0.690038800239563, 0.21205845475196838, -0.9349169731140137, -0.3379228115081787, -1.2329086065292358, -1.0714330673217773, 0.97371906042099, -0.7667942047119141, -1.0357097387313843, 1.427582025527954, -1.3780663013458252, 0.5482156872749329, -0.13099466264247894, -0.8044354319572449, 0.06271606683731079, 0.4206683337688446, 0.6563579440116882, 0.5684661269187927, -0.39559298753738403, -0.3023083806037903, -0.7121427655220032, -0.9825131893157959, -0.3438607454299927, -1.0285658836364746, 0.516873836517334, 0.6418636441230774, 1.3515141010284424, 0.5537121295928955, -0.4570108950138092, 0.9186875224113464, 0.4796309173107147, -1.0932868719100952, -0.7383071780204773, 0.7706907391548157, 1.4063341617584229, -0.542618453502655, -0.54840487241745, -0.6321790218353271, -0.2749178409576416, -1.3256973028182983, 0.5963225364685059, -1.1927378177642822, 0.14586451649665833, 0.27029719948768616, 0.5260995626449585, -0.8229942321777344, 0.6917383074760437, -0.419971227645874, 0.6943351030349731, 1.8930528163909912, -1.0168336629867554, -1.2032164335250854, 0.7293547987937927, 0.0962645635008812, 1.0912858247756958, -0.6561116576194763, -0.8833600878715515, -1.0556306838989258, -0.6241955757141113, -0.6480779647827148, 0.8587331175804138, -0.8823192715644836, 0.13641636073589325, 0.9511557817459106, -0.3968796133995056, 0.6201406121253967, -0.48504698276519775, -0.9690670371055603, 0.3491460382938385, -0.14597739279270172, 0.4666549563407898, 0.23108555376529694, 0.5484870672225952, 1.1269160509109497, 0.7217705249786377, -0.3341989815235138, 0.8921958208084106, -0.8676711320877075, -1.1432337760925293, -0.17674601078033447, -0.7134575843811035, -0.7944173812866211, -1.441848874092102, -1.0121963024139404, -0.506202757358551, 0.2843429148197174, -1.3329451084136963, -0.5538434386253357, -0.0978134274482727, -1.4735338687896729, -0.9157689213752747, -0.25360462069511414, -0.4548030197620392, 0.07930508255958557, -0.23073609173297882, -1.1301521062850952, -0.41202881932258606, 0.8756341338157654, 0.2384817749261856, -0.3310513198375702, 0.6993993520736694, 1.2272347211837769, 1.0090341567993164, -1.5875316858291626, 0.0468297116458416, -0.8796542286872864, 0.39637553691864014, -0.16900095343589783, 0.10285491496324539, -0.512170135974884, 0.7170324921607971, -0.5266083478927612, 0.4856075942516327, -0.2130344957113266, -0.3548964262008667, 1.3049243688583374, 0.8969491720199585, 0.2186889946460724, 0.1994982808828354, -0.2094416618347168, -0.13307902216911316, -0.45711976289749146, 0.7858483791351318, 0.4103136956691742, 0.1901979148387909, -0.4640321135520935, 0.5537894368171692, 0.45511341094970703, 0.7241941094398499, 1.1056180000305176, 0.2895053029060364, -0.5788134932518005, 0.42403504252433777, 0.35581016540527344, 1.2946256399154663, 0.19416570663452148, 1.73628568649292, -1.3058875799179077, -0.4038422107696533, -0.2935318052768707, 1.098034143447876, -0.8709264397621155, 1.3155333995819092, 0.08376924693584442, -0.682977557182312, 0.08649102598428726, -0.5901681780815125, -1.4035338163375854, 1.7558759450912476, 0.09856314957141876, -0.20318147540092468, 0.3367602229118347, -0.7603532671928406, -0.28088343143463135, 0.04232898727059364, 0.5037938356399536, 0.014059866778552532, 0.7588966488838196, 0.6070402264595032, 0.7116039395332336, -0.4264545440673828, -0.3995715379714966, -0.3711480498313904, -0.2062985748052597, 0.8299226760864258, -0.019331781193614006, -1.1898612976074219, 0.7102063894271851, 0.10971604287624359, 1.2471035718917847, 0.8614671230316162, -0.3168104290962219, 0.9034940004348755, 0.20966355502605438, -0.6642076373100281, 0.26308006048202515], [-0.7356268167495728, 0.22780366241931915, 0.7230958938598633, -1.1009173393249512, 0.5447442531585693, 0.747290849685669, 0.5784428119659424, -0.3038741648197174, 0.6355201601982117, -0.1924436092376709, 0.34140071272850037, -0.11155412346124649, -0.638512134552002, -0.5022977590560913, -0.8963630795478821, 0.09138581156730652, -0.6265481114387512, 1.2217220067977905, 0.9218645691871643, -0.5563580393791199, 0.1287219375371933, 1.1368964910507202, 0.34814757108688354, 0.21837709844112396, 0.33591631054878235, 0.09076646715402603, 0.017902178689837456, -1.2062978744506836, 0.0832948312163353, -0.008946755900979042, 0.049985021352767944, 0.5690075159072876, -1.2630672454833984, 0.02601359412074089, 0.4691561758518219, 0.04752562195062637, 0.04019014164805412, 0.6818234920501709, -0.49832677841186523, 0.9368488192558289, 0.30352893471717834, -0.7780027985572815, 0.002236674539744854, 0.7629860639572144, 0.9310819506645203, 1.5249875783920288, 0.9591911435127258, 0.6251861453056335, 1.242743968963623, 1.443132996559143, 0.09729243814945221, -0.6643528342247009, -0.7892007231712341, 0.07982149720191956, -1.3461699485778809, -0.35089194774627686, 0.24095715582370758, 0.16745400428771973, -0.27270928025245667, -0.8365280032157898, 1.1199387311935425, 0.07241557538509369, 1.8939305543899536, -0.4651317298412323, -0.17781639099121094, 0.4489281475543976, 0.17544516921043396, -0.0898779109120369, 0.1484588235616684, -0.9277055859565735, 0.709888756275177, 0.22525125741958618, 0.6363634467124939, 0.9812795519828796, -0.910715639591217, 1.1462596654891968, 1.5839225053787231, -0.3568486273288727, 0.4665021002292633, -0.5974112153053284, 0.7321318984031677, 0.8369300961494446, 0.3895370066165924, 0.6558393239974976, -0.9061758518218994, 0.48698756098747253, -0.8410113453865051, 0.4337478578090668, -0.08846636116504669, -0.9532036185264587, 0.40430203080177307, -0.10481179505586624, 0.13078702986240387, 0.25905168056488037, 1.7440826892852783, -0.3589608073234558, 0.30969351530075073, -0.16006571054458618, 0.22265249490737915, -1.0776011943817139, 0.37578660249710083, -0.9825940132141113, -0.9257418513298035, -0.7792657017707825, -0.691537618637085, 0.1414252370595932, 1.7769731283187866, -0.33651256561279297, 0.008809778839349747, 0.13077370822429657, 0.054294634610414505, -0.08103694766759872, -0.42515596747398376, -0.8360945582389832, -1.5152474641799927, 0.7513329386711121, 0.7866219282150269, -1.0098013877868652, -0.5304245352745056, 0.023586811497807503, -0.008232449181377888, -0.8045011162757874, 0.9808614253997803, -1.1806120872497559, 0.5609946250915527, 0.3266637921333313, -0.6961885690689087, -0.44449251890182495, -0.035097550600767136, -0.6624851226806641, 1.2263503074645996, -0.6639488935470581, -0.6709291934967041, 0.24750028550624847, -1.1753313541412354, -1.1846461296081543, -0.7256175875663757, 0.2856996953487396, -1.9331562519073486, 0.4177112281322479, -0.416530579328537, 0.43768441677093506, 0.031483326107263565, 0.022160449996590614, 0.4885515868663788, -0.7067796587944031, 0.3838382661342621, -0.7598642706871033, 