{"in_shape": [null, 66], "layers": [{"type": "dense", "activation": "elu", "shape": [null, 128], "weights": [[[0.348864883184433, 0.06122405827045441, -0.1006603017449379, 0.1290723979473114, 0.24395819008350372, -0.08659716695547104, -0.012650111690163612, -0.198098286986351, 0.1591021865606308, 0.028933176770806313, -0.08654468506574631, -0.002165800891816616, 0.11876358091831207, -0.23187127709388733, 0.27914464473724365, -0.2100849747657776, -0.05709199234843254, 0.14834167063236237, 0.05863156542181969, -0.15155094861984253, -0.09908047318458557, -0.005951110273599625, -0.24078214168548584, -0.25861144065856934, 0.07458160072565079, 0.1451772004365921, 0.02432771772146225, -0.10869767516851425, 0.08141390979290009, 0.06233358755707741, 0.17799778282642365, -0.04484540969133377, -0.017477411776781082, 0.025177571922540665, -0.13565848767757416, -0.14173933863639832, -0.11605436354875565, 0.03776772320270538, -0.1089918240904808, 0.18361511826515198, -0.27606287598609924, -0.015947213396430016, -0.0656626746058464, 0.10955169051885605, 0.2192029505968094, -0.06087794154882431, -5.354797394829802e-05, -0.09695275872945786, 0.14982008934020996, 0.15899266302585602, 0.09212835133075714, -0.03430075943470001, -0.13126668334007263, 0.04792411997914314, -0.1077883243560791, -0.02760482020676136, -0.06110697612166405, -0.0038271944504231215, 0.0408322736620903, 0.05204528942704201, -0.09582295268774033, -0.08990003168582916, 0.07352226227521896, -0.08313577622175217, -0.23264098167419434, 0.0715172290802002, -0.12772509455680847, -0.27396899461746216, 0.09854742139577866, -0.06892608851194382, 0.09715823084115982, -0.12446951121091843, 0.08252470940351486, -0.07560966908931732, -0.10057587176561356, -0.07508844882249832, 0.1815754920244217, 0.0811847671866417, -0.018847040832042694, 0.19721084833145142, -0.08054758608341217, -0.28898000717163086, 0.042548224329948425, 0.21982398629188538, 0.1703338325023651, 0.0028858722653239965, -0.011395376175642014, 0.10240151733160019, -0.055796947330236435, -0.13867750763893127, -0.11185622215270996, -0.006185016594827175, 0.07090207934379578, -0.1468045562505722, 0.09285488724708557, -0.035227756947278976, -0.2166009396314621, 0.22296446561813354, 0.1908651739358902, -0.05813559889793396, -0.004690301138907671, -0.2252381145954132, -0.008039102889597416, 0.1074904203414917, -0.07690083235502243, 0.041941817849874496, 0.006393458228558302, 0.04655607417225838, 0.02915324456989765, 0.08385603874921799, 0.015796691179275513, 0.21317151188850403, 0.050400953739881516, -0.2631702721118927, -0.0973941832780838, -0.011480988934636116, 0.06262408196926117, 0.10307921469211578, -0.25244635343551636, -0.006400361191481352, 0.12216214835643768, -0.06142719089984894, 0.1761113703250885, -0.23648394644260406, -0.09794669598340988, 0.036781009286642075, -0.04365250840783119, -0.18924428522586823], [-0.08848679065704346, -0.14241135120391846, -0.1450762152671814, -0.06524445116519928, -0.22063326835632324, 0.11796369403600693, 0.07589531689882278, -0.20136183500289917, 0.12764587998390198, 0.04388616979122162, -0.023210393264889717, 0.06781890988349915, -0.0523420050740242, 0.09356139600276947, 0.28347665071487427, -0.08870522677898407, -0.13909682631492615, -0.19449827075004578, 0.1270054280757904, -0.16131727397441864, -0.18524035811424255, 0.30353906750679016, 0.21745188534259796, 0.10773838311433792, -0.3080260157585144, 0.12891721725463867, -0.10599860548973083, -0.02235250174999237, 0.06633234769105911, 0.08812183141708374, 0.36668461561203003, 0.12175358086824417, 0.013318482786417007, 0.2035195231437683, 0.06964252889156342, 0.06367359310388565, 0.11192037165164948, -0.0773366168141365, 0.05611121281981468, 0.008718202821910381, 0.04339578002691269, -0.12800239026546478, -0.11099478602409363, -0.09652846306562424, -0.23973216116428375, -0.062203288078308105, 0.09817881882190704, -0.11209998279809952, -0.1442122459411621, -0.10303904861211777, 0.11475637555122375, -0.18733088672161102, 0.14554673433303833, -0.019274091348052025, 0.08861009031534195, -0.32299840450286865, -0.07859966158866882, -0.1687972992658615, -0.039859797805547714, -0.24582812190055847, 0.058561526238918304, 0.07219501584768295, -0.06712004542350769, -0.030398115515708923, 0.01192842610180378, 0.21513476967811584, -0.017069552093744278, 0.13228538632392883, 0.028528675436973572, -0.15924476087093353, 0.024599885568022728, -0.23699800670146942, 0.05741370841860771, -0.18204541504383087, 0.06085273250937462, 0.053281255066394806, -0.18617786467075348, 0.008554520085453987, -0.2840593159198761, -0.08176357299089432, -0.0480426587164402, 0.03301335498690605, -0.08954553306102753, 0.18104057013988495, -0.08618597686290741, -0.12277651578187943, -0.13328176736831665, 0.11412809789180756, 0.08946307748556137, 0.17893482744693756, -0.04297671467065811, -0.07538025826215744, 0.0694551020860672, -0.0457056500017643, -0.11556122452020645, -0.06327904015779495, 0.12260718643665314, -0.14823777973651886, 0.17982465028762817, -0.1361556202173233, -0.07232782989740372, -0.073865607380867, -0.09431051462888718, -0.09900746494531631, -0.10440859943628311, 0.13105927407741547, -0.08786625415086746, 0.19714568555355072, 0.1336205154657364, 0.2492893934249878, 0.0526370145380497, 0.28505411744117737, 0.06885263323783875, 0.0033002032432705164, 0.18756747245788574, -0.10365718603134155, 0.027699077501893044, 0.11890291422605515, 0.030840177088975906, 0.03965730965137482, 0.1164221316576004, -0.1550101488828659, -0.03359474614262581, -0.1188829317688942, 0.13142110407352448, -0.018293488770723343, 0.21871834993362427, -0.07826736569404602], [-0.1336543709039688, -0.4027784466743469, 0.33810797333717346, 0.21408303081989288, -0.08276521414518356, 0.041078127920627594, -0.006646298337727785, 0.16594329476356506, -0.04818783327937126, -0.05672544613480568, -0.05129653960466385, -0.4648319184780121, 0.4303964674472809, -0.05928171053528786, 0.08771675825119019, -0.14463870227336884, -0.027028053998947144, -0.30825719237327576, 0.20685933530330658, 0.18411391973495483, -0.1442609429359436, 0.1865595281124115, 0.31427910923957825, 0.0036336290650069714, 0.03207660838961601, -0.05789753422141075, -0.139620840549469, -0.25939661264419556, -0.3469199538230896, -0.003377629676833749, -0.0663028210401535, -0.36126115918159485, 0.21338336169719696, 0.10840101540088654, -0.20570248365402222, -0.2922555208206177, 0.07973114401102066, -0.1265232264995575, 0.278739333152771, 0.005445433780550957, -0.1868198812007904, -0.13002139329910278, 0.02584235556423664, -0.17579437792301178, 0.0067386263981461525, 0.02753469906747341, -0.20918065309524536, -0.059562381356954575, -0.27355003356933594, -0.42961230874061584, 0.21027857065200806, 0.02833036705851555, 0.300681471824646, 0.32261618971824646, -0.18222114443778992, -0.07991373538970947, 0.03336850181221962, 0.03574102744460106, 0.21771498024463654, -0.027645882219076157, 0.09350080788135529, 0.19727270305156708, 0.05078331008553505, 0.14009110629558563, -0.17723555862903595, -0.007891464047133923, -0.0883006751537323, -0.44632473587989807, -0.026458129286766052, 0.23984308540821075, 0.052070505917072296, 0.1580110639333725, -0.5528873205184937, -0.2365320324897766, 0.19157865643501282, -0.5362071990966797, 0.01557910069823265, -0.21765652298927307, 0.2638888955116272, -0.1588381975889206, -0.15586256980895996, -0.10805480927228928, -0.08188429474830627, -0.0004995869821868837, -0.5087881088256836, -0.3688686192035675, -0.10612384974956512, 0.016929343342781067, -0.11251715570688248, -0.11735603213310242, 0.3746285140514374, -0.3039180636405945, 0.06303919106721878, 0.05194716900587082, -0.17505522072315216, 0.21799442172050476, 0.4011591970920563, 0.06804878264665604, -0.05058331787586212, 0.1005578488111496, 0.02092147059738636, -0.111394964158535, -0.41758453845977783, 0.116857148706913, 0.08053290843963623, 0.22686176002025604, 0.6370968222618103, -0.17399653792381287, 0.061579786241054535, -0.17424257099628448, 0.087233766913414, -0.09700407832860947, 0.2548583149909973, -0.17494139075279236, -0.10451781004667282, -0.12255750596523285, -0.23500780761241913, 0.18652330338954926, 0.056688081473112106, 0.08928663283586502, 0.008042879402637482, 0.42308512330055237, 0.0036022246349602938, 0.1468784660100937, 0.09225460141897202, -0.07073557376861572, -0.30114230513572693, 0.1782824695110321], [1.9359500408172607, 0.1863565742969513, 1.5207091569900513, -1.0650506019592285, -0.9855552315711975, -0.7583812475204468, 0.03899858891963959, -1.8603336811065674, 1.1226119995117188, 0.7018210887908936, -1.47380793094635, -1.0510042905807495, -0.12737569212913513, -1.9263545274734497, 1.2466925382614136, 1.453560471534729, 1.2169647216796875, 1.5291684865951538, -1.4982104301452637, 0.6371857523918152, -2.8920562267303467, 0.6783930659294128, 1.3108022212982178, -1.6938350200653076, -2.6884522438049316, 2.440624952316284, 0.09754757583141327, 0.12956602871418, 2.5326640605926514, 0.5997545123100281, 2.7443249225616455, -0.4629055857658386, -0.2911473512649536, 2.0733394622802734, -1.2910683155059814, 1.071834921836853, 1.8665227890014648, -2.7956748008728027, 0.32584208250045776, -0.5552974343299866, -0.5594493746757507, -0.12660174071788788, 0.26460763812065125, -1.3203905820846558, -2.1664512157440186, 0.8663356304168701, 0.7533554434776306, -2.1211392879486084, -0.80262291431427, 0.8027705550193787, -2.2092456817626953, -3.5554566383361816, 2.0008277893066406, -0.8783403635025024, 1.0848000049591064, -0.6516676545143127, -1.218291163444519, -0.7866891026496887, -1.099425196647644, -1.966822624206543, -1.134202241897583, -1.0468506813049316, -1.1784842014312744, 2.0084028244018555, 1.9846694469451904, 1.547966718673706, 0.8601338267326355, 1.6775250434875488, 0.47815072536468506, -1.7645673751831055, -0.28814589977264404, -0.23881131410598755, -1.9589506387710571, -3.1652891635894775, 1.1927497386932373, 1.0770745277404785, -2.0290987491607666, -0.43098774552345276, -1.8206371068954468, 1.0098862648010254, 0.3622363805770874, -2.9156572818756104, 1.5532208681106567, -1.6644134521484375, -0.9032109379768372, -1.8708535432815552, -0.21532098948955536, -0.296928346157074, 2.52701997756958, 0.9473371505737305, 0.16764682531356812, -0.2604246735572815, -0.9728846549987793, -0.6870973110198975, -1.4771381616592407, 0.6942672729492188, 0.047641556710004807, -1.5326114892959595, 2.158745050430298, -2.6434175968170166, 0.42200028896331787, -1.2053704261779785, 0.9144796133041382, 1.4584221839904785, -1.6253917217254639, -1.2357507944107056, -0.4791339933872223, 1.1208961009979248, 0.31466856598854065, -0.6565256118774414, 0.6921054720878601, 0.3784288465976715, 0.965337336063385, -1.6578768491744995, -1.378787875175476, -0.3449600636959076, -0.03672078251838684, 0.3810586929321289, 0.16471220552921295, 1.0152640342712402, 1.6602263450622559, 1.057087779045105, -2.501007080078125, 0.34897539019584656, 0.25126704573631287, -0.43287086486816406, 1.5848692655563354, 2.05198073387146], [-1.5763005018234253, 1.839650273323059, -2.0999367237091064, -0.04447881132364273, -3.0335936546325684, 2.7977850437164307, -0.3486780524253845, -1.5541092157363892, -2.198489189147949, 0.22965452075004578, 1.8285974264144897, -1.1457445621490479, 0.12416251003742218, -2.5629825592041016, 0.4004410207271576, 0.8741588592529297, 3.452598810195923, 2.654749631881714, 0.9160909652709961, 0.7302061915397644, 0.35645797848701477, -1.2715606689453125, 2.0916049480438232, -1.7153880596160889, -1.0766812562942505, -1.1730854511260986, 0.7441877126693726, 2.118988037109375, -0.9128901958465576, 0.7031128406524658, 0.5149994492530823, 2.141106128692627, -1.7381830215454102, -2.908123731613159, 0.6080690622329712, -1.7967138290405273, 1.1956150531768799, -2.936034917831421, -1.3210564851760864, 3.0290136337280273, 1.3008835315704346, -0.47729578614234924, 2.7870254516601562, 1.5511388778686523, -1.8456679582595825, 0.1976538747549057, 0.6515769362449646, -2.3103508949279785, -0.15969489514827728, 1.7392847537994385, -1.6819453239440918, 1.8455699682235718, 0.7636794447898865, 0.01902104541659355, 0.833612859249115, 1.4258184432983398, -1.3037633895874023, 2.4423155784606934, 2.3121755123138428, 0.5603041052818298, 0.356579452753067, -0.026525000110268593, -0.778843879699707, -1.9449939727783203, 0.05144478380680084, -2.3047516345977783, 1.0378636121749878, 0.6475553512573242, -1.2105271816253662, -2.4225902557373047, 1.5361452102661133, -0.9301390647888184, -0.6331631541252136, -1.1699819564819336, 3.5298354625701904, -3.2438580989837646, 1.6835570335388184, -2.191995859146118, -1.108251929283142, -1.406605839729309, 1.0644601583480835, 1.7849754095077515, 1.3697866201400757, 1.6662324666976929, -0.023663688451051712, 1.6777026653289795, -2.9745235443115234, -0.8134013414382935, 0.31738951802253723, 1.4003783464431763, 1.0017564296722412, -0.5010321736335754, 1.4001127481460571, 0.4586890935897827, 0.5363239049911499, -1.7624508142471313, 3.257290840148926, 3.6714587211608887, -2.1473824977874756, 0.685503363609314, 1.1252814531326294, 3.452798366546631, -0.5486868619918823, -1.496219515800476, 1.280382513999939, 0.49670714139938354, -1.6043701171875, -0.9781777858734131, 0.807945966720581, 2.1646173000335693, 0.7010194063186646, -1.4812673330307007, -3.738847494125366, -2.7200722694396973, -0.41309821605682373, 0.8361307382583618, 2.7618401050567627, 0.7258238792419434, 1.318152666091919, 1.9523680210113525, -0.9699714779853821, 0.8115847706794739, -0.7025064826011658, 0.013900235295295715, 0.6686948537826538, 2.021303653717041, -0.7585484981536865, 2.0465526580810547], [-4.366175651550293, 0.7604373097419739, -1.3264659643173218, -2.709324359893799, 12.81761646270752, -5.338217735290527, 7.555514812469482, 10.859694480895996, -0.8148387670516968, -3.6124446392059326, 2.3687632083892822, -2.9783589839935303, -7.285114288330078, -5.447681903839111, -3.3735086917877197, 5.474689960479736, 11.787278175354004, -1.685810923576355, 10.477104187011719, -3.226475954055786, 6.081338882446289, 9.660721778869629, 3.460176944732666, 9.291890144348145, 6.905411720275879, -0.9236550331115723, -1.238409161567688, -5.754691123962402, -3.3291525840759277, -6.661461353302002, -1.21281099319458, -2.8212437629699707, 1.6896543502807617, 6.192206859588623, -6.293680191040039, -6.47625732421875, -0.38338759541511536, 4.7516865730285645, 4.6790971755981445, 0.6573585867881775, 9.495319366455078, -6.764354705810547, -8.269082069396973, 10.336319923400879, 2.609668016433716, 3.8360161781311035, -3.0764849185943604, 1.8443127870559692, 1.770946741104126, -3.2296500205993652, -2.9056997299194336, -11.386575698852539, -3.024824857711792, -2.8196609020233154, 5.382301330566406, 3.125922441482544, -3.6426620483398438, 5.680454730987549, 14.041369438171387, 7.398789882659912, 6.024990081787109, -8.907071113586426, -4.7678656578063965, 0.5368680953979492, -3.1390655040740967, 6.77073335647583, -7.092432022094727, -2.756100654602051, 2.335719108581543, -6.629020690917969, -6.840946197509766, -1.5360205173492432, 7.875457763671875, -0.2152092009782791, -7.003868579864502, 6.060297012329102, -8.729462623596191, -5.641109943389893, 2.9578325748443604, 5.478832721710205, -6.984851837158203, 7.268777370452881, -2.118849039077759, -6.934348106384277, -6.417691707611084, 0.43823984265327454, 7.394110202789307, -9.135673522949219, 0.4838620722293854, 2.504992961883545, -2.454138994216919, 6.417479991912842, 3.871612787246704, 2.8278391361236572, -10.149761199951172, -1.3909025192260742, 9.267033576965332, 1.1525745391845703, -0.3292076289653778, 13.171358108520508, -1.4946810007095337, -9.17365550994873, -0.8812699913978577, -5.352526664733887, 6.735243320465088, 9.615839004516602, 2.5979208946228027, 1.854709267616272, 4.019681930541992, 1.4769173860549927, -0.4558618366718292, 13.094193458557129, -4.354008197784424, -2.453622817993164, 2.126232624053955, 15.229924201965332, 1.5506047010421753, -2.4901318550109863, -2.1255087852478027, 2.921349048614502, 5.989869117736816, 4.146391868591309, -5.5401225090026855, 5.5349440574646, 6.979068279266357, 2.1192445755004883, 6.999262809753418, 2.5180230140686035], [-0.0001840649638324976, 0.841423749923706, 0.04793855920433998, -0.10489244014024734, -0.09625253826379776, 0.20556187629699707, 0.56575608253479, 0.5611290335655212, 0.5062928795814514, 0.4034760594367981, -0.11977174878120422, -0.11235106736421585, -0.05313015729188919, 0.1604975163936615, -0.20393797755241394, 0.0761096403002739, 0.1873393952846527, 0.6862908601760864, -0.5309292078018188, -0.5190531611442566, -0.6069355607032776, -0.7968655824661255, -0.2215789407491684, -0.019898371770977974, 0.19612975418567657, 0.15154512226581573, 0.34403085708618164, -0.73520827293396, -0.008284331299364567, -0.2028743326663971, 0.12882739305496216, -0.2880886197090149, 1.1544358730316162, -0.3420376181602478, 0.2158573716878891, -0.1629227250814438, -0.24272246658802032, 0.7988269329071045, 0.24761609733104706, 0.8027254939079285, -0.16864736378192902, 0.15067093074321747, -0.01008382998406887, 0.051822178065776825, -0.40147361159324646, 0.18395963311195374, -0.7534762620925903, -0.03857972100377083, -0.2406022697687149, 0.024043697863817215, -0.16287101805210114, 0.28979459404945374, 0.16728520393371582, -0.7880507111549377, -0.06022706627845764, -0.27753591537475586, 0.3510238528251648, 0.7209009528160095, -0.12233716994524002, -0.449691504240036, -0.05467609688639641, -0.22852946817874908, 0.18372681736946106, 0.09774261713027954, 0.6412377953529358, 0.7530030012130737, 0.06583690643310547, 0.24349309504032135, 0.5497565269470215, -0.02594187669456005, 0.4200628101825714, -0.004935357253998518, 0.2580111026763916, 0.6321042776107788, 0.7188717722892761, -0.23651434481143951, -0.2250327467918396, 0.2223832607269287, 0.7631744742393494, -0.44844281673431396, -0.06052538380026817, 0.25805139541625977, -0.006699639372527599, 0.41789165139198303, -0.3222334086894989, 0.49977168440818787, 0.21742306649684906, -0.7219573855400085, -0.6195825338363647, -0.10576871782541275, -0.1594741940498352, 0.46274808049201965, -0.30204156041145325, 0.5003347396850586, 0.779582679271698, 0.6286774277687073, 0.07592557370662689, 0.350629985332489, -0.23235513269901276, -0.054239749908447266, -0.09191527962684631, -0.029888518154621124, 0.01884700357913971, 0.4852489233016968, 0.02123376913368702, -0.06230580434203148, -0.06203820928931236, -0.3092021048069, 0.1277933120727539, 0.47736412286758423, -0.357810378074646, 0.1382111757993698, 0.30134040117263794, -0.049482665956020355, -0.9019048810005188, 0.2214176505804062, 0.21917124092578888, 0.10864493250846863, 0.39218586683273315, 0.3371044099330902, 0.8187921047210693, -0.06973093003034592, -0.22932972013950348, 0.22101733088493347, 0.4970344305038452, 0.059959664940834045, 0.5001035332679749, -0.5324857831001282], [0.10238580405712128, 0.5456321239471436, -0.09880916029214859, -0.5670178532600403, 0.7806092500686646, 1.4743151664733887, -0.7299290895462036, -0.6835142970085144, 0.9266251921653748, 0.5998897552490234, 0.4099905788898468, 0.05237540230154991, -0.7389609217643738, 1.111568808555603, 0.11523116379976273, -0.46839213371276855, -0.20886705815792084, -0.19127096235752106, 0.2948688864707947, 0.2838950753211975, -0.7014437913894653, 0.3077644109725952, -0.3980807960033417, -0.07555891573429108, -0.12696422636508942, 0.7854673862457275, -0.3204997479915619, 0.1915311962366104, 0.19766080379486084, 0.005581307224929333, 0.8534981608390808, -0.041447725147008896, -0.8913468718528748, 0.7677262425422668, 0.4314658045768738, -0.4114930331707001, -0.040310073643922806, -0.8689486384391785, 0.2046692967414856, -0.7637357115745544, -0.13968512415885925, 0.25093287229537964, 0.17905978858470917, -0.12132634967565536, -1.1269553899765015, 0.3480324149131775, -0.05022696405649185, -0.13060446083545685, 0.39566513895988464, -0.3543018400669098, -0.6298211216926575, -0.6275149583816528, -0.25062668323516846, 0.8076117038726807, -1.0086658000946045, 0.2829737365245819, -0.17314423620700836, 0.9364935159683228, -0.826056182384491, 1.1234519481658936, 0.21111498773097992, 0.5184311866760254, 0.8457075357437134, 1.0221443176269531, 0.3221660554409027, -1.1422721147537231, -0.6939526200294495, 0.24394051730632782, -0.03451371192932129, 0.9583763480186462, -2.2037811279296875, 0.1913565993309021, 0.24276374280452728, -0.2999495565891266, 0.005807722453027964, 0.45796868205070496, -0.414019912481308, 0.40799251198768616, 0.8130166530609131, 1.1487611532211304, 0.047746822237968445, -0.680669367313385, 0.41422244906425476, -0.6849503517150879, -0.7206867933273315, -0.43444380164146423, 0.15723508596420288, 0.647590696811676, 0.4595518112182617, 0.3073051869869232, -0.6987757086753845, -1.0449204444885254, 0.016793714836239815, 0.6951238512992859, 0.1825547218322754, -0.3851887881755829, -1.0743675231933594, -0.27678483724594116, 0.15001501142978668, -0.3368246555328369, -0.2129518687725067, -0.0937185138463974, -0.12229476869106293, -0.24079138040542603, 0.5289619565010071, 0.20851022005081177, -0.016941804438829422, -0.674504280090332, -0.49420422315597534, 0.19886276125907898, -0.11384736746549606, 0.15416498482227325, 0.939648449420929, -0.469907283782959, -0.8700573444366455, -0.1563803255558014, 0.8046528100967407, -0.10810024291276932, -0.07237223535776138, 0.6046386957168579, 0.8187902569770813, -0.4240528643131256, 1.2008768320083618, 0.7414284348487854, -0.7769145369529724, 0.10783831030130386, 0.24846667051315308, -1.1504515409469604], [0.24831745028495789, 0.2164786458015442, -0.13744743168354034, -0.2577514052391052, -0.09943961352109909, 0.2172292321920395, 0.3912021815776825, -0.1008598804473877, -0.011325160972774029, 0.03182079270482063, 0.07194487005472183, 0.1372203230857849, -0.2909255027770996, -0.03585638850927353, 0.037117719650268555, 0.10747691243886948, -0.1078837662935257, 0.1366981416940689, -0.023837152868509293, 0.01670784130692482, 0.014466631226241589, -0.06539782881736755, 0.07746784389019012, 0.026489408686757088, 0.18264226615428925, 0.032101038843393326, 0.01151740737259388, -0.11261439323425293, 0.11652986705303192, -0.047652341425418854, 0.04357048496603966, 0.040032606571912766, -0.19599194824695587, -0.24191707372665405, -0.027495762333273888, 0.06710246950387955, -0.014057560823857784, 0.25448188185691833, -0.2540767788887024, -0.12021186947822571, 0.08789478242397308, -0.08995980024337769, -0.012768125161528587, 0.156265527009964, 0.20716829597949982, -0.11212626844644547, 0.19365225732326508, -0.0747622698545456, 0.20549289882183075, 0.32134613394737244, -0.12583331763744354, 0.08488964289426804, -0.17701037228107452, -0.2469569593667984, -0.1312309056520462, -0.23939457535743713, 0.015587268397212029, -0.08006042242050171, 0.09332375973463058, -0.2890518009662628, -0.16256754100322723, -0.20771388709545135, -2.225596472271718e-05, -0.11374834924936295, -0.12872417271137238, -0.205994114279747, 0.10987039655447006, 0.11054322868585587, 0.08166126906871796, -0.1032196432352066, 0.2189820408821106, -0.1064002588391304, 0.20876987278461456, 0.07476160675287247, 0.20636890828609467, 0.34978464245796204, -0.2170315384864807, 0.07828453183174133, -0.22361813485622406, 0.1719179004430771, 0.043862372636795044, 0.13522867858409882, 0.13130716979503632, 0.0594526007771492, 0.2922203540802002, 0.2789779305458069, 0.18640749156475067, 0.1628471314907074, 0.17238985002040863, -0.08584443479776382, -0.0035276790149509907, 0.2914591431617737, -0.2882251739501953, 0.07456078380346298, 0.09846760332584381, -0.1144484207034111, -0.05313245207071304, -0.19466187059879303, 0.01813587360084057, -0.09137838333845139, 0.15741567313671112, 0.11289716511964798, 0.2852802574634552, -0.20447728037834167, 0.09314263612031937, -0.06373528391122818, -0.3734652101993561, -0.05356040596961975, -0.19487592577934265, -0.03912719711661339, 0.10348960757255554, 0.03282112628221512, -0.13285593688488007, -0.04038069397211075, -0.17839455604553223, 0.10849833488464355, 0.19407734274864197, 0.11762376874685287, 0.01363306026905775, -0.0609695203602314, -0.19121837615966797, -0.33904239535331726, 0.2251928299665451, -0.05126870796084404, -0.10894494503736496, 0.22219739854335785, 0.1632833033800125, -0.1931917369365692], [-0.41287949681282043, -1.1589930057525635, 0.9630218744277954, 1.6399705410003662, 1.1047163009643555, 0.7470868229866028, -0.6274843811988831, -0.3041277825832367, -0.9511385560035706, -0.1546100676059723, 0.5575031042098999, -0.589555025100708, -0.26269957423210144, 0.19532597064971924, 0.9275513887405396, 0.7938697934150696, -0.08841924369335175, -0.41972559690475464, 0.9915315508842468, 0.8306349515914917, -0.47287192940711975, -0.056078895926475525, -0.42453277111053467, 0.19431938230991364, 0.5791606307029724, -0.5117321610450745, -1.1148715019226074, 0.4369344413280487, -0.848763108253479, -0.5712761282920837, -0.7803849577903748, -0.840447187423706, -0.23584648966789246, 0.3894031345844269, -0.4777122735977173, -0.8823319673538208, -0.0018283164827153087, 0.33638983964920044, 0.4802616536617279, -0.14953158795833588, -0.15576162934303284, 0.31971803307533264, 1.360227108001709, -0.9148052930831909, 0.20897303521633148, 0.1809428185224533, 0.5419875383377075, -0.3032490015029907, -0.1592094600200653, -0.18207630515098572, 1.6002012491226196, -0.5545858144760132, -0.15512330830097198, 0.4245263934135437, -1.1073139905929565, -0.004175096284598112, -0.5682750344276428, 0.4315047860145569, 0.4930155873298645, 0.22504062950611115, 1.4058692455291748, 0.49535465240478516, -0.027369098737835884, -0.5096091628074646, 0.6379302740097046, -0.1279403269290924, -0.6958066821098328, -1.1389374732971191, -0.9134911894798279, 0.8278191089630127, -0.04647012799978256, 1.350589394569397, 0.10665255039930344, 0.05320087820291519, 0.7357860207557678, -0.9678747653961182, 0.7313838601112366, -1.3239244222640991, -0.023030754178762436, 0.5309885740280151, -0.11464434862136841, -0.19631627202033997, 0.23075947165489197, 0.9869855046272278, -0.4980004131793976, 0.32922297716140747, -0.3173602223396301, -0.946456253528595, -0.703536868095398, -0.24475626647472382, 0.7223140597343445, -0.9906325340270996, -0.020696157589554787, -0.19777612388134003, -0.7628496885299683, -0.6909053921699524, -0.4019677937030792, -0.28243911266326904, -1.469598412513733, -1.0311636924743652, 0.23998726904392242, -0.9563091993331909, 0.06967933475971222, 1.2931790351867676, -0.020487293601036072, 0.8963256478309631, 0.6699622869491577, -0.039925817400217056, 1.1789594888687134, -0.5474656224250793, 1.0083080530166626, -0.8891680240631104, -0.22709719836711884, 0.4390941858291626, 0.8322317600250244, -0.5242761373519897, 0.40380555391311646, -1.0126808881759644, 0.58335280418396, 0.8256237506866455, 0.8920636177062988, 0.43765789270401, 0.7127755284309387, -1.2105039358139038, -0.9212343096733093, -0.5240449905395508, -0.7728530168533325, 0.005144202150404453], [-0.35106730461120605, -0.03451313450932503, -0.2705279588699341, 0.07812948524951935, -0.3892601728439331, 0.21910077333450317, -0.3045758306980133, -0.040373560041189194, -0.36911430954933167, -0.5415838360786438, -0.6746795177459717, 0.9193392395973206, -0.5313969850540161, -0.04763210564851761, 1.297608733177185, 0.44506895542144775, -0.4980742931365967, 1.0672763586044312, -1.1984102725982666, -0.24704837799072266, -0.3393978178501129, 0.6050525307655334, 0.5306901335716248, 1.1376147270202637, -0.8175252079963684, -1.235573172569275, 0.6170931458473206, -0.7003998756408691, -0.38023585081100464, -0.7036811113357544, 0.7052835822105408, 0.045405615121126175, 0.43763086199760437, -0.22995832562446594, 0.15320245921611786, 0.7672221064567566, 0.06958748400211334, -1.4577782154083252, -1.4627662897109985, -0.6555705070495605, 0.46734708547592163, -1.4933183193206787, -0.8342225551605225, 1.3176512718200684, -0.9597555994987488, 0.024698393419384956, -0.09546547383069992, 1.2203068733215332, -0.2299693375825882, 0.49701279401779175, -1.6056599617004395, 0.36249709129333496, 0.6439948081970215, 1.0682767629623413, 0.10854381322860718, -0.7043769359588623, -0.9042907953262329, -0.00254141166806221, 0.3238948583602905, 1.0263220071792603, 0.41523876786231995, 0.31128329038619995, -0.4565315842628479, 1.453069806098938, -0.4205245077610016, -0.7670508623123169, 0.743218719959259, 0.24066169559955597, 0.6763309836387634, -0.8760570883750916, -0.09733499586582184, 0.31647616624832153, 1.3366379737854004, 1.38896644115448, -0.8860707879066467, -0.26170289516448975, -1.1973743438720703, 1.144321084022522, 0.6861274242401123, -0.6757360100746155, 0.04530441015958786, -0.260945588350296, 0.03851686790585518, -0.03541073575615883, 1.692915439605713, 0.9750322103500366, 0.1854860931634903, 1.3003907203674316, 0.6105105876922607, 0.22292496263980865, 0.7630402445793152, 0.11987107992172241, 0.344932496547699, -0.06309834867715836, 1.0632964372634888, -0.6130082011222839, -0.9987695813179016, -0.6914039254188538, 0.18328900635242462, 0.29302942752838135, -0.6369691491127014, 0.13327555358409882, -0.35569366812705994, -1.117353081703186, 0.6228818893432617, -0.17815110087394714, 0.24614626169204712, 0.4463864862918854, -0.28308582305908203, 0.9065631628036499, -0.2179080992937088, 0.29114559292793274, -1.827897310256958, -0.06802764534950256, -1.0874731540679932, 0.22159533202648163, 0.6589863300323486, 0.2953144311904907, 1.2818431854248047, -0.2513587474822998, -0.7067723870277405, -1.4519084692001343, 0.12563574314117432, -0.5457690954208374, 0.8657956719398499, 1.3724130392074585, -0.030653487890958786, 0.5251098871231079], [0.3538798391819, 0.29812896251678467, 0.22274382412433624, 0.3512156009674072, 0.30673086643218994, -0.6525750756263733, -0.6194048523902893, -0.11649105697870255, -0.3108117878437042, 0.6429426670074463, 0.4735061228275299, 0.318826287984848, 0.8233559727668762, 0.01380134280771017, -0.5954192876815796, -0.8517059683799744, 0.6359468102455139, 1.0106236934661865, 0.8236615061759949, -0.2695674002170563, 0.3920072913169861, -0.6294450163841248, 0.5482866168022156, 1.1145293712615967, 0.7917910218238831, -0.9195600748062134, -0.5965594053268433, 0.2596673369407654, -0.5585254430770874, -0.017322445288300514, -0.47266867756843567, 1.4587254524230957, 1.2155834436416626, -0.05007104575634003, 0.19840751588344574, -0.0471089705824852, 0.6374009847640991, -0.4656994044780731, -0.2782040536403656, -0.7092010974884033, -0.351603627204895, 0.0577089749276638, -0.380962073802948, 0.5319205522537231, 0.5661471486091614, 0.3159726560115814, -0.8666852712631226, 0.7410206198692322, -0.6399427652359009, 0.5182572603225708, 0.39429301023483276, 0.12059734761714935, 0.7552074193954468, -0.4730171859264374, 0.7473375201225281, -0.35949525237083435, -0.07057930529117584, 0.838331401348114, -0.588233232498169, -0.573186457157135, -0.46567854285240173, 0.32502686977386475, 0.17961034178733826, 0.2684922218322754, 0.23808050155639648, -0.9318574070930481, -0.2969968020915985, -0.3082324266433716, 0.7260591387748718, -0.22327396273612976, 0.9381935596466064, 0.5061792135238647, -0.6848163604736328, -0.7630717754364014, -0.1290377974510193, 0.3136703372001648, -0.7329734563827515, 0.5679415464401245, 0.769317090511322, -0.6228861808776855, 1.0515908002853394, 0.050607841461896896, 0.18910595774650574, 0.4227440357208252, -0.23001889884471893, 0.8105481266975403, 0.6764990091323853, -0.2897346019744873, -0.027115654200315475, -0.7012245655059814, -0.13611240684986115, -0.9110710620880127, -0.23318737745285034, -0.39027807116508484, 0.8043032288551331, 0.28303587436676025, 0.49383002519607544, -0.5469735860824585, -0.7196701765060425, 0.7483659386634827, 0.7543763518333435, -0.13567163050174713, 1.0774255990982056, -0.0835505798459053, -0.014850054867565632, 0.005236026830971241, 0.1932293176651001, 0.6480602622032166, 0.2190479338169098, -0.13458748161792755, -0.20098964869976044, -0.8674110770225525, 0.9766314625740051, 0.1914854496717453, -0.27204012870788574, -0.6482747197151184, -0.5702544450759888, 1.2608591318130493, -0.0743199810385704, 0.4496912658214569, -0.44273948669433594, 0.5130144357681274, 0.5438814163208008, -0.6644530296325684, 0.7725724577903748, -0.17156291007995605, 0.2971924841403961, -0.19749815762043], [-0.48697516322135925, -0.42134764790534973, 0.30496734380722046, 0.9452922344207764, -1.1643097400665283, -0.8232163190841675, -0.6143092513084412, -0.0396711565554142, -1.2195463180541992, -0.2761860191822052, -1.03106689453125, -0.7764739394187927, 0.7557498812675476, -1.5703365802764893, -0.18415018916130066, -0.430796355009079, -1.0527334213256836, 0.5641184449195862, 1.1604959964752197, 0.0938502699136734, -0.7347420454025269, 0.7835503220558167, -0.7823231220245361, 0.4533891975879669, 0.2277452051639557, 1.5472846031188965, -0.7484036684036255, 0.7505055665969849, 0.03596652299165726, 1.1654722690582275, 0.18409648537635803, -0.3957754075527191, 0.33093559741973877, -0.47530102729797363, -0.9616732001304626, -1.2989965677261353, 1.9827690124511719, -0.2338767647743225, -0.034235432744026184, 0.24012383818626404, 1.5152567625045776, 0.005663712043315172, 0.4424494802951813, -0.056743837893009186, 0.7670945525169373, 1.1423393487930298, 0.42074665427207947, -0.4429345726966858, -0.5270119309425354, -0.582833468914032, 0.8511841297149658, -0.6772000193595886, 0.8411138653755188, -0.014582150615751743, -0.9433290362358093, -0.30111682415008545, -1.1005488634109497, 0.9684917330741882, -0.8332988619804382, 0.15150342881679535, -1.014638900756836, 0.6044058799743652, 0.5969400405883789, 0.8355699181556702, 0.946353554725647, 0.253320574760437, -1.2154853343963623, -0.5944260358810425, -0.021453116089105606, 0.7896726727485657, -0.5611320734024048, 1.375298023223877, 0.2810569107532501, -0.8505857586860657, 1.6888374090194702, -0.3985038995742798, -0.9498376846313477, -0.7265946269035339, -0.5033013820648193, 0.05228623375296593, -0.660153329372406, -1.288921594619751, 0.36747244000434875, 0.215675488114357, 0.05764168128371239, -1.262967824935913, -0.32938528060913086, -0.9969577789306641, 0.5459897518157959, -0.2229793518781662, 0.7231461405754089, -0.23247820138931274, 0.10786420851945877, -1.2079461812973022, -0.13712581992149353, -0.5988035202026367, 0.7262431979179382, -0.6594799160957336, 0.513462245464325, 0.08736245334148407, 0.49165189266204834, 0.4810050427913666, -0.1281164437532425, 0.9771377444267273, -0.9086898565292358, 0.39647147059440613, 1.1438759565353394, 0.02237396501004696, 1.0620028972625732, -0.8525716662406921, 1.1194478273391724, 0.33069583773612976, 0.6108734607696533, -0.027316134423017502, -0.6479707956314087, 0.48823463916778564, 0.25297126173973083, -0.09234905987977982, 0.2689446806907654, 0.004607961513102055, 0.5906308889389038, -0.5580633878707886, -0.5085313320159912, -0.7074580192565918, -0.2591707408428192, -1.701959490776062, 0.013411417603492737, 0.2390897423028946], [0.35813209414482117, -0.7923779487609863, -0.6798844933509827, -1.190953254699707, 0.2904682755470276, 1.648668885231018, -0.22698770463466644, -0.5646538138389587, 0.6012693047523499, -1.562283992767334, -0.5584762692451477, 0.4390406608581543, 0.746176540851593, 1.1054553985595703, -0.9083542227745056, 0.781360387802124, 0.3434019088745117, 1.0198866128921509, 0.02463650330901146, 0.51313716173172, 0.39920470118522644, -0.26505690813064575, -0.5065215229988098, 1.1162909269332886, -0.6804420351982117, -0.6544873118400574, 0.41790202260017395, -0.556144654750824, -0.2714592516422272, 0.11678105592727661, -0.6428061127662659, 0.10108963400125504, -1.270174503326416, 0.030996495857834816, 0.9826170802116394, -0.3065207004547119, -0.9340575933456421, 0.8300780057907104, 0.41992589831352234, 0.8310286402702332, -0.10289111733436584, 0.5016378164291382, 0.8086480498313904, -0.7627449035644531, -0.05439279228448868, 0.06971634179353714, -0.5735514163970947, -0.04981629550457001, -0.19593217968940735, 0.23041169345378876, -0.684036135673523, 0.8609238862991333, 0.419404536485672, -0.1947413682937622, 0.9430147409439087, 1.0451416969299316, 0.012111824005842209, -0.008260628208518028, 0.8779277801513672, -0.7046001553535461, -0.3407796323299408, -1.1400264501571655, -0.1746661365032196, -0.21684196591377258, -1.1465270519256592, -1.0064483880996704, 0.4920410215854645, 1.1661931276321411, -0.388027161359787, -0.5289804935455322, 0.4199523627758026, -0.5638867020606995, 0.3777763545513153, 0.37828418612480164, 0.7472231388092041, -0.906254768371582, -0.2940555214881897, 1.0686099529266357, -0.1461942344903946, 1.1276946067810059, 0.09372306615114212, -0.3625502586364746, 0.882482647895813, -1.3797428607940674, 0.5178413391113281, -0.007310876622796059, 1.0211150646209717, -0.4042077958583832, 0.7137475609779358, 1.3620989322662354, -0.6855446100234985, 0.7082669734954834, -0.5117300152778625, 0.14075998961925507, 0.23270438611507416, -0.9045966267585754, 1.0664570331573486, 0.9329529404640198, -0.17160063982009888, -3.4929136745631695e-05, 0.02435682900249958, 1.5277975797653198, -0.516674280166626, -0.9280316233634949, -0.593996524810791, 0.1835775524377823, 0.12186364084482193, -0.5937942266464233, 0.8435899615287781, 0.9241535663604736, 0.2591886520385742, 0.35465118288993835, -1.0617913007736206, -0.2622707486152649, -0.055435050278902054, -0.01491129957139492, -0.7757819890975952, -0.43033742904663086, 0.8838109970092773, -0.6732218861579895, -0.8652231097221375, -0.5566800236701965, 1.019913911819458, 1.023601770401001, 0.5721369385719299, 1.0340548753738403, -0.4468666911125183, 0.12064938247203827], [-0.38269490003585815, -0.15689696371555328, -0.6851392984390259, -0.5403184294700623, 1.1475297212600708, -0.6925858855247498, 0.5931916832923889, -1.1763917207717896, -0.06679204851388931, -1.6642800569534302, 0.21987435221672058, 0.09320618957281113, 0.5756677985191345, -0.030183028429746628, 0.34554246068000793, -0.02365770749747753, 1.217282772064209, -0.4377022087574005, 1.208552598953247, -0.4409175217151642, -0.7675157189369202, -0.44932040572166443, 0.5640478134155273, 1.2530094385147095, -0.4175134003162384, 0.09177766740322113, 0.6034457087516785, 0.27637240290641785, -0.4610602557659149, -0.8138646483421326, -0.08212042599916458, 0.08520190417766571, -0.44457104802131653, -0.17254434525966644, -0.2417372167110443, 0.24397403001785278, 0.9338539242744446, -0.8620679974555969, -0.6820770502090454, -1.4855674505233765, -0.25826480984687805, 0.4735208749771118, 0.6628214716911316, -0.696667492389679, 0.22382450103759766, 0.9451695680618286, 0.5854407548904419, -0.1327640265226364, -1.0995776653289795, -0.2503497302532196, 0.5443528294563293, -1.2483028173446655, 1.0482847690582275, 0.6221569776535034, 0.21501271426677704, -0.7631968855857849, 0.23096595704555511, -1.035965085029602, 0.8825234770774841, 0.19808560609817505, 0.9752501249313354, -1.0067578554153442, -1.1462969779968262, 0.7394401431083679, -0.7205579876899719, 0.7593247294425964, 0.08658908307552338, 0.44405943155288696, -0.2955183684825897, -0.34050971269607544, -0.18710651993751526, -0.315338671207428, -0.4148719608783722, 0.040127914398908615, -1.0234328508377075, -0.30736324191093445, 0.5607374310493469, -0.39330771565437317, 0.2840510308742523, 0.5066781044006348, -0.13872206211090088, -0.4180738925933838, -0.05793648585677147, 0.744125247001648, -0.8045816421508789, -0.12356182187795639, 0.18111886084079742, -0.06975734978914261, 1.125994086265564, 0.18091048300266266, 0.09788478165864944, 0.09938518702983856, 0.6169013381004333, 0.4799729287624359, -0.016293369233608246, 0.19489839673042297, -1.002558708190918, -0.7498481273651123, -0.7645545601844788, -0.04585738480091095, -0.8183223605155945, -0.35502031445503235, 0.5057224035263062, 1.2058528661727905, 0.13374926149845123, -1.0254346132278442, -0.016011424362659454, -0.4411275088787079, 0.4348106384277344, -0.4850007891654968, -0.3181104063987732, 1.518746256828308, -0.6202694177627563, -0.19229918718338013, -0.2760128378868103, -1.1629910469055176, -0.8227440714836121, 1.051088809967041, 1.002974271774292, 0.2996160387992859, -0.10908568650484085, 0.4270607531070709, -0.22805888950824738, 0.33307695388793945, -0.7366611957550049, 0.6870213150978088, 1.2195522785186768, 1.3071010112762451], [0.2999036908149719, -0.3448321223258972, -0.20366768538951874, 0.763573944568634, 0.3875811994075775, -1.2481242418289185, -0.012061999179422855, -0.1295827031135559, 1.1564359664916992, 0.07052548974752426, 1.4786337614059448, -1.6457366943359375, -0.2577403485774994, 0.07033205777406693, -1.1124552488327026, -0.10155333578586578, -0.3934762179851532, -0.043967485427856445, -0.9498295783996582, 0.833557665348053, -0.2819952070713043, -1.2636687755584717, -0.8063103556632996, -0.6229321956634521, 0.03538797050714493, -1.3874950408935547, -1.7133429050445557, -0.08278268575668335, -0.22708722949028015, 1.4106190204620361, -0.36680981516838074, 0.12894073128700256, -0.1436653882265091, 0.7345631122589111, 0.576690137386322, -0.9470691680908203, -1.0491284132003784, 0.28827881813049316, -0.12380862981081009, 1.2181694507598877, -0.8404170274734497, -0.6664372086524963, -0.5486957430839539, -0.6566128730773926, 0.5435806512832642, 0.4886598289012909, -1.216884970664978, 1.4548747539520264, -1.1625293493270874, -0.6808534264564514, 1.7000699043273926, 1.3687416315078735, 0.6875560879707336, 0.08882417529821396, -0.6219497323036194, 0.6534198522567749, -0.19506284594535828, 1.4136420488357544, 0.02406107261776924, 0.979163408279419, 0.0973987877368927, 0.7488343119621277, 0.5853556394577026, -0.42024707794189453, 0.8141705393791199, -0.7687627077102661, -0.3866586983203888, 0.7544468641281128, 0.43180593848228455, 1.2357515096664429, -0.3103784918785095, 0.3358938992023468, -0.682624340057373, 0.9442219138145447, -1.4165430068969727, -0.9548887610435486, 1.2319525480270386, -0.4464258551597595, 0.49367254972457886, 0.021178273484110832, -0.5621575713157654, 0.7604274749755859, -0.07538753747940063, 1.0447044372558594, -0.6460853219032288, 0.4954403042793274, 0.5036253333091736, -0.3538043200969696, -0.9861693978309631, -0.8382171392440796, 0.06416262686252594, 0.6032622456550598, 0.060142774134874344, -0.23248514533042908, -0.33494725823402405, 1.8265600204467773, 0.41211581230163574, -0.6474784016609192, -1.763575792312622, -0.1378314048051834, 0.13438649475574493, -0.34586504101753235, -0.024563346058130264, -0.4167991578578949, 1.733067512512207, 0.9870922565460205, 1.014197587966919, 1.2119237184524536, 0.015227383002638817, -0.12418640404939651, 0.14623813331127167, 0.3203725814819336, 0.6263248920440674, -0.029299039393663406, 0.5763722658157349, -0.07894235104322433, -0.9980699419975281, -0.16060762107372284, -0.07782988995313644, -0.8480827212333679, -0.558907687664032, 1.0786951780319214, 0.49357956647872925, -0.19600918889045715, -0.47816288471221924, -0.6353545784950256, 0.45703670382499695, 0.6279255747795105], [-1.4028338193893433, -0.23756733536720276, 0.3276312053203583, 1.0849980115890503, 0.7012852430343628, 0.3121125102043152, -1.8383514881134033, 0.7254801392555237, -0.8474313020706177, -0.6550430655479431, 1.2047728300094604, -1.398439884185791, -0.33469143509864807, 0.6252396106719971, -0.6256331205368042, -1.0683833360671997, 0.978787362575531, -0.12079329788684845, 0.8424623012542725, 1.7698112726211548, 0.9414828419685364, 0.5027957558631897, -0.965197741985321, -1.5071545839309692, -1.5523408651351929, -0.7058305144309998, -0.0884966105222702, -0.5577924847602844, -0.17263516783714294, -0.2375880479812622, -0.4911971986293793, 0.6692495942115784, -1.0046764612197876, -0.2472638487815857, -0.030777882784605026, -1.311431646347046, 0.7178360223770142, -0.9587928652763367, 0.4579220414161682, 0.6138102412223816, -0.033189162611961365, -1.0799837112426758, 0.3816780149936676, -1.5347930192947388, -0.6875965595245361, -0.35212448239326477, 0.1954808235168457, -1.189549446105957, -1.9403102397918701, -0.06392431259155273, 0.8865690231323242, -0.08970053493976593, 0.8475551009178162, -1.9600136280059814, 0.7484025955200195, 1.514539361000061, -0.2955327033996582, 0.5426621437072754, 1.5133081674575806, -0.3939610719680786, 1.2705097198486328, -0.293342262506485, -1.0730581283569336, -0.7958643436431885, -0.8651866316795349, -0.0288194939494133, -0.8452308177947998, -0.5218111872673035, 1.3274222612380981, -0.036115970462560654, -1.0472912788391113, -0.012236176989972591, -0.5409347414970398, 0.5368651747703552, 1.1329845190048218, -0.8950644731521606, -0.9603939652442932, -1.1161603927612305, 0.038891520351171494, -0.8306899070739746, 0.18153268098831177, 0.1643587350845337, 0.6784927845001221, -0.23275260627269745, -1.3307477235794067, -0.7571959495544434, -0.6777593493461609, -0.5633126497268677, 0.9019815325737, 0.025436319410800934, 0.039764296263456345, -0.3138427138328552, 0.38188883662223816, 0.7059773206710815, -0.920282781124115, -0.5486046671867371, 0.41389212012290955, -1.2595083713531494, -0.5063623189926147, 0.4595777094364166, -0.034068651497364044, -0.5939685106277466, -1.4212970733642578, -1.1145280599594116, -0.896956205368042, -0.7211956977844238, 0.2909122407436371, -0.509565532207489, 1.1114367246627808, 0.09982918202877045, -0.8713210225105286, 0.048166900873184204, -0.9525743126869202, -1.099993348121643, -0.369025319814682, 0.3676937222480774, -0.6722120642662048, 0.847831666469574, 1.1406430006027222, 1.2565016746520996, -1.5136456489562988, 1.3918260335922241, -0.0024017812684178352, -0.17323267459869385, -0.8908835649490356, -1.0413548946380615, 0.1110190823674202, -0.9762631058692932], [-0.09178270399570465, -0.03898631036281586, 0.29116180539131165, -1.281084418296814, -1.512139916419983, 1.159620761871338, -0.23889228701591492, -0.10635117441415787, -0.3187618553638458, 1.0201878547668457, -0.11827415972948074, 0.06801263242959976, 0.009605437517166138, -0.337431401014328, -1.3377052545547485, 0.007949522696435452, 1.168113112449646, -0.2402096837759018, 0.6983713507652283, -0.5074687600135803, 1.1577825546264648, -1.0063456296920776, -0.2053493857383728, 0.24795225262641907, 0.7470730543136597, -0.889835774898529, 0.9900770783424377, 0.5803151726722717, -1.1478314399719238, 0.4593377411365509, 0.4198085069656372, 0.8495010137557983, 0.07959166169166565, 0.551365315914154, 0.10271210968494415, -1.6976584196090698, 1.0854614973068237, 1.2559621334075928, -0.016551880165934563, -1.0636557340621948, 0.4342382848262787, -0.3958075940608978, 0.966741144657135, -1.0787460803985596, 0.7501490116119385, 1.2616188526153564, -0.9766343832015991, 0.3904246389865875, -0.6015923023223877, 0.27273187041282654, 0.5969101190567017, -0.7100387811660767, 0.0409054160118103, -0.7349483370780945, 0.3065432012081146, 1.2827354669570923, -1.329598069190979, -0.30778759717941284, -0.5512847304344177, 1.0903366804122925, 0.3306370675563812, -1.5677464008331299, -0.48984965682029724, 0.7072261571884155, 0.0034019378945231438, 0.4686577022075653, -0.7598091959953308, -0.897301435470581, 0.34452471137046814, 0.3128880560398102, -0.23841392993927002, -0.6125070452690125, 0.7907830476760864, -0.3020051419734955, -0.03324192389845848, 0.2045324593782425, -0.9904260039329529, -0.4866468906402588, -0.37953194975852966, -0.3961920440196991, 0.08206113427877426, -1.041111946105957, -0.2688925266265869, -0.0443708710372448, -0.09624751657247543, 1.079508662223816, -0.09829360246658325, 0.4311642348766327, -0.4238833487033844, 0.13115032017230988, 0.6643885970115662, -0.7279262542724609, -1.3951611518859863, 0.3802659511566162, 1.3630329370498657, -0.547248125076294, 0.07811306416988373, -0.012049572542309761, 0.9675995707511902, 0.6425212025642395, 1.0134555101394653, -0.1715225875377655, 0.7883060574531555, -0.1711781769990921, -0.10008690506219864, 0.6811532378196716, 0.05929112434387207, -1.1644442081451416, 0.49756932258605957, 0.8378463983535767, -0.1911449283361435, -1.1951125860214233, -0.4531644582748413, -1.2156459093093872, -0.5200017690658569, -1.0282695293426514, -0.2980921268463135, -0.22873198986053467, -0.37200093269348145, 1.1506898403167725, -0.02767658792436123, 0.28973284363746643, 1.2952029705047607, 0.923606812953949, 0.3299921751022339, 0.6282728910446167, -0.1172456443309784, -1.2575467824935913], [-0.2916942834854126, -0.3468932509422302, -0.6528935432434082, 0.6155206561088562, -0.037005715072155, 0.32293054461479187, 0.8664247393608093, 0.020950470119714737, 1.0513790845870972, -0.025531452149152756, 1.1410948038101196, -0.42003121972084045, -0.5160501599311829, -0.8764284253120422, 0.13911935687065125, -0.09208740293979645, -0.05121771991252899, 0.7801524996757507, -0.35941457748413086, 0.8965198397636414, -1.8039809465408325, 0.1290794014930725, 1.4224828481674194, 0.1378280371427536, -0.4439413845539093, 0.6146247982978821, -0.9645777344703674, -0.2718408405780792, -0.2874464988708496, -1.132002592086792, 0.4000268578529358, -0.8575255274772644, -0.04492712393403053, -0.18072132766246796, 0.457268089056015, 0.13225071132183075, 0.5212231874465942, -0.0823342502117157, 0.942099392414093, 0.09808521717786789, 1.1748703718185425, -0.1060447096824646, 0.4009283185005188, -1.2162991762161255, -0.6416038870811462, 0.16823230683803558, 0.6238653063774109, -0.274341881275177, -0.7433786988258362, -1.1170573234558105, 0.4546878933906555, -0.9191778898239136, 0.17028281092643738, -0.22317937016487122, -0.14716871082782745, -0.6509395241737366, -1.4623444080352783, 0.07579406350851059, 0.801979660987854, -0.33899959921836853, 0.4674161374568939, 1.1715151071548462, 0.7808486819267273, 0.06260185688734055, -0.1732196807861328, 1.2688169479370117, -1.2019963264465332, 0.024639885872602463, -0.6712523102760315, 0.4394279420375824, -0.3191642165184021, -0.1308072954416275, -1.7630363702774048, -1.0467045307159424, 0.8447321653366089, -0.44701606035232544, 0.3290913999080658, -0.8285934329032898, -0.36860403418540955, -1.0561206340789795, 1.0267345905303955, -1.2615174055099487, -0.5785300731658936, 0.830568790435791, 0.3449970483779907, -0.8393617868423462, 0.5512444972991943, 0.006170059088617563, 0.456483393907547, -0.7906150221824646, -0.20102965831756592, 0.8829224705696106, 0.5584564805030823, -0.1928005963563919, 0.7529640793800354, 0.11114969104528427, 0.4296141266822815, 0.7161253690719604, 0.022988097742199898, -0.022398529574275017, -0.46057572960853577, 0.2947790026664734, -0.9887588620185852, 0.043709952384233475, 0.24476291239261627, 0.725029468536377, 0.3022981584072113, 0.18110735714435577, 1.0586066246032715, -0.1457095593214035, -1.1352558135986328, 1.190834641456604, -0.8103134036064148, 0.4363672435283661, -0.6929205656051636, -0.15412750840187073, 0.5490054488182068, 0.004614593461155891, 1.2804324626922607, 0.7314004898071289, -0.36529186367988586, 1.127142071723938, -0.7726548314094543, -0.44197914004325867, 0.1017846167087555, -0.5681450366973877, 1.5997625589370728, 0.8247321844100952], [-0.5103437304496765, 1.0196698904037476, -0.8442482352256775, 0.7158865332603455, -0.37979018688201904, -0.4368015229701996, -0.4397151470184326, 1.090795874595642, -0.1913939118385315, 1.18130624294281, 0.5871909856796265, -0.07145623117685318, -0.4965388774871826, -0.041045255959033966, 0.4167171120643616, 0.5894922614097595, 1.5131229162216187, -0.7035074830055237, -0.6128782033920288, 0.30673831701278687, -0.9496895670890808, -1.4558722972869873, 1.9888038635253906, -0.39305177330970764, 0.4987299144268036, -0.8441190719604492, -1.032090663909912, 0.10696973651647568, 0.09478534758090973, -0.41416555643081665, 0.2037537395954132, 1.89738130569458, 0.0815204530954361, 1.191599726676941, -0.6797518134117126, 1.1815472841262817, 1.2151473760604858, -0.6408030986785889, 0.07518305629491806, 1.2378374338150024, 0.5398105978965759, -0.1935623288154602, 1.1978007555007935, -1.5321438312530518, -1.0588657855987549, 0.9316009879112244, -0.7489727139472961, 0.2812403440475464, 0.012653041630983353, -0.7964833378791809, 0.10996555536985397, -1.2414674758911133, 1.024850845336914, -0.1784043312072754, -0.9827967882156372, -0.6185967326164246, 0.5904399752616882, 0.04255661740899086, 2.5542049407958984, 1.635128378868103, -1.097845435142517, 0.47761470079421997, 0.9197129011154175, 1.0298149585723877, 1.8395507335662842, -0.4882626235485077, 0.17976413667201996, 0.24347063899040222, 0.5342342853546143, -1.7542774677276611, -0.40460413694381714, 0.5203891396522522, -0.278863787651062, -1.2970448732376099, 0.12890970706939697, -0.6847761869430542, 0.2451702505350113, 0.42198702692985535, 0.010595434345304966, 0.5312235951423645, -0.6734687685966492, -0.0396762415766716, -1.1067907810211182, 0.030012961477041245, -0.02159309573471546, 0.23926174640655518, -0.26267310976982117, 1.1423085927963257, -0.9945389032363892, 1.1458208560943604, 0.06591567397117615, 0.7505043148994446, -0.26005157828330994, -0.6129542589187622, 0.5901944637298584, -0.055573876947164536, 0.966437578201294, -0.13981963694095612, -1.5951412916183472, 0.19405466318130493, -1.4653583765029907, -0.48527660965919495, 0.17512042820453644, 0.8136664032936096, -1.097543716430664, 1.7152119874954224, 0.7799203991889954, 1.6151559352874756, 0.08699069917201996, -0.392424613237381, -0.6114552021026611, 0.000902038358617574, -0.5444383025169373, 0.42819786071777344, 0.5757924914360046, -0.822384238243103, 2.608643054962158, 0.9979988932609558, -0.22232523560523987, 0.16541898250579834, -0.7515296339988708, -0.43113142251968384, -1.3094024658203125, 0.8930923342704773, 0.518901526927948, 0.36885538697242737, -0.7818333506584167, 0.6588879227638245], [1.2932947874069214, -1.823309302330017, -1.1348462104797363, 0.7161304950714111, 0.5286359786987305, 1.1208823919296265, -0.9543973207473755, 1.4926186800003052, -0.27691707015037537, 0.3865365982055664, -1.3990459442138672, -0.6138631701469421, -1.9503648281097412, 0.47022393345832825, 0.21667997539043427, -0.3789561092853546, 0.7683149576187134, -1.2999018430709839, 0.14972612261772156, -0.9110685586929321, -0.574497401714325, 1.5313100814819336, 1.0720864534378052, 0.06165686249732971, 0.07491707801818848, 0.26978346705436707, 1.1916030645370483, -0.09144140779972076, -0.1793840527534485, -1.5961875915527344, -0.43441540002822876, 0.2263389676809311, 0.31224048137664795, 1.809009075164795, -0.5012398958206177, -0.04947885870933533, 0.2174469381570816, -0.3035190999507904, -0.6524617075920105, 0.6568666696548462, -1.305827260017395, -0.6710168123245239, 0.9930629134178162, 0.8513073921203613, 0.10874637216329575, 0.7123773694038391, 0.3366139829158783, 0.36935627460479736, -0.24061362445354462, 0.0414775051176548, 0.600115180015564, -1.6542954444885254, 0.023723162710666656, 0.7369856834411621, 0.5621500611305237, 0.8863580822944641, 0.6894516944885254, -0.30844613909721375, -1.348617434501648, 0.31049829721450806, -0.32460176944732666, -0.23101505637168884, -0.8262529969215393, 1.5251723527908325, -0.25987371802330017, -1.0897845029830933, 1.483500599861145, 0.21472904086112976, -0.7487233281135559, -0.8079818487167358, 1.185992956161499, 0.5796495079994202, -0.20577532052993774, 1.5141570568084717, -0.814222514629364, -0.15069308876991272, 0.5861864686012268, -0.9262772798538208, -2.149134635925293, 0.12002145498991013, -1.2594177722930908, 1.0390887260437012, -2.2610557079315186, 0.3821510672569275, 0.05865065008401871, -0.6378905773162842, -1.034806251525879, 0.03248974680900574, -0.20463180541992188, -0.4262685775756836, -0.7609026432037354, -0.496738076210022, 0.7018068432807922, 0.12736456096172333, -0.4709396958351135, -0.7057125568389893, 1.072954773902893, -0.7215368747711182, 0.3288887143135071, -0.7014362812042236, 0.9531050324440002, 0.4951147139072418, 1.0632967948913574, 0.13123589754104614, -0.8111066222190857, -1.3600308895111084, 0.18150654435157776, -0.5815934538841248, 0.20928755402565002, -0.05177886411547661, -1.2217466831207275, -0.07178764045238495, 1.4010809659957886, -0.4508737325668335, 0.3742614984512329, 0.0908605232834816, -0.14325375854969025, 0.724705696105957, 0.5052803754806519, 0.33391785621643066, 0.6668902635574341, 0.760759174823761, -0.4036997854709625, 0.33768779039382935, -0.7397062182426453, 0.5412487387657166, -0.2641978859901428, 0.5286155343055725], [-0.37817490100860596, 0.09402541071176529, -0.34211742877960205, -0.20020689070224762, -0.015496510080993176, -0.10710365325212479, -0.31351932883262634, 0.3468318581581116, 0.30118581652641296, 0.1211860179901123, 0.2872045636177063, 0.03919380158185959, 0.3750745356082916, 0.31531059741973877, -0.09021474421024323, 0.23084360361099243, -0.14514650404453278, 0.23456130921840668, -0.12350817769765854, -0.29293176531791687, -0.11840476095676422, 0.250046044588089, 0.02235911600291729, -0.2199382185935974, -0.10067995637655258, -0.1002611517906189, 0.0753791406750679, 0.4004581868648529, -0.0026057513896375895, 0.23924893140792847, -0.09902604669332504, -0.02138931304216385, 0.2712101936340332, 0.33090585470199585, -0.5430822372436523, 0.14060112833976746, -0.16839757561683655, -0.0041872793808579445, 0.44195836782455444, -0.3171623945236206, 0.08892420679330826, 0.24705389142036438, 0.5059987306594849, 0.2224326729774475, -0.23775367438793182, -0.05427931994199753, -0.1560094803571701, 0.046099815517663956, -0.18565624952316284, 0.3041820824146271, -0.08575418591499329, 0.15229414403438568, 0.14312729239463806, -0.32098814845085144, 0.029013408347964287, -0.11287406831979752, -0.003029183717444539, -0.05004185810685158, -0.21439741551876068, 0.12084391713142395, -0.24228112399578094, -0.33154380321502686, 0.29743146896362305, 0.2962234914302826, -0.39537662267684937, 0.21073085069656372, -0.055626723915338516, 0.03164544701576233, -0.14177046716213226, 0.07730144262313843, -0.32081103324890137, 0.19661885499954224, 0.07601921260356903, -0.2588079869747162, 0.18470211327075958, 0.018969127908349037, -0.18922443687915802, 0.02342110127210617, 0.1615966558456421, -0.23412874341011047, -0.5370528101921082, 0.23474571108818054, -0.28237617015838623, -0.35001468658447266, 0.23071421682834625, 0.24456118047237396, 0.2719930410385132, -0.17247197031974792, -0.31855863332748413, 0.37824559211730957, 0.1220470741391182, 0.09352538734674454, -0.20653174817562103, -0.03878451883792877, 0.026857316493988037, 0.3359238803386688, 0.16518521308898926, -0.2700203061103821, -0.13409793376922607, -0.05119020864367485, -0.3114628791809082, -0.11741422861814499, -0.23008249700069427, 0.49398016929626465, 0.047049205750226974, -0.2736116647720337, -0.06040157005190849, 0.2167789191007614, -0.32403725385665894, -0.41494622826576233, -0.09560594707727432, -0.12039300799369812, -0.08796294778585434, -0.4017660617828369, 0.23424585163593292, 0.10874788463115692, -0.23096665740013123, 0.11021241545677185, -0.032389529049396515, 0.47835415601730347, -0.35024866461753845, 0.08726154267787933, -0.2851668894290924, -0.3980726897716522, 0.062300603836774826, 0.20425628125667572, 0.20239266753196716, 0.09517797827720642], [-0.06038675457239151, -0.08730963617563248, -0.27881383895874023, -0.19162923097610474, 0.12544986605644226, 0.026179829612374306, 0.24626728892326355, -0.003567612264305353, -0.34096503257751465, 0.2653219699859619, 0.06668911129236221, -0.27575036883354187, -0.0005145412869751453, 0.06812925636768341, -0.13105861842632294, 0.5812205076217651, -0.1622808426618576, -0.06835293024778366, 0.06659294664859772, -0.01179482601583004, -0.09742525219917297, -0.08166840672492981, -0.10679025202989578, -0.019639281556010246, 0.3300953805446625, -0.40379926562309265, -0.22339984774589539, -0.42751118540763855, -0.05119869112968445, 0.14461323618888855, 0.45422667264938354, 0.12584365904331207, -0.23619598150253296, -0.14985822141170502, -0.13423950970172882, -0.0562276616692543, -0.0704169049859047, 0.10913737118244171, -0.4949284791946411, 0.11538221687078476, -0.17920885980129242, 0.11996486037969589, -0.03609712794423103, 0.05485808476805687, -0.3220924735069275, 0.04804549738764763, 0.04062601923942566, 0.039168354123830795, 0.3332664966583252, -0.020851196721196175, -0.15440021455287933, 0.18386691808700562, 0.4666979908943176, 0.21614523231983185, -0.20240378379821777, -0.04285818710923195, -0.24026146531105042, 0.0026288966182619333, -0.04341402277350426, 0.34931042790412903, 0.12578265368938446, 0.5606839656829834, -0.22563372552394867, 0.03381064161658287, -0.07779821753501892, 0.6013445854187012, 0.11418475955724716, -0.0872512087225914, -0.2926830053329468, -0.11796915531158447, -0.03605552017688751, 0.09732808917760849, -0.011339654214680195, -0.024485744535923004, 0.058967892080545425, 0.14407609403133392, -0.08372772485017776, 0.12235987931489944, 0.005487517919391394, -0.4850022792816162, 0.18307235836982727, -0.026704194024205208, 0.012049977667629719, 0.1642037034034729, -0.23640567064285278, -0.16195504367351532, -0.04113707318902016, -0.5112267136573792, 0.4656166732311249, 0.057695548981428146, -0.1610213816165924, -0.24016888439655304, 0.1994192749261856, 0.09284786880016327, 0.16273930668830872, -0.18975253403186798, 0.30404987931251526, -0.03559234365820885, 0.4382762610912323, -0.25354766845703125, 0.2811627686023712, -0.5780023336410522, 0.11688866466283798, -0.2219616174697876, 0.2743769884109497, 0.03179048001766205, 0.04740314930677414, 0.26024532318115234, 0.05894560366868973, -0.2556041479110718, -0.44468408823013306, -0.26582130789756775, 0.11094554513692856, 0.38343533873558044, 0.2169664055109024, -0.1588517129421234, 0.004251348786056042, 0.18255102634429932, 0.17823274433612823, 0.026976369321346283, 0.019784418866038322, 0.08783578127622604, 0.06390687823295593, -0.21479374170303345, -0.16784515976905823, 0.25459399819374084, 0.14595623314380646, -0.023671600967645645], [-0.30604955554008484, -0.2983563244342804, 0.2985822856426239, -0.15168286859989166, 0.23135221004486084, 0.38367578387260437, 0.03804275766015053, 0.0673808678984642, 0.06947395205497742, 0.13036106526851654, -0.04515053704380989, -0.11369749158620834, -0.378582626581192, -0.27012813091278076, 0.3314843475818634, 0.09357624500989914, 0.3471866548061371, 0.058142486959695816, -0.10702632367610931, 0.055658970028162, 0.22747845947742462, -0.03166555240750313, 0.015303279273211956, 0.3441248834133148, -0.013346354477107525, -0.03578701242804527, -0.0009248516289517283, 0.18976695835590363, -0.05534875765442848, 0.0554024912416935, 0.1417674571275711, 0.28964167833328247, -0.23377585411071777, -0.23169812560081482, -0.32703790068626404, -0.21382853388786316, -0.24146665632724762, 0.3242796063423157, 0.2062695175409317, 0.3827655613422394, 0.23210133612155914, 0.2882322072982788, -0.1963501125574112, 0.08325102180242538, -0.10869423300027847, -0.01577419973909855, -0.42311108112335205, -0.10689074546098709, 0.002637866185978055, -0.30955207347869873, 0.03120734915137291, 0.183149054646492, -0.23576653003692627, 0.18282826244831085, 0.12520262598991394, 0.0571289137005806, 0.14799505472183228, 0.24897557497024536, -0.10230037569999695, 0.041143860667943954, -0.19021090865135193, 0.10490831732749939, -0.19964700937271118, -0.25804683566093445, -0.22415965795516968, 0.2428981214761734, -0.06261324137449265, 0.042602743953466415, 0.20374228060245514, 0.031847015023231506, -0.04876922070980072, -0.1598661243915558, 0.13843083381652832, -0.06968361884355545, 0.3600335717201233, -0.14850333333015442, -0.01864970289170742, -0.002631078939884901, 0.02514032833278179, -0.06826478987932205, -0.21724630892276764, -0.021288780495524406, -0.03166065365076065, 0.3557182550430298, 0.017553571611642838, -0.3291435241699219, -0.1377250701189041, 0.02398977242410183, -0.22657008469104767, 0.1291850507259369, -0.0969696119427681, 0.01957676373422146, 0.0021556420251727104, -0.21591664850711823, -0.28834742307662964, -0.39332449436187744, -0.32678741216659546, 0.047231096774339676, -0.04451523721218109, -0.08287899941205978, 0.15890511870384216, 0.14911898970603943, 0.12906159460544586, -0.019055096432566643, 0.3351110816001892, -0.03719506040215492, -0.17174585163593292, -0.30068060755729675, -0.18078304827213287, 0.11027452349662781, -0.3398676812648773, -0.17457370460033417, -0.18529130518436432, 0.012063096277415752, -0.24674642086029053, -0.4012678265571594, 0.2763035297393799, 0.11409924924373627, -0.059180062264204025, -0.17612364888191223, 0.173648402094841, -0.07285505533218384, 0.028586702421307564, -0.39946895837783813, -0.1529158651828766, -0.1407838761806488, -0.16999493539333344, 0.1066824346780777], [-0.5137795209884644, 0.02642739564180374, -0.24154815077781677, -0.007850207388401031, -0.18403968214988708, -0.10364378243684769, -0.04612896963953972, -0.30326297879219055, 0.5181494951248169, -0.07093814015388489, -0.18966011703014374, 0.008676295168697834, -0.20531964302062988, 0.13859030604362488, 0.32360026240348816, -0.4040718972682953, -0.506863534450531, -0.20483604073524475, -0.365282267332077, -0.30066126585006714, 0.20749495923519135, -0.38075757026672363, 0.09709319472312927, -0.03428112715482712, -0.07717883586883545, -0.2469194531440735, 0.23105087876319885, 0.17991718649864197, -0.4011773467063904, -0.4565713107585907, -0.528650164604187, -0.04504955932497978, -0.11098818480968475, -0.3947773575782776, 0.12166491150856018, 0.1849619597196579, 0.29138535261154175, -0.4515559673309326, 0.13350553810596466, 0.4431726932525635, 0.03501623496413231, -0.22672246396541595, 0.1056533232331276, 0.1196262538433075, 0.26079627871513367, -0.49163249135017395, 0.38158437609672546, 0.29072532057762146, 0.03431899845600128, 0.024342402815818787, -0.016288669779896736, 0.29961568117141724, -0.06719054281711578, -0.17665095627307892, -0.21254469454288483, 0.06387205421924591, 0.48144108057022095, -0.10665340721607208, -0.13567973673343658, -0.18901599943637848, -0.41978752613067627, -0.23987482488155365, -0.32131409645080566, -0.023875705897808075, -0.23443350195884705, 0.011081996373832226, -0.3279463052749634, -0.2565983235836029, -0.09816456586122513, -0.22366173565387726, -0.3457575738430023, -0.2432551085948944, 0.12824958562850952, 0.02467201091349125, -0.02079191245138645, 0.14349928498268127, 0.400884747505188, -0.4736282527446747, 0.07270490378141403, 0.31521961092948914, 0.3881409764289856, -0.013761063106358051, -0.14981284737586975, 0.07312796264886856, -0.17332077026367188, -0.21473319828510284, 0.02152983844280243, -0.2757202088832855, 0.2457151561975479, -0.3406924903392792, 0.4747726023197174, 0.18250718712806702, 0.4159875214099884, -0.16353058815002441, -0.4598669707775116, -0.2327355593442917, 0.2785559892654419, 0.17314596474170685, 0.01829632930457592, -0.4056018590927124, -0.16538594663143158, 0.23838254809379578, 0.29817119240760803, 0.1532372236251831, 0.15664778649806976, 0.13500310480594635, 0.2543080747127533, 0.39148253202438354, -0.4775025248527527, 0.2989545166492462, 0.08030268549919128, -0.06811616569757462, -0.10031967610120773, 0.5009825825691223, 0.1722947210073471, -0.05930863320827484, 0.14430658519268036, 0.14888599514961243, -0.005833510309457779, 0.3554717004299164, 0.26144763827323914, 0.1362304985523224, 0.7196093201637268, 0.1545761227607727, 0.341902494430542, -0.35804831981658936, -0.36508986353874207, -0.33760866522789], [0.15041594207286835, -0.03227683901786804, 0.45243382453918457, 0.2679811418056488, -0.01862865686416626, 0.15950599312782288, -0.04636804386973381, -0.05532247945666313, -0.303046852350235, 0.12457099556922913, 0.2955513000488281, -0.17063666880130768, -0.37569984793663025, 0.07575812935829163, 0.012074102647602558, 0.01401421520859003, 0.4835120141506195, 0.0004506382974795997, 0.1511099487543106, 0.10703717172145844, 0.05090872198343277, 0.16859981417655945, 0.213301420211792, -0.279854953289032, 0.007483500521630049, 0.12379533052444458, -0.18932653963565826, 0.6067730784416199, -0.19049997627735138, 0.17314371466636658, -0.16023319959640503, 0.320591002702713, 0.38610848784446716, -0.34627342224121094, 0.2825078070163727, -0.1269800066947937, -0.09329211711883545, 0.030344616621732712, 0.2056703120470047, 0.013689683750271797, -0.2276606559753418, -0.22841669619083405, 0.197177916765213, 0.2951236963272095, -0.021421220153570175, -0.19872687757015228, -0.3008953034877777, 0.11231721937656403, 0.05906309559941292, 0.1682223528623581, -0.33236467838287354, 0.16817273199558258, 0.21525052189826965, -0.032229479402303696, 0.12430723011493683, 0.3467656672000885, 0.34571048617362976, -0.2288718968629837, -0.23678310215473175, 0.012403656728565693, 0.14749984443187714, 0.34967589378356934, -0.30727046728134155, -0.1328461766242981, -0.015685968101024628, -0.023080019280314445, -0.1253172904253006, 0.09800542145967484, -0.13700206577777863, -0.4380398094654083, -0.4398030936717987, -0.2510945200920105, 0.06705023348331451, 0.014833458699285984, 0.39877474308013916, 0.06811641156673431, -0.15788385272026062, 0.2856726050376892, -0.0710141733288765, -0.18949465453624725, -0.41188952326774597, -0.12503139674663544, 0.27106308937072754, 0.003960471600294113, -0.3245786726474762, 0.006671817507594824, 0.25947752594947815, 0.3505033552646637, -0.29053813219070435, -0.07933878153562546, -0.3447321653366089, 0.4011246860027313, -0.2003527283668518, -0.3741980195045471, 0.029510704800486565, 0.11566851288080215, 0.23323732614517212, -0.009834072552621365, 0.03979752957820892, -0.21573123335838318, -0.08859825879335403, 0.21453572809696198, -0.18173445761203766, 0.024391956627368927, 0.4440610110759735, 0.3496165871620178, 0.02862299419939518, 0.14630062878131866, 0.2208164483308792, -0.11742809414863586, -0.4981675446033478, -0.12266577780246735, -0.08478915691375732, -0.3861442506313324, 0.3806006610393524, -0.1795586496591568, -0.06501069664955139, -0.45040225982666016, -0.05806027725338936, -0.11374690383672714, -0.24561753869056702, -0.0785539522767067, -0.10879205167293549, 0.06668297946453094, 0.1875280886888504, 0.3163105845451355, -0.027549242600798607, 0.2379591464996338], [0.2114214450120926, -0.05008845403790474, 0.4102308750152588, -0.15634684264659882, 0.0988612025976181, -0.17984546720981598, -0.17649716138839722, -0.18261834979057312, -0.13324134051799774, 0.19820821285247803, -0.3991004228591919, 0.036855291575193405, 0.04741314798593521, 0.16385388374328613, -0.34346821904182434, 0.2545540928840637, 0.13828438520431519, -0.2899472713470459, 0.030547475442290306, 0.22619672119617462, -0.0245759766548872, -0.22834400832653046, 0.25412416458129883, 0.017881739884614944, -0.26320645213127136, -0.09753420948982239, -0.2850947082042694, 0.08272752165794373, -0.043346013873815536, 0.23068279027938843, -0.11872880160808563, 0.0316256582736969, -0.2475927472114563, 0.008649923838675022, -0.09568227827548981, -0.009265490807592869, 0.2596280872821808, -0.40478795766830444, -0.10190805792808533, 0.24762673676013947, -0.09924719482660294, -0.24867460131645203, 0.09423106163740158, 0.051578547805547714, 0.16855892539024353, -0.15891456604003906, -0.5608049035072327, -0.025277022272348404, 0.32409369945526123, 0.014224853366613388, 0.15690897405147552, 0.06352172046899796, 0.11816444247961044, -0.15882046520709991, -0.11519778519868851, 0.16797509789466858, -0.3854599595069885, -0.0288538821041584, -0.29785582423210144, -0.07257836312055588, -0.01299493107944727, 0.27162984013557434, 0.13115310668945312, -0.35053765773773193, -0.0452178455889225, -0.18139305710792542, -0.2582775950431824, -0.11084356158971786, 0.20311956107616425, -0.3713618814945221, 0.28284788131713867, -0.31123676896095276, 0.050707437098026276, -0.32803013920783997, -0.14546209573745728, 0.27450424432754517, 0.02532361075282097, -0.10516644269227982, 0.17076577246189117, 0.10951567441225052, 0.03921983763575554, -0.21505886316299438, 0.03152818605303764, 0.07573956251144409, 0.00045995658729225397, -0.2536417543888092, -0.4587418735027313, -0.09593972563743591, 0.164139986038208, -0.0663248598575592, -0.2759382128715515, 0.23236016929149628, 0.46138978004455566, -0.15962250530719757, -0.021192483603954315, 0.04122897982597351, -0.4241175949573517, 0.20358452200889587, 0.1188221350312233, 0.013852651230990887, -0.01939520426094532, 0.332489937543869, 0.36688798666000366, 0.12909533083438873, 0.0754210501909256, 0.23251575231552124, -0.1435885727405548, 0.2339167594909668, -0.22281643748283386, -0.16220442950725555, -0.21467936038970947, 0.010945357382297516, -0.14940521121025085, -0.09952820837497711, -0.09005682170391083, 0.0971059650182724, 0.047184448689222336, -0.32913315296173096, 0.3095957636833191, -0.22447828948497772, -0.06787017732858658, -0.07963739335536957, 0.16779519617557526, 0.2069615125656128, -0.21482111513614655, -0.04804157465696335, 0.18871672451496124, 0.017773395404219627], [-0.4296576976776123, 0.006637623533606529, 0.15083220601081848, -0.14303550124168396, 0.02672756277024746, 0.03236425668001175, 0.4252737760543823, -0.026755524799227715, -0.10330451279878616, 0.1873159557580948, 0.2962897717952728, 0.12794657051563263, -0.03344722464680672, -0.42508116364479065, -0.11032478511333466, -0.03780890628695488, -0.4156586527824402, -0.07410795241594315, 0.1970197707414627, 0.16467560827732086, 0.15843915939331055, -0.5091553330421448, 0.3936624825000763, 0.09800886362791061, 0.21894121170043945, -0.3954777121543884, 0.21734538674354553, -0.3125625252723694, 0.3214012086391449, 0.12333808094263077, 0.37797871232032776, -0.05464529991149902, 0.3857768476009369, -0.19153836369514465, -0.24291399121284485, -0.03793960437178612, 0.10812941938638687, 0.23727212846279144, -0.14883224666118622, 0.41258829832077026, 0.07900533080101013, -0.27109643816947937, -0.30476635694503784, -0.1080237403512001, 0.0836709514260292, -0.09931480139493942, 0.23680564761161804, 0.07790221273899078, -0.11533143371343613, 0.0782252699136734, -0.1615932732820511, -0.2609030306339264, -0.35909557342529297, -0.03838345408439636, 0.05182249844074249, 0.10743598639965057, -0.131082221865654, -0.2578428089618683, -0.3767094314098358, 0.06490675359964371, -0.1642170399427414, 0.0873304083943367, 0.4696260094642639, 0.19418048858642578, 0.3940437436103821, -0.1386280506849289, -0.06300130486488342, -0.07005541771650314, -0.2747825086116791, -0.09635025262832642, -0.012672112323343754, -0.22846662998199463, -0.16498461365699768, 0.5594167709350586, -0.01808210089802742, 0.22180430591106415, 0.25580060482025146, -0.08856823295354843, 0.18896128237247467, 0.02729700319468975, -0.11299367994070053, 0.10911662876605988, 0.34297192096710205, 0.03789348900318146, -0.005146695300936699, -0.10750849545001984, -0.46832871437072754, -0.33645376563072205, -0.15676413476467133, 0.15295322239398956, -0.13670459389686584, -0.30278024077415466, 0.26376646757125854, -0.20650367438793182, 0.11467265337705612, -0.41599389910697937, -0.25337865948677063, -0.5630574822425842, 0.10423173010349274, -0.548365592956543, 0.18555188179016113, 0.14590929448604584, -0.3060477077960968, 0.014144078828394413, -0.06006971374154091, -0.3304406404495239, 0.07628410309553146, 0.12688976526260376, 0.2556622326374054, -0.5023140907287598, 0.5112190246582031, 0.03387962281703949, 0.04240679740905762, -0.32042109966278076, 0.21208462119102478, -0.08762882649898529, 0.03573006018996239, -0.23432418704032898, -0.13527756929397583, 0.15359513461589813, 0.19213038682937622, -0.12854328751564026, -0.3678913414478302, 0.003245352301746607, -0.35237839818000793, 0.35594403743743896, 0.06150762364268303, -0.1972690373659134], [0.29605209827423096, -0.12805034220218658, 0.11989423632621765, -0.27904826402664185, 0.04833250865340233, -0.27705496549606323, 0.13743525743484497, -0.13019265234470367, 0.011229783296585083, 0.136623814702034, 0.3002375364303589, 0.01269314344972372, 0.039750345051288605, 0.22978702187538147, -0.14777059853076935, 0.17463859915733337, -0.10288889706134796, -0.32134345173835754, 0.20841515064239502, 0.08773357421159744, -0.031227126717567444, 0.3805457055568695, -0.05847250297665596, 0.2800891697406769, 0.2865467071533203, 0.3140656352043152, 0.01888166554272175, -0.28014707565307617, 0.2967398166656494, 0.05898808315396309, -0.17375130951404572, 0.006789655890315771, -0.21620310842990875, -0.23871935904026031, 0.47078201174736023, 0.2601718008518219, -0.1453986018896103, 0.4551435112953186, -0.19930358231067657, 0.25430333614349365, 0.30012670159339905, -0.5141540169715881, -0.6676172018051147, -7.335458212764934e-05, -0.3825465142726898, 0.05037929117679596, -0.12364117056131363, -0.4687676429748535, -0.02562584914267063, 0.06992247700691223, 0.11047447472810745, -0.1587296575307846, 0.2232387810945511, -0.4205573797225952, -0.11738505959510803, 0.6704198122024536, -0.006858044769614935, -0.06604495644569397, 0.12679027020931244, 0.3874768316745758, -0.1439642459154129, 0.0420791432261467, -0.4458051919937134, -0.37534964084625244, -0.14605681598186493, 0.20964746177196503, -0.2411843091249466, -0.08658868819475174, -0.008382334373891354, -0.2987125813961029, 0.13549593091011047, -0.291469931602478, 0.14641445875167847, -0.588929295539856, 0.004925413988530636, -0.11734029650688171, -0.05255606397986412, -0.24618671834468842, -0.11845061182975769, -0.07861743867397308, 0.15472446382045746, 0.03415515646338463, 0.052255675196647644, -0.13852927088737488, -0.1937493532896042, 0.3887999951839447, -0.1953580230474472, -0.08458594232797623, -0.29252347350120544, -0.6102695465087891, 0.377763956785202, -0.17793609201908112, 0.16975001990795135, -0.32596734166145325, 0.0371677540242672, -0.24368925392627716, -0.07879656553268433, -0.4538181722164154, -0.1582907736301422, -0.12246272712945938, 0.32741788029670715, 0.1304100900888443, 0.07994785904884338, -0.1277334839105606, 0.24335700273513794, 0.39222586154937744, -0.07382170855998993, 0.2223520129919052, 0.0590173564851284, -0.10568797588348389, -0.25097259879112244, 0.25647011399269104, -0.22252798080444336, 0.2500464618206024, -0.06218981370329857, 0.4296007454395294, -0.10840323567390442, 0.21126364171504974, 0.5339471101760864, 0.2610643804073334, 0.03674442321062088, -0.18628337979316711, -0.04167007654905319, -0.34737443923950195, 0.1464872807264328, 0.3494964838027954, -0.05684814602136612, 0.36617833375930786], [0.01566692441701889, 0.029199328273534775, 0.31804192066192627, 0.2790200710296631, -0.0251544788479805, -0.1050126776099205, -0.18694236874580383, 0.03681924566626549, -0.45970863103866577, -0.4311617314815521, 0.01818057894706726, -0.05500854179263115, -0.06009514257311821, -0.3221248984336853, -0.3597835302352905, -0.29194995760917664, -0.03309493139386177, 0.05529831349849701, -0.03476323187351227, 0.0824722945690155, -0.4159347414970398, -0.10638082027435303, 0.0010985593544319272, -0.07334326952695847, -0.4269261956214905, 0.05474058538675308, -0.19474317133426666, -0.35300663113594055, 0.23297981917858124, 0.21025167405605316, 0.41106241941452026, 0.5960548520088196, 0.29804930090904236, 0.34614086151123047, 0.043720684945583344, 0.21248628199100494, 0.25491863489151, -0.14415085315704346, -0.11107150465250015, -0.027547523379325867, -0.33100512623786926, -0.29297730326652527, -0.21540920436382294, 0.178166925907135, -0.036261480301618576, 0.39661046862602234, 0.3008769452571869, -0.317023903131485, 0.10350149124860764, -0.31289786100387573, -0.01626526191830635, -0.5419097542762756, 0.03451501205563545, -0.0643010139465332, -0.07607264071702957, -0.12449988722801208, 0.3518493175506592, -0.06354377418756485, 0.06495331227779388, 0.26498743891716003, 0.17412005364894867, -0.031052561476826668, -0.1514943540096283, 0.04058823361992836, -0.11667731404304504, 0.04263066127896309, -0.12878228724002838, 0.08923634141683578, 0.24944961071014404, 0.3040558397769928, 0.19109581410884857, -0.1684425175189972, 0.18497884273529053, -0.28433361649513245, -0.3662734031677246, -0.1744278222322464, -0.08862605690956116, -0.3614286780357361, -0.24998176097869873, -0.23061077296733856, -0.3593597114086151, -0.13258406519889832, -0.2893616557121277, -0.021282270550727844, 0.08990096300840378, 0.12241362780332565, -0.37920913100242615, -0.25355541706085205, -0.2072763890028, -0.09553036093711853, -0.2155587524175644, 0.21041542291641235, -0.3424950838088989, 0.3161236345767975, 0.1602609008550644, -0.3371490240097046, 0.23979979753494263, -0.41872331500053406, 0.05812302231788635, 0.44434720277786255, 0.4429456293582916, -0.4081074297428131, 0.12040413916110992, 0.11853079497814178, 0.5499780178070068, 0.060935378074645996, -0.08415301889181137, -0.1420140266418457, -0.2367931753396988, -0.34953993558883667, 0.06412812322378159, 0.284472793340683, -0.40967342257499695, 0.10580071806907654, -0.12049666047096252, 0.48642951250076294, -0.06153203547000885, 0.1379338949918747, -0.04356827586889267, 0.31937435269355774, -0.3938947021961212, 0.197587251663208, 0.01173876691609621, 0.09444597363471985, 0.19001734256744385, 0.2780460715293884, 0.20867955684661865, 0.1386762112379074], [0.13024736940860748, -0.27518343925476074, -0.1819022297859192, -0.1740901619195938, 0.19423776865005493, -0.10691404342651367, 0.07304466515779495, 0.2687399089336395, 0.0005590054206550121, -0.16083534061908722, -0.4003490209579468, 0.36613819003105164, 0.20854394137859344, 0.10575233399868011, 0.0864320620894432, 0.2693761885166168, 0.08085890859365463, -0.002101738704368472, 0.07938527315855026, -0.21717794239521027, 0.14457763731479645, 0.06390067934989929, 0.0857129618525505, -0.15985220670700073, -0.39500075578689575, -0.0487365797162056, -0.3233197033405304, 0.24116885662078857, 0.437265545129776, -0.2536281943321228, -0.03944769501686096, -0.393386572599411, -0.024152247235178947, 0.388728529214859, 0.3151741623878479, -0.03969227895140648, -0.5407525897026062, 0.2568376958370209, -0.182576522231102, -0.14692451059818268, -0.32272234559059143, 0.38271364569664, 0.2208617478609085, 0.28831946849823, -0.17820388078689575, -0.32607409358024597, -0.026494763791561127, 0.23466607928276062, -0.12308160215616226, 0.15883225202560425, 0.13990665972232819, 0.151601642370224, 0.12152060121297836, 0.04545920342206955, -0.08965260535478592, -0.06450583040714264, -0.14153622090816498, 0.07937511056661606, 0.0797150656580925, -0.115011066198349, -0.28940442204475403, 0.24584989249706268, -0.33141380548477173, 0.43608182668685913, 0.10334987938404083, -0.04593011364340782, -0.3388230502605438, 0.3020145297050476, 0.35855308175086975, 0.2325953096151352, -0.04351772367954254, -0.14885738492012024, 0.2688734233379364, -0.16795805096626282, 0.3704623281955719, -0.1076819971203804, 0.22571590542793274, 0.09123492240905762, -0.16808603703975677, -0.43958598375320435, -0.10550705343484879, 0.09843991696834564, -0.4229675233364105, -0.08557861298322678, 0.3628506362438202, -0.2897632122039795, -0.23079082369804382, 0.03439321368932724, 0.3376750648021698, -0.115416020154953, -0.29101574420928955, 0.025173984467983246, -0.4655781388282776, 0.1970946490764618, -0.1572248786687851, -0.26814764738082886, 0.22557078301906586, 0.3444145619869232, -0.09077628701925278, 0.2478248029947281, -0.1410214751958847, -0.17676693201065063, 0.26241645216941833, 0.21594803035259247, 0.30036765336990356, 0.44168180227279663, 0.319754958152771, -0.18851184844970703, 0.0033579168375581503, 0.4436309039592743, -0.4211387038230896, -0.07676679641008377, 0.30703505873680115, -0.16236811876296997, -0.0037727924063801765, 0.1698138266801834, -0.4453098177909851, -0.0013818416045978665, -0.020609144121408463, 0.17866693437099457, -0.4933745265007019, 0.06639083474874496, -0.3681744337081909, 0.13000231981277466, -0.1759825050830841, -0.07132551819086075, 0.4061790704727173, 0.028948424383997917], [-0.4618960916996002, 0.021902481094002724, 0.24039554595947266, -0.3698827624320984, 0.164297953248024, -0.184798464179039, 0.12703444063663483, -0.16036352515220642, -0.2285929024219513, -0.27779117226600647, -0.12266284972429276, -0.0788176953792572, -0.08889772742986679, 0.022837912663817406, -0.08607634902000427, 0.0067895581014454365, -0.20534692704677582, -0.2745628356933594, -0.0920562669634819, -0.11706961691379547, 0.0536700002849102, 0.0902884230017662, 0.5398671627044678, 0.07842772454023361, 0.11583869904279709, -0.003261503065004945, -0.2620561420917511, 0.18456260859966278, -0.18685130774974823, 0.16580575704574585, 0.2244795709848404, -0.08264430612325668, 0.32732075452804565, -0.44528672099113464, -0.12147253006696701, -0.10251889377832413, -0.07671968638896942, -0.1604095697402954, -0.16432414948940277, -0.12756824493408203, -0.019281109794974327, 0.3527945578098297, -0.492055743932724, 0.07414811104536057, -0.5199378132820129, -0.522320032119751, 0.12270013988018036, -0.010914103128015995, -0.2345820516347885, 0.26191604137420654, 0.22356562316417694, -0.016904909163713455, -0.1255463808774948, -0.12503913044929504, -0.1026918962597847, 0.13639503717422485, -0.2501337230205536, -0.08540645986795425, 0.5849887132644653, -0.24552209675312042, -0.1860107183456421, -0.32168713212013245, 0.04397007077932358, -0.09640368074178696, 0.14209860563278198, -0.16270436346530914, -0.2616950273513794, 0.2563800513744354, 0.032706547528505325, 0.046786628663539886, 0.2567530572414398, 0.06950931251049042, -0.10111008584499359, 0.08762884885072708, -0.110602967441082, -0.16798986494541168, 0.025314021855592728, 0.15690279006958008, -0.13301394879817963, -0.37463411688804626, -0.326867014169693, 0.11432217806577682, -0.15842022001743317, 0.007322362624108791, 0.020460277795791626, 0.04089688882231712, -0.32968074083328247, 0.1674581915140152, -0.1709161400794983, 0.13886016607284546, -0.21711337566375732, 0.44342735409736633, 0.24064020812511444, -0.1478811800479889, 0.06696412712335587, -0.24273747205734253, 0.20501627027988434, -0.28178396821022034, 0.09418332576751709, -0.20645874738693237, 0.27236607670783997, -0.05259615555405617, -0.0030455738306045532, 0.004770779982209206, -0.008773786947131157, -0.3655620217323303, 0.048428937792778015, 0.14530350267887115, 0.07066408544778824, 0.20038551092147827, 0.27638867497444153, -0.392543226480484, 0.1545751839876175, 0.41851696372032166, 0.36941999197006226, 0.08620597422122955, 0.5699999928474426, -0.10976491868495941, 0.2469409704208374, 0.06414240598678589, 0.1184392124414444, -0.1194225400686264, -0.4165726900100708, -0.279512494802475, 0.13427448272705078, 0.00779808359220624, 0.038848184049129486, -0.07573641836643219], [-0.15165968239307404, 0.027578428387641907, 0.009329501539468765, -0.29713770747184753, -0.13668154180049896, -0.19731976091861725, -0.17712201178073883, -0.0968221127986908, -0.11723870784044266, -0.6288222074508667, 0.17663860321044922, 0.022969713434576988, 0.20547877252101898, 0.4285278916358948, 0.03673383221030235, -0.3342503011226654, 0.6005373597145081, -0.19229756295681, 0.20944420993328094, -0.06867006421089172, -0.14522181451320648, 0.07132652401924133, -0.2146005779504776, -0.32367995381355286, -0.03127911314368248, -0.2532244920730591, -0.3197355568408966, 0.28250598907470703, 0.17241834104061127, 0.2740303575992584, 0.10681261867284775, 0.248862624168396, 0.14426365494728088, -0.08331996947526932, 0.37095722556114197, 0.11086048185825348, 0.02556430920958519, -0.5055672526359558, 0.36267414689064026, -0.2053145170211792, -0.2949593961238861, -0.26897385716438293, -0.2036447674036026, 0.1010563001036644, 0.1961398720741272, 0.28485241532325745, 0.1305447220802307, 0.011345519684255123, 0.17154519259929657, -0.20250734686851501, -0.12257225066423416, -0.5687294602394104, -0.4211790859699249, -0.1346396505832672, -0.053124915808439255, -0.17773011326789856, -0.20679737627506256, 0.25671347975730896, 0.10645513236522675, -0.10251999646425247, -0.14176206290721893, -0.19423004984855652, -0.10582904517650604, -0.09534057229757309, -0.09309283643960953, 0.1392064094543457, -0.2952454388141632, -0.42270758748054504, 0.051916323602199554, -0.02077447809278965, 0.576595664024353, -0.2804505527019501, -0.08423792570829391, 0.0448685847222805, -0.5286549925804138, -0.03870018944144249, 0.18714730441570282, 0.09339920431375504, 0.10504873096942902, -0.056696370244026184, 0.25498610734939575, 0.1130831390619278, -0.7640558481216431, -0.1337035596370697, 0.06860312819480896, -0.12924490869045258, -0.38366109132766724, -0.0026990631595253944, 0.08901772648096085, -0.4332520663738251, 0.16708697378635406, -0.06500845402479172, -0.2467644363641739, -0.31489455699920654, 0.03840529918670654, -0.20869936048984528, 0.38530826568603516, 0.08031513541936874, -0.22691427171230316, -0.14163149893283844, 0.3660791218280792, -0.3708316683769226, 0.07059220224618912, 0.08255635201931, -0.07343455404043198, 0.2547793388366699, -0.08962171524763107, -0.4320943355560303, 0.23825287818908691, 0.25924423336982727, -0.28695547580718994, 0.2803589701652527, -0.14029712975025177, 0.5143235325813293, 0.25518959760665894, 0.2249525636434555, 0.14251768589019775, -0.1596693992614746, -0.20241163671016693, 0.3197731673717499, -0.3844901919364929, -0.08976989984512329, 0.6451185345649719, -0.27209603786468506, -0.17415517568588257, -0.20983785390853882, 0.23837117850780487, -0.16094717383384705], [0.0014259659219533205, 0.004156650509685278, -0.12422053515911102, -0.07542788237333298, -0.01912427321076393, 0.02845926210284233, 0.08769429475069046, 0.05031771585345268, 0.1124672219157219, -0.03772279992699623, -0.0735829547047615, -0.09387612342834473, 0.15327534079551697, 0.051814958453178406, 0.105565644800663, -0.05219203233718872, -0.15505677461624146, -0.0005965320742689073, -0.13496549427509308, 0.06086133420467377, -0.03216530755162239, 0.07515134662389755, 0.004232525825500488, 0.04254971444606781, 0.0998855009675026, 0.05147973448038101, 0.02211156114935875, -0.061333999037742615, -0.12108073383569717, -0.07435864955186844, 0.07581432908773422, 0.07552006840705872, -0.0012991478433832526, -0.016779093071818352, 0.0031105594243854284, -0.042023397982120514, -0.08397326618432999, 0.044839195907115936, 0.1410592496395111, 0.0006455792463384569, 0.058381613343954086, 0.030838938429951668, 0.05650770664215088, -0.10728053003549576, -0.04618833214044571, -0.02921309508383274, 0.028270773589611053, 0.07144008576869965, 0.037076037377119064, 0.019677860662341118, 0.03320552781224251, -0.07976651191711426, -0.023520058020949364, -0.06094832345843315, 0.08088530600070953, -0.1878076046705246, -0.012839065864682198, 0.16790832579135895, -0.08957085013389587, -0.09749285131692886, 0.1971539705991745, -0.01315005961805582, -0.14378896355628967, 0.1530865579843521, -0.056141406297683716, -0.05253811553120613, -0.018222525715827942, -0.007540350779891014, -0.0167984738945961, 0.1954958587884903, -0.10376685857772827, -0.028140636160969734, -0.012127614580094814, 0.06523441523313522, 0.006875494495034218, 0.07772617042064667, 0.03375891596078873, -0.022450130432844162, -0.02062690258026123, 0.19951289892196655, 0.06192055717110634, 0.055684976279735565, -0.06950066238641739, -0.11807625740766525, -0.048749733716249466, 0.05896695330739021, 0.14788727462291718, -0.052023421972990036, -0.033326782286167145, 0.06339246034622192, 0.1104857474565506, -0.006902156863361597, -0.08714740723371506, -0.015687137842178345, 0.1282237023115158, -0.0066078887321054935, -0.016042757779359818, -0.1515185534954071, -0.03046736866235733, 0.0912218764424324, -0.005539019592106342, 0.11863842606544495, 0.021677007898688316, -0.012431539595127106, -0.0708305835723877, -0.007927581667900085, -0.0042070746421813965, 0.20019380748271942, -0.12697389721870422, -0.16742049157619476, 0.12104414403438568, -0.09551835805177689, 0.27240997552871704, -0.027533311396837234, -0.004166003316640854, 0.03630612790584564, 0.01792464591562748, 0.05542972311377525, -0.01695954240858555, -0.16114100813865662, -0.051344722509384155, 0.07374972850084305, -0.040830887854099274, 0.05091439187526703, 0.13484995067119598, -0.026289574801921844, -0.07140470296144485, -0.029461370781064034], [-0.027248328551650047, 0.09162943065166473, 0.1303197592496872, 0.03694123402237892, 0.12620367109775543, -0.04711804538965225, 0.008004982955753803, -0.03537248820066452, -0.2063416987657547, 0.008235556073486805, -0.13801293075084686, -0.0792030319571495, 0.019010642543435097, -0.15357710421085358, -0.031274277716875076, 0.1155344545841217, -0.12260162085294724, 0.05706821009516716, -0.14590346813201904, 0.01608487032353878, 0.026398494839668274, -0.07757323235273361, 0.093599833548069, -0.08433238416910172, -0.11194349825382233, 0.1450428068637848, -0.02809431031346321, 0.0691041648387909, -0.09287454187870026, 0.061966098845005035, 0.1857784241437912, 0.10218396782875061, 0.15454962849617004, 0.12334565818309784, 0.059572186321020126, 0.044982533901929855, 0.14220011234283447, -0.012184751220047474, -0.198891744017601, 0.024186890572309494, 0.10009703040122986, -0.1663111001253128, 0.05022171139717102, 0.08078020066022873, 0.15598419308662415, -0.14258651435375214, 0.0436992421746254, 0.025966644287109375, 0.013213486410677433, -0.05581885576248169, -0.04430634528398514, -0.22191914916038513, -0.13170857727527618, 0.030399713665246964, 0.04661097750067711, 0.17654304206371307, 0.13080599904060364, -0.035592034459114075, 0.004531982820481062, 0.11146405339241028, 0.03435608372092247, 0.03270149603486061, -0.16132250428199768, 0.11727616935968399, 0.02858291007578373, 0.03540678694844246, -0.019184619188308716, 0.10498102754354477, -0.03940701484680176, 0.08735349774360657, 0.0629112720489502, -0.033378876745700836, -0.024583887308835983, -0.1842321902513504, 0.037380293011665344, 0.004498007241636515, -0.12957414984703064, 0.06189430505037308, -0.21506823599338531, -0.04945432394742966, 0.09373774379491806, -0.05991610512137413, 0.10678407549858093, -0.08841618150472641, 0.05869708210229874, 0.030926987528800964, -0.04770985245704651, 0.0059699504636228085, 0.05490065738558769, -0.006443995051085949, -0.07820599526166916, 0.15212202072143555, -0.03253018483519554, 0.17937728762626648, -0.11459290981292725, 0.0881190225481987, 0.029154544696211815, -0.07425568997859955, -0.012551385909318924, 0.030376886948943138, 0.1836174875497818, 0.010121853090822697, -0.039245497435331345, 0.05678674578666687, 0.007372927386313677, 0.046789076179265976, 0.09577026963233948, 0.19733861088752747, 0.007538244593888521, -0.07992968708276749, 0.07428469508886337, 0.04566868767142296, 0.10094892233610153, -0.005207227077335119, -0.07041499763727188, 0.04659394919872284, -0.09634746611118317, -0.05521156266331673, 0.058669768273830414, -0.02110261283814907, 0.0942947119474411, 0.03219404071569443, -0.021288981661200523, 0.010315202176570892, -0.01884695328772068, 0.01042964868247509, 0.06489460170269012, -0.031954575330019], [0.09386814385652542, -0.06155883148312569, -0.053697507828474045, 0.023450663313269615, 0.174336239695549, 0.0035189474001526833, 0.10527234524488449, -0.010198012925684452, -0.06625691801309586, 0.10142424702644348, 0.1148572638630867, -0.015481875278055668, -0.05648821219801903, 0.01557900756597519, -0.09495390951633453, -0.06207190454006195, 0.0826214849948883, 0.01600375398993492, -0.14489714801311493, -0.2176705002784729, 0.1820923537015915, -0.021486248821020126, 0.020380424335598946, 0.06718067824840546, 0.12404431402683258, -0.02597828023135662, 0.18052247166633606, 0.08627987653017044, 0.09490209072828293, -0.10198968648910522, 0.08183224499225616, -0.11298326402902603, -0.055074963718652725, -0.179923415184021, -0.002026925329118967, 0.16173696517944336, -0.0455220527946949, -0.1528538167476654, -0.05370679125189781, 0.02166011370718479, 0.17958833277225494, 0.17029787600040436, -0.12689264118671417, 0.02478157728910446, 0.166011244058609, -0.1781855821609497, 0.07942357659339905, -0.20444901287555695, -0.23505665361881256, -0.12736646831035614, 0.09160278737545013, 0.08034831285476685, 0.13483315706253052, -0.0715111568570137, -0.005837347824126482, -0.0331464558839798, -0.10081727802753448, 0.11370132863521576, -0.0162538830190897, 0.02636060304939747, -0.28048622608184814, -0.1884472519159317, 0.11558793485164642, -0.08574748784303665, 0.112345390021801, -0.042099930346012115, -0.03699116408824921, -0.1553439199924469, 0.20398680865764618, -0.0637257918715477, 0.02963615395128727, -0.09483876079320908, 0.17821036279201508, -0.0642777755856514, 0.021607166156172752, 0.0046985396184027195, -0.002185616409406066, -0.13088244199752808, -0.03271534666419029, 0.18408870697021484, 0.042388129979372025, 0.10776268690824509, -0.03189544752240181, 0.05877529829740524, 0.05776377394795418, -0.00368219381198287, -0.14086630940437317, -0.010991260409355164, 0.018528133630752563, -0.13922227919101715, -0.013772093690931797, 0.022600475698709488, -0.21046456694602966, -0.09044073522090912, 0.0066889445297420025, -0.19497932493686676, 0.04499255493283272, -0.04784839227795601, -0.11445493996143341, -0.2053477019071579, -0.11978767812252045, -0.23809011280536652, 0.05986475199460983, -0.03222603350877762, 0.04028351977467537, -0.1441776156425476, 0.11301816254854202, -0.04082944616675377, -0.12536832690238953, 0.0662199854850769, 0.053774259984493256, -0.07827090471982956, -0.053043290972709656, 0.09689170867204666, -0.011579847894608974, -0.007821707054972649, -0.04271303489804268, -0.0054908376187086105, 0.024737989529967308, 0.07258791476488113, 0.013158678077161312, 0.19847506284713745, -0.045880697667598724, 0.06134543940424919, -0.14504392445087433, 0.033295296132564545, 0.20451246201992035, -0.21510514616966248], [0.14261463284492493, -1.8777616024017334, 1.6070477962493896, 0.7247917652130127, -0.3904193043708801, -0.14524778723716736, -0.6211214065551758, -2.1843719482421875, -0.46375665068626404, -0.09308941662311554, -1.6544535160064697, 1.2554031610488892, 0.515322208404541, -3.2514522075653076, -1.5979217290878296, -0.03451034054160118, 0.28454479575157166, -1.311828851699829, -2.2882168292999268, 1.454180121421814, -2.2005090713500977, 0.2988104224205017, 0.7964794039726257, 0.7864158749580383, -1.757199764251709, 2.278045892715454, -0.15527081489562988, 0.3089369833469391, 1.0875582695007324, -0.8759671449661255, 2.2687342166900635, -0.7912957668304443, 0.24097292125225067, 2.12426495552063, -2.3293724060058594, 0.011184994131326675, 1.50822913646698, -2.6997804641723633, -1.5672707557678223, -0.019877074286341667, 1.277983546257019, 0.5827789902687073, 1.1664118766784668, 0.679067075252533, -0.3550216555595398, 0.867550253868103, 2.83286714553833, 0.11307457834482193, 1.3281790018081665, -0.4806734025478363, 0.8836030960083008, -1.4244968891143799, 2.564762830734253, 1.1124354600906372, 1.8707207441329956, -0.041441574692726135, -1.4226731061935425, 0.8326619863510132, -0.6012598276138306, -2.219625234603882, 0.680314838886261, -1.50834059715271, -1.287757396697998, 1.6069855690002441, -0.12431462854146957, -1.0652474164962769, -0.1533982753753662, 1.1925404071807861, 0.8183631896972656, 0.2791392207145691, 0.4307609796524048, -2.242957830429077, -1.7841161489486694, -3.2425146102905273, -0.8993373513221741, -0.764919638633728, -0.23491017520427704, -1.047904372215271, -1.611175537109375, 1.046770691871643, 1.8627617359161377, -1.389991044998169, 0.78053218126297, -1.9725191593170166, -0.42223599553108215, 0.13712844252586365, -0.9523022770881653, 1.344200849533081, 2.52963924407959, -0.4612601101398468, -0.9109852910041809, 1.9490067958831787, 1.8207515478134155, 0.963053822517395, 0.5650667548179626, -0.2626420259475708, -1.5298048257827759, 1.0105834007263184, 1.3756308555603027, -2.0054821968078613, 0.26321035623550415, 1.5125138759613037, -0.7178738713264465, 0.16159971058368683, -0.7128736972808838, -0.01830871030688286, -0.9775616526603699, -0.5144144892692566, -0.5942668914794922, 1.1192747354507446, 0.16168159246444702, 2.0775492191314697, -0.7921812534332275, 0.03591056540608406, 0.745105504989624, -0.6828299760818481, 0.33486273884773254, -0.9775387048721313, -1.256555199623108, 0.814282238483429, 0.6588706374168396, -1.050557255744934, -0.9651591181755066, 1.081209659576416, 0.2624760568141937, 0.6669469475746155, 1.5240614414215088, 0.5240145921707153], [0.3216347098350525, 2.444558620452881, 1.712996482849121, 0.029527094215154648, 1.9957524538040161, 1.1548360586166382, -1.1440008878707886, -0.47818005084991455, -3.5009846687316895, 1.4068721532821655, -1.7498539686203003, 