{"in_shape": [null, 66], "layers": [{"type": "dense", "activation": "elu", "shape": [null, 128], "weights": [[[0.2215515524148941, 0.042593393474817276, -0.16997158527374268, 0.2589055001735687, 0.20963212847709656, -0.1053653284907341, 0.06546977162361145, 0.06381279230117798, 0.1353779435157776, -0.016796212643384933, 0.04488247632980347, 0.0065828170627355576, 0.06914202123880386, -0.1501697450876236, 0.4453336298465729, -0.17501604557037354, -0.17344781756401062, 0.12442706525325775, 0.04906361550092697, -0.21407504379749298, 0.07888231426477432, -0.06830175220966339, -0.2108469307422638, -0.17943470180034637, 0.09161502867937088, 0.13961736857891083, 0.03610878810286522, 0.05742984637618065, 0.17558780312538147, -0.004528189077973366, 0.25283992290496826, -0.08309359103441238, -0.03252803906798363, 0.13785970211029053, -0.23920327425003052, 0.016552424058318138, -0.10869678854942322, 0.2758606970310211, -0.09450090676546097, 0.11009293794631958, -0.09546365588903427, 0.25917619466781616, -0.05001704767346382, 0.12111706286668777, 0.37593376636505127, -0.1143149882555008, 0.16248002648353577, -0.12868405878543854, 0.17183919250965118, 0.2858339846134186, 0.1229085624217987, 0.03128444403409958, -0.09347356110811234, 0.1378437876701355, 0.0734480544924736, -0.05651404708623886, -0.15033617615699768, -0.11157353967428207, 0.11813609302043915, 0.024510638788342476, -0.15429385006427765, -0.13879281282424927, 0.16392304003238678, -0.15646633505821228, -0.1259406954050064, 0.23542499542236328, -0.055009812116622925, -0.35783278942108154, 0.14996494352817535, -0.07523598521947861, -0.032582517713308334, -0.15419542789459229, 0.09217748045921326, -0.05657634884119034, -0.04723856598138809, -0.07941784709692001, 0.07865871489048004, 0.050645530223846436, -0.209101140499115, 0.07962426543235779, -0.14199557900428772, -0.21628828346729279, 0.10287146270275116, 0.08423290401697159, 0.17433194816112518, -0.16335731744766235, -0.19747883081436157, 0.0206562802195549, -0.04954042658209801, -0.12620465457439423, -0.12912292778491974, 0.10937116295099258, 0.14077645540237427, -0.2520318031311035, -0.03986172005534172, -0.04796038195490837, -0.18498872220516205, 0.09903834760189056, 0.14548347890377045, -0.21628083288669586, -0.06750348955392838, -0.4198063910007477, 0.08445054292678833, 0.20133310556411743, -0.0932709127664566, 0.24394546449184418, 0.02169666811823845, 0.006987558212131262, -0.07702609896659851, 0.18466821312904358, 0.08437030762434006, 0.20337139070034027, -0.007939223200082779, 0.024309583008289337, -0.06116325035691261, 0.025361699983477592, 0.1424611657857895, 0.1175619438290596, -0.21452586352825165, 0.041078414767980576, 0.2034146785736084, -0.08182241022586823, 0.12544861435890198, -0.30510902404785156, -0.045703038573265076, -0.07037197053432465, 0.13533872365951538, -0.09662885218858719], [-0.025900648906826973, -0.20363688468933105, 0.006291393656283617, -0.08860637992620468, -0.19698160886764526, -0.016412679105997086, -0.057480182498693466, -0.2073698788881302, 0.1806788295507431, 0.05384797602891922, -0.015984997153282166, 0.03583461791276932, -0.20700089633464813, -0.22515185177326202, 0.30679571628570557, -0.2535943388938904, -0.005442302208393812, -0.16285744309425354, 0.2126983255147934, 0.051118940114974976, -0.18197406828403473, 0.13400638103485107, 0.1015043780207634, 0.13823100924491882, -0.27742934226989746, 0.20670823752880096, 0.01972714252769947, 0.15931309759616852, 0.11461576074361801, 0.22021415829658508, 0.3685303330421448, 0.1515781581401825, 0.10027182847261429, 0.09038001298904419, 0.24014154076576233, 0.08624444901943207, 0.3137539327144623, 0.009214114397764206, -0.023910487070679665, -0.030825726687908173, 0.1644299328327179, -0.18565618991851807, -0.154669389128685, -0.055610980838537216, -0.12929248809814453, 0.07231976836919785, 0.24368861317634583, 0.06644699722528458, -0.023206790909171104, 0.0005211287643760443, -0.030267588794231415, -0.14523939788341522, 0.17231550812721252, 0.21103888750076294, 0.1663302779197693, -0.2241319715976715, -0.21720357239246368, -0.05261668562889099, -0.0962524265050888, -0.015154034830629826, 0.0877409428358078, 0.24263890087604523, -0.07395811378955841, -0.020717186853289604, -0.04983632639050484, 0.3437877297401428, -0.09596181660890579, -0.04093132168054581, 0.044879116117954254, 0.03933430835604668, -0.005530510097742081, -0.2289164662361145, 0.02617066353559494, -0.320228636264801, 0.006064502522349358, 0.06264039129018784, -0.21128301322460175, -0.07187121361494064, -0.41952502727508545, -0.0433502160012722, 0.0030250903218984604, 0.08687921613454819, -0.28749164938926697, 0.330178439617157, -0.10616250336170197, -0.2714044153690338, -0.3272899091243744, 0.05506455898284912, 0.22539345920085907, 0.33502334356307983, -0.013429421931505203, -0.11768599599599838, -0.018949132412672043, -0.06628106534481049, 0.06723236292600632, -0.1023242250084877, -0.015048537403345108, -0.215610533952713, 0.02633141726255417, -0.2120862901210785, -0.1740627884864807, -0.17659257352352142, -0.10194455087184906, -0.11326628923416138, -0.178391233086586, 0.06768516451120377, -0.21125943958759308, 0.009315547533333302, 0.2276066690683365, 0.3695903420448303, 0.051325540989637375, 0.19519919157028198, -0.038779545575380325, -0.22319120168685913, 0.25473442673683167, 0.04347509145736694, 0.05302788317203522, 0.1150144711136818, 0.023953039199113846, -0.12235301733016968, 0.014187881723046303, -0.0699198842048645, 0.04765375703573227, -0.06919968873262405, 0.12575848400592804, 0.06169726327061653, 0.11706984043121338, 0.040853001177310944], [-0.3639715909957886, -0.34128904342651367, 0.5602283477783203, 0.31835243105888367, -0.1652415245771408, -0.1291290521621704, -0.062444496899843216, 0.22130076587200165, -0.017318811267614365, -0.0415138378739357, 0.003567436942830682, -0.5100350379943848, 0.24050363898277283, -0.028873583301901817, -0.002530034864321351, -0.02144659124314785, -0.06452999264001846, -0.2748264670372009, 0.11790820956230164, 0.32020559906959534, -0.18186785280704498, 0.3433384299278259, 0.415294885635376, 0.09239381551742554, 0.10319310426712036, -0.09364461898803711, -0.17496676743030548, -0.19062907993793488, -0.45642077922821045, 0.26388415694236755, -0.07265069335699081, -0.4283454120159149, 0.25206783413887024, 0.3350849747657776, -0.32611286640167236, -0.31966298818588257, -0.047128550708293915, -0.2550109028816223, 0.4478987157344818, 0.057587675750255585, -0.17133380472660065, -0.1686938852071762, 0.1740608513355255, -0.286774218082428, 0.0037244027480483055, -0.07755862921476364, -0.5235134363174438, -0.23174642026424408, -0.2472572922706604, -0.3765508234500885, 0.18001879751682281, 0.0721089243888855, 0.3819071650505066, 0.41943979263305664, -0.14244204759597778, -0.22936533391475677, 0.0978686586022377, -0.2275134176015854, 0.23523543775081635, 0.016491001471877098, 0.23560716211795807, 0.21982964873313904, 0.08042601495981216, 0.23948466777801514, -0.0835910513997078, 0.08080342411994934, -0.14695888757705688, -0.4911448061466217, -0.1334240734577179, 0.1679641604423523, -0.12208221852779388, 0.2163524180650711, -0.6163407564163208, -0.3023129105567932, 0.0852467492222786, -0.5876197814941406, -0.007854665629565716, -0.2205013632774353, 0.2988748550415039, -0.2765570878982544, -0.04546471685171127, -0.1623433530330658, -0.28666257858276367, -0.15477879345417023, -0.6755857467651367, -0.3337850272655487, -0.11226449906826019, 0.04932238161563873, -0.09381764382123947, -0.08072763681411743, 0.3871711194515228, -0.47748076915740967, 0.14323082566261292, -0.18146121501922607, -0.22274743020534515, 0.13030940294265747, 0.31582456827163696, -0.024474501609802246, -0.1473534256219864, 0.2886980473995209, 0.02046886645257473, -0.12902085483074188, -0.5095189809799194, 0.22933809459209442, 0.00812753289937973, 0.5286056995391846, 0.7688689827919006, -0.05600152164697647, 0.1289139986038208, -0.22483894228935242, 0.0384470596909523, 0.02234257198870182, 0.29895466566085815, -0.028577212244272232, -0.04110969975590706, -0.023651698604226112, -0.18496358394622803, 0.0572211816906929, 0.020414277911186218, 0.11663421243429184, 0.20680131018161774, 0.5493778586387634, -0.07848252356052399, 0.2251436859369278, 0.0679711252450943, -0.11385305225849152, -0.3019216060638428, 0.24695906043052673], [1.3077677488327026, 0.47130128741264343, 1.0073559284210205, -1.3539538383483887, -0.8157593011856079, -2.0168797969818115, 1.011245608329773, -1.2309578657150269, -0.9249057173728943, 1.7648649215698242, -1.0942018032073975, -2.475299835205078, 0.7885299324989319, -1.6425882577896118, 1.0081214904785156, 1.578563928604126, 1.1318414211273193, 1.1232924461364746, -1.3922462463378906, 1.1719980239868164, -2.0677130222320557, 1.5213305950164795, 0.4428694248199463, -1.695074200630188, -1.7130173444747925, 1.8115745782852173, 0.013837427832186222, 1.1908912658691406, 2.7177207469940186, 2.0966250896453857, 3.0920164585113525, -2.726119041442871, -1.1352125406265259, 1.1515861749649048, 1.437044620513916, 0.6656550765037537, 4.0640692710876465, -1.4248634576797485, 0.3344743847846985, -2.1207191944122314, -1.1781623363494873, 0.2623365521430969, 0.20952700078487396, -1.4868581295013428, -1.6365538835525513, 0.871799111366272, 0.7377787828445435, -1.5459258556365967, -0.3118967115879059, 1.3263678550720215, -2.9885435104370117, -1.7444039583206177, 1.930012822151184, -1.4584418535232544, 0.9289131164550781, 0.23091891407966614, -1.377124309539795, -0.1294783502817154, -1.004553198814392, -0.20660652220249176, -0.5793942809104919, 0.9652835130691528, -0.7703986167907715, 1.3032608032226562, 1.8027561902999878, 3.011927366256714, 0.8918648958206177, 0.33276137709617615, -0.2698879539966583, -1.146270751953125, -0.19339443743228912, 0.6256282925605774, -1.044577956199646, -3.066420078277588, -0.6468519568443298, 1.0719350576400757, -0.10066038370132446, 0.006379702594131231, -2.2186245918273926, 1.7927699089050293, -0.10537570714950562, -3.180967092514038, -0.5210768580436707, -1.4901773929595947, -0.12706059217453003, -2.60355544090271, -0.9761140942573547, -0.7909354567527771, 2.7794852256774902, 2.2868704795837402, 0.5122952461242676, -0.9591078758239746, -0.7381263375282288, 0.6676844954490662, -0.8112571835517883, 1.9604617357254028, 0.23262499272823334, 0.8876334428787231, 2.264544725418091, -2.921071767807007, 0.4370509386062622, -1.7444303035736084, 1.462664008140564, 0.3269018828868866, -1.778739094734192, -1.4783250093460083, -0.37386783957481384, 1.0351706743240356, 0.7788950204849243, -0.04872087761759758, 0.9720324873924255, -0.9367297887802124, -0.4026017487049103, -1.8829929828643799, -1.8756147623062134, 0.576184868812561, 1.101636290550232, 0.9139008522033691, 0.2802462577819824, 1.6107810735702515, 1.2584375143051147, 1.671939492225647, -1.1171146631240845, 2.1073172092437744, 0.11928434669971466, 0.03695064038038254, 2.277965784072876, 0.9903930425643921], [-0.8794368505477905, 0.5474932193756104, -2.404510736465454, 0.16990838944911957, -1.4886773824691772, 1.2097481489181519, -1.8124046325683594, -0.8048883676528931, -0.6089715957641602, -0.8664782643318176, -0.07672502100467682, -0.6008573770523071, 2.4671709537506104, 1.5204402208328247, -0.20067821443080902, -1.2701410055160522, 1.5135133266448975, 1.543579339981079, -0.8356179594993591, 0.19648835062980652, -2.0754733085632324, -0.9163881540298462, 2.483750581741333, -1.7740463018417358, -0.8218112587928772, -1.7334463596343994, 0.37692341208457947, 2.3376622200012207, -2.3661372661590576, -0.20726296305656433, -1.2979212999343872, 1.7511626482009888, -1.9960312843322754, -2.008495330810547, 0.4488983452320099, -0.45949801802635193, -0.00043514103163033724, -0.745208740234375, -1.7920564413070679, 3.00209641456604, 0.5776610374450684, -3.416452646255493, 4.3171305656433105, 1.472086787223816, -1.9845525026321411, -0.1633327752351761, 1.9393481016159058, -1.2077748775482178, -0.044331032782793045, 0.5383706092834473, -1.6697477102279663, 0.9009943604469299, 1.4539917707443237, -0.7950174808502197, 0.7335517406463623, 0.8060588836669922, -1.6889092922210693, 2.7622158527374268, 2.6918842792510986, 0.46468424797058105, 1.743752360343933, -0.5798752307891846, -0.13439466059207916, -1.8559290170669556, 1.4780187606811523, -0.4203798770904541, 0.9389147758483887, 0.14574852585792542, -1.7335063219070435, -1.9113194942474365, 0.7779672741889954, -0.03749290108680725, -0.6277691125869751, -1.9670202732086182, 2.1121673583984375, -2.3168704509735107, -1.1226527690887451, -1.478162169456482, 0.9696971774101257, -2.471679210662842, 1.5490260124206543, 3.377455234527588, 0.3712221682071686, 1.7803902626037598, 0.8655952215194702, 2.9045093059539795, -2.90828537940979, -1.8442028760910034, -0.08665911108255386, -0.28344860672950745, 1.720582365989685, 0.7501600384712219, 1.066744089126587, -0.9462969303131104, 0.7005902528762817, 0.04037415608763695, 2.387113571166992, 2.6308133602142334, -1.4278833866119385, 1.455485463142395, 2.1504876613616943, 3.6565821170806885, -0.16267608106136322, -1.2095683813095093, 1.2203611135482788, -0.38626477122306824, -1.2113269567489624, -0.03036869503557682, 0.802362322807312, 0.5199894905090332, -0.1606616973876953, -1.5657124519348145, -2.0949010848999023, -2.3902554512023926, 0.3989109992980957, 0.1379251331090927, 1.6872961521148682, 1.149893879890442, 0.6967564821243286, -0.9520024657249451, -1.0131635665893555, 0.8388676643371582, -1.3524658679962158, 1.0548259019851685, 0.5040541291236877, 1.7446608543395996, -2.1727936267852783, 1.6674245595932007], [-1.6052123308181763, 8.360133171081543, -3.5069427490234375, -0.28123024106025696, 4.644773960113525, -9.717961311340332, -3.2028110027313232, -1.6218702793121338, -13.132160186767578, 2.468144178390503, 7.6367268562316895, -3.151435375213623, -7.821549415588379, -0.1256352961063385, 4.297064304351807, 8.166058540344238, 4.1980791091918945, -5.208578586578369, 9.019956588745117, -11.795236587524414, 1.143336534500122, 13.482640266418457, 1.2230526208877563, 6.011577129364014, 8.855485916137695, -1.5472321510314941, -0.5286844968795776, -0.9693623781204224, 4.807817459106445, 3.8085849285125732, -9.827391624450684, -9.067591667175293, 4.327549934387207, 5.016633987426758, 2.9175260066986084, 0.9991716146469116, -3.9589500427246094, 3.5251636505126953, 4.92570686340332, -8.99371337890625, 16.122028350830078, 0.647059977054596, -8.807826042175293, 7.029973983764648, 2.3869597911834717, 8.298633575439453, 3.111588716506958, -4.834908485412598, -0.8792490363121033, -6.640508651733398, -2.204921007156372, -3.516869306564331, -6.429595470428467, 0.9230175614356995, 3.133777618408203, -2.8701679706573486, 8.275457382202148, 5.883424282073975, 4.82875394821167, 10.26325511932373, 0.9940629005432129, -5.276742935180664, 0.8944677710533142, 2.427475929260254, -0.7004521489143372, 10.945305824279785, 1.18599534034729, 1.8049399852752686, 3.5285325050354004, 2.6316568851470947, -6.817288398742676, 1.7832510471343994, 4.471785068511963, -7.812296390533447, -4.325873374938965, 5.341410160064697, 2.662306308746338, -0.07167835533618927, 2.1409740447998047, 4.706552028656006, 0.7112859487533569, 9.199605941772461, 4.350036144256592, -6.875157833099365, -3.0011372566223145, -1.7377921342849731, 4.285099506378174, -10.507203102111816, -7.249392986297607, -0.29053550958633423, -3.524888753890991, 8.4066162109375, 4.04575777053833, 1.436911702156067, -4.600209712982178, -0.6612331867218018, -1.4021553993225098, 7.92266321182251, -4.01161003112793, 4.836590766906738, 1.462946891784668, -5.22369909286499, 0.9035257697105408, 0.25546130537986755, 8.787732124328613, 5.425902366638184, 2.8194267749786377, -1.7603007555007935, 5.465031623840332, 0.24824047088623047, 0.42642882466316223, -4.712031841278076, -3.657667636871338, 5.030097007751465, 3.377487897872925, 7.9957804679870605, -2.946364641189575, 1.9603610038757324, 0.8541399836540222, 2.364367961883545, 0.21809980273246765, -2.647723913192749, -5.026885509490967, 5.800002574920654, 10.922989845275879, 4.559237003326416, 0.04139649495482445, 5.273478031158447], [-0.192652627825737, 0.7040750980377197, 0.06989123672246933, -0.2731574475765228, -0.04315979778766632, 0.5560925006866455, 1.0366605520248413, 1.1497653722763062, 0.514712929725647, 0.43938711285591125, -0.13994921743869781, -0.2055823653936386, 0.09949243068695068, -0.09834954142570496, -0.24878457188606262, 0.11240888386964798, 0.004311316180974245, 0.4822884798049927, -0.6976603269577026, -0.9547745585441589, -0.34663668274879456, -0.9551869034767151, -0.2911263108253479, -0.08181760460138321, 0.4663110077381134, 0.256445050239563, 0.32892417907714844, -1.131241798400879, -0.24087344110012054, -0.0453057661652565, 0.16722358763217926, -0.4096001386642456, 0.6436277627944946, -0.715990424156189, 0.263813316822052, -0.3246065378189087, -0.50938481092453, 0.7878904938697815, -0.005559680052101612, 1.2483959197998047, -0.5289543271064758, 0.17238138616085052, -0.03859062120318413, 0.09135756641626358, -0.6830338835716248, -0.49471309781074524, -1.1393119096755981, 1.023416519165039, -0.6673858165740967, -0.08243680000305176, -0.003996747545897961, 0.7374047636985779, -0.0410417877137661, -0.5801030397415161, -0.11633904278278351, -0.32496178150177, 0.28961125016212463, 1.2542905807495117, -0.11493637412786484, -0.48492687940597534, -0.0033195491414517164, -0.3217851221561432, 0.24856829643249512, 0.1534096747636795, 0.4138612151145935, 0.8585759401321411, 0.18800915777683258, 0.026783160865306854, 0.3615935444831848, -0.38361746072769165, -0.21436910331249237, -0.2237740457057953, 0.20009136199951172, 0.1307826042175293, 0.5206124782562256, -0.1545984148979187, -0.4597359895706177, 0.5924025177955627, 0.30573132634162903, -0.5131322741508484, -0.6367464065551758, 0.6359526515007019, -0.11933550238609314, 0.5712442398071289, -0.3533560633659363, 0.5515583157539368, 0.2031128853559494, -1.336079716682434, -1.0278829336166382, -0.09880188852548599, -0.1002107784152031, 0.5361213684082031, -0.7158226370811462, -0.013844483532011509, 0.7738692760467529, 0.8816280364990234, -0.12156184017658234, 0.4430995285511017, -0.2317047268152237, -0.42620915174484253, -0.21221156418323517, -0.734179675579071, -0.34608331322669983, 0.749788224697113, 0.07159330695867538, -0.21115097403526306, 0.10231874138116837, -0.6738506555557251, 0.25752145051956177, 0.34627896547317505, -0.6678028702735901, 0.2694317102432251, 0.4197118282318115, 0.1506996899843216, -0.22349196672439575, 0.790454089641571, 0.3237123191356659, 0.4313412010669708, 0.6416919231414795, -0.12693411111831665, 0.9976918697357178, -0.13064637780189514, 0.5374345183372498, 0.04011107236146927, 0.4625539183616638, 0.05249598249793053, 1.227573275566101, -0.088150255382061], [0.5198319554328918, 0.014467536471784115, -0.5760626196861267, -0.35685715079307556, 0.8658246994018555, 0.687355101108551, -0.7169462442398071, -0.24323178827762604, 0.24637076258659363, 0.0029661809094250202, 1.0083645582199097, 0.5209575891494751, -0.28514909744262695, 0.9818490147590637, 0.5370211005210876, -0.43989503383636475, -0.4951419234275818, -0.0904945656657219, 0.676907479763031, 0.729386568069458, -0.6148676872253418, 0.6179031729698181, -0.028288083150982857, 0.372463196516037, -0.38994675874710083, 0.07177995145320892, -0.420087069272995, 0.45720556378364563, -0.12697556614875793, -0.49481624364852905, -0.21991412341594696, -0.36175018548965454, -0.3627071976661682, 0.8239854574203491, 0.20943306386470795, -0.48593658208847046, -0.9020776748657227, -0.47105854749679565, 0.2642512917518616, -0.550039529800415, -0.7938660383224487, -0.7234764099121094, 0.5453358292579651, -0.2134615033864975, -0.27485015988349915, 0.16782110929489136, -0.4068010747432709, 0.4367433190345764, 0.3934754729270935, 0.034321561455726624, -1.7203059196472168, -0.18007045984268188, -0.2592358887195587, 1.0007245540618896, -1.0948349237442017, -0.049504708498716354, 0.20953068137168884, 1.031946063041687, -0.9279221892356873, 1.621999740600586, 0.11930903047323227, -0.31427034735679626, 0.5996282696723938, 0.9360776543617249, -0.17899711430072784, -0.9086366891860962, -0.717516303062439, 0.5302960276603699, 0.00453158188611269, 1.590110182762146, -2.613334894180298, -0.14678098261356354, 0.1814524084329605, -0.6620907783508301, -0.059059757739305496, 0.39523887634277344, 0.10237660259008408, 0.4085870683193207, 0.1176753118634224, 0.8728975057601929, -0.12146378308534622, -0.4076223075389862, -0.10227660834789276, -0.6652495861053467, -0.015176310203969479, -0.03493828326463699, -0.21891456842422485, 0.2768997848033905, 0.5704104900360107, 0.10722114890813828, -1.0762784481048584, -1.2050117254257202, 0.24159769713878632, 0.1151699647307396, -0.43231964111328125, -0.6956866979598999, -1.0804853439331055, -0.44085052609443665, 0.0991608053445816, 0.41429486870765686, 0.19085580110549927, -0.17335917055606842, -0.23009583353996277, -0.1830858439207077, 0.47082585096359253, 0.25986069440841675, -0.15031591057777405, -0.6550005674362183, -0.8325647115707397, 0.7667776942253113, -0.5504381656646729, 0.7798011302947998, 1.485659122467041, -0.1446048766374588, -0.7265555262565613, 0.33284690976142883, 1.4573367834091187, -0.16015130281448364, 0.056766703724861145, 0.16566714644432068, 0.9520628452301025, -0.6477269530296326, 1.1973477602005005, 0.4783342778682709, -0.7386094331741333, 0.5117861032485962, -0.13523416221141815, -0.8891050219535828], [0.25689536333084106, 0.4442110061645508, -0.2214536815881729, -0.31812456250190735, -0.21735146641731262, 0.27469807863235474, 0.35965418815612793, -0.12045042961835861, -0.12093444913625717, 0.0054382141679525375, -0.020984524860978127, 0.2682531476020813, -0.174310103058815, -0.2606589198112488, 0.005671229679137468, 0.23742488026618958, -0.1949165165424347, 0.1725904643535614, -0.011412125080823898, 0.09330486506223679, -0.053781718015670776, 0.008209886960685253, 0.14533142745494843, -0.12894417345523834, 0.12120772898197174, 0.10209190100431442, 0.0130306426435709, -0.04073398932814598, 0.19154682755470276, 0.000192719729966484, -0.19154736399650574, 0.01639816351234913, -0.2891824245452881, -0.14089709520339966, 0.07786335796117783, 0.11167919635772705, -0.08408556133508682, 0.2629244029521942, -0.37723350524902344, -0.1429862678050995, -0.0172964446246624, -0.11573426425457001, -0.0262176264077425, 0.20046065747737885, 0.010403281077742577, 0.05384185537695885, 0.16544915735721588, 0.04228075593709946, 0.22531358897686005, 0.40670058131217957, 0.04003433510661125, 0.15906071662902832, -0.26753535866737366, -0.32419553399086, 0.047779325395822525, -0.29633015394210815, -0.09258782863616943, -0.11177009344100952, 0.11030841618776321, -0.29528510570526123, -0.1577511578798294, -0.16830670833587646, -0.001530492096208036, -0.3134141266345978, -0.2209862619638443, -0.3238541781902313, 0.15965190529823303, 0.19555120170116425, -0.05660064518451691, -0.21055033802986145, 0.133694127202034, -0.2150985598564148, 0.2517322897911072, 0.09654185175895691, 0.12399586290121078, 0.4119013547897339, -0.09944508224725723, 0.06732092797756195, -0.2761768698692322, 0.15359069406986237, 0.05809250846505165, 0.2077271193265915, 0.19590914249420166, 0.12768429517745972, 0.42966046929359436, 0.30271682143211365, 0.3565199375152588, 0.12451188266277313, 0.09262768924236298, -0.06195742264389992, 0.021799545735120773, 0.3828732967376709, -0.36922508478164673, 0.08026021718978882, -0.05780544504523277, -0.018332919105887413, -0.09917017072439194, -0.32276150584220886, 0.08623816817998886, -0.18431991338729858, 0.10503964871168137, 0.12507914006710052, 0.35417628288269043, -0.3044884204864502, -0.021673202514648438, -0.21952542662620544, -0.5989658236503601, -0.14413681626319885, -0.34014666080474854, -0.013684344477951527, -0.0347176156938076, 0.0960833728313446, -0.2732207775115967, 0.0660434290766716, -0.1309971958398819, 0.11315783858299255, 0.1563611924648285, 0.07708880305290222, -0.07694386690855026, -0.1906120926141739, -0.00031707430025562644, -0.5069745779037476, 0.10499667376279831, -0.13860304653644562, 0.06754344701766968, 0.22307825088500977, 0.19803982973098755, -0.13063983619213104], [-0.9599004983901978, -1.1348388195037842, 1.8763445615768433, 1.7381950616836548, 1.0705281496047974, 0.36385440826416016, -1.0012151002883911, -0.306534081697464, -0.8246673345565796, 0.20235902070999146, -0.09537351131439209, -0.8230135440826416, -0.976311981678009, -0.05826561897993088, 0.5137399435043335, 0.9586400985717773, -0.45014142990112305, -1.4191666841506958, 0.3981500566005707, 1.1831406354904175, -0.4237578213214874, -0.7472492456436157, -1.1066920757293701, 0.4097757041454315, 0.4331614673137665, -1.2738795280456543, -1.36752450466156, 0.552137017250061, -1.1359435319900513, -1.2201100587844849, -0.8563428521156311, -1.1366900205612183, 0.3322540819644928, -0.8498700261116028, -0.8989444971084595, -1.495879054069519, -1.0128029584884644, 0.908745288848877, 0.3278396725654602, 0.4329613745212555, -0.12421869486570358, 0.6271308064460754, 1.6619893312454224, -1.4157837629318237, 0.8408723473548889, 0.2415228933095932, -0.4619600474834442, 0.05699685215950012, -0.7778539657592773, 0.042864374816417694, 1.936963438987732, -1.453107476234436, -0.9319769740104675, 0.15414074063301086, -0.7807806134223938, 0.5954053401947021, -1.0864468812942505, 0.7294628620147705, 1.1627724170684814, 0.08646631985902786, 1.2397511005401611, 0.663818359375, -0.3254466950893402, -1.250868320465088, 1.154758334159851, 0.07488728314638138, -1.3687132596969604, -1.5501729249954224, -0.7899442911148071, 1.7529144287109375, -0.21129801869392395, 1.4791358709335327, 0.21359647810459137, 0.4404936134815216, 0.5299357771873474, -1.4623323678970337, 0.5571144223213196, -1.3273926973342896, -0.8513544797897339, 0.0854899063706398, 0.506594181060791, -0.058296408504247665, 0.21537397801876068, 0.8877344727516174, -0.8356831669807434, 0.7741326093673706, 0.00842946209013462, -1.6571491956710815, -0.857102632522583, -0.3421742022037506, 1.2341890335083008, -0.9392620325088501, -0.5297060608863831, -1.056675672531128, -0.5233485698699951, -0.8275452852249146, -0.9382842779159546, -1.2422785758972168, -2.1816658973693848, -1.3926746845245361, 0.4380825161933899, -0.8980123400688171, -0.4611569344997406, 1.7063690423965454, 0.9280692338943481, 1.5834015607833862, 1.2802594900131226, 0.00012839755800087005, 0.9648441672325134, -0.4589708149433136, 1.4292830228805542, 0.2631283402442932, -0.18371930718421936, 0.1535157561302185, 1.292496919631958, -0.23261207342147827, -0.026413176208734512, -2.014631748199463, 1.028301477432251, 0.974204957485199, 1.247337818145752, 0.2847098410129547, 1.497308373451233, -0.9122024774551392, -0.7940030097961426, -1.4912992715835571, -0.7318615913391113, -0.320884644985199], [-0.18766573071479797, 0.5999767780303955, -1.2004456520080566, 1.1949549913406372, -0.7851327061653137, -1.0025222301483154, -0.7732826471328735, -0.5714325308799744, -1.6244298219680786, -0.6864274740219116, -0.6050075888633728, 1.0156718492507935, -0.30536574125289917, 0.9198029041290283, 3.1230623722076416, 0.6310174465179443, -1.2166091203689575, 2.3990790843963623, -2.041069746017456, -0.19924296438694, -0.18901000916957855, 0.549781084060669, -0.24994197487831116, 1.489190936088562, -0.6792712807655334, -2.362234592437744, 1.7366535663604736, -0.9155340790748596, -0.3333943784236908, 0.1959596425294876, -0.1825399547815323, -0.6042249202728271, 1.0333847999572754, -1.9189400672912598, 0.1381342113018036, 0.7215647101402283, 1.3955988883972168, -0.8107907176017761, -1.8190202713012695, -0.978528618812561, 0.9691271185874939, -3.5914711952209473, -1.5135318040847778, 1.7925525903701782, -1.1289929151535034, -0.8057557940483093, -0.16707035899162292, 0.9982165098190308, -0.43557268381118774, 0.6431418657302856, -2.1192383766174316, 1.3411808013916016, 1.7003719806671143, 1.0868945121765137, -0.012898199260234833, 0.46069270372390747, -1.8953155279159546, -0.1725483238697052, -0.5027803778648376, 0.7301561832427979, 0.2672401964664459, -0.28364309668540955, -0.9262697696685791, 1.8469921350479126, -1.4361363649368286, -0.45417630672454834, 1.3508650064468384, 1.071817398071289, 1.5943078994750977, -1.8543199300765991, -0.9738284349441528, 0.9277058839797974, 2.0327064990997314, 1.3589506149291992, -0.8427228927612305, -0.21550253033638, -1.178735375404358, 1.8066725730895996, -0.42579397559165955, -0.8532279133796692, -0.5672298669815063, -0.03405531495809555, -0.7306345701217651, -0.1903773546218872, 2.5364840030670166, 1.9008021354675293, -0.5549130439758301, 1.9825414419174194, 0.5413980484008789, 0.7950381636619568, 1.6321510076522827, -0.03559252619743347, 0.33769315481185913, 0.280476450920105, 2.0020172595977783, -0.64586341381073, -0.47274017333984375, -1.6181100606918335, 1.2332732677459717, 0.9731484055519104, -1.228679895401001, 0.6694324016571045, -0.77669757604599, -0.6497836709022522, 0.8642321825027466, -0.490298867225647, -0.11041674762964249, 1.4270700216293335, -0.23225656151771545, 0.6969282031059265, -0.5724827647209167, -0.2719525098800659, -1.5836855173110962, 0.052590761333703995, -2.522813558578491, 0.7604711055755615, 1.9841392040252686, 1.7003122568130493, 1.2668640613555908, -1.1527196168899536, -1.334006667137146, -1.542797565460205, -1.2471964359283447, -0.9349521994590759, 2.150322437286377, 2.0785727500915527, -0.6441823840141296, 0.7992541193962097], [1.6780023574829102, 0.1401953101158142, 0.15610750019550323, 0.6137749552726746, 1.599193811416626, -1.3194319009780884, -1.3101755380630493, -1.0196459293365479, -0.4313299357891083, 0.5444349646568298, 1.0162516832351685, 0.6224624514579773, 1.570052981376648, 0.017061632126569748, -1.5919486284255981, -1.7320414781570435, 0.5527235865592957, 1.4215068817138672, 1.0797152519226074, -0.2026735544204712, 1.5176279544830322, -1.3683786392211914, 1.80178701877594, 1.6045864820480347, 0.9551936388015747, -0.3882075250148773, -1.4260200262069702, -0.22521983087062836, -0.44320815801620483, -0.3164716362953186, -1.7216315269470215, 0.8867446780204773, 1.9261448383331299, 0.5618192553520203, 0.2504815459251404, 0.5108793377876282, 0.1390095055103302, -0.16606514155864716, -0.9405295252799988, -0.3837127089500427, -1.2228649854660034, 0.4120436906814575, -0.1600395292043686, 1.2952308654785156, 0.0060739899054169655, 0.2651755213737488, -1.374549150466919, 0.7980126142501831, -0.9580604434013367, 1.2486770153045654, -0.07491572201251984, 0.27967825531959534, 0.8597593903541565, -0.7208147644996643, 0.6352468729019165, 0.9086324572563171, -0.18089908361434937, 1.7092989683151245, -0.9837504625320435, -1.3516608476638794, -1.0100916624069214, 0.2665269672870636, 0.25172755122184753, 0.9847625494003296, -0.31159424781799316, -0.6720911860466003, -0.718579113483429, -0.7165167927742004, 0.6897318363189697, -0.6733890771865845, 0.7711231112480164, 0.42705151438713074, -0.7613779306411743, -1.5404919385910034, 0.24322453141212463, 0.905863881111145, -1.7602227926254272, 1.8346054553985596, 0.041193556040525436, -1.1829568147659302, 0.3238455355167389, 0.3541279733181, 0.9349493980407715, 1.0263710021972656, -1.024409294128418, 0.3012737035751343, 1.201729416847229, 0.09604446589946747, 0.3386549651622772, -0.9226312637329102, 0.6609719395637512, -0.9130721688270569, 0.22168919444084167, -0.26195719838142395, 1.3511520624160767, 1.0029181241989136, 0.9825505614280701, -0.8869133591651917, -1.4368003606796265, 1.558934211730957, 1.3178839683532715, -0.16124293208122253, 2.0861873626708984, -0.3171066641807556, -0.7706205248832703, -0.3552201986312866, -0.07040829211473465, 1.5865325927734375, -0.22008201479911804, 0.5035020709037781, -0.6303290128707886, -1.327441930770874, 1.3363968133926392, 0.767047107219696, -0.07922372221946716, -1.5735749006271362, -0.12964580953121185, 1.7733510732650757, -0.6686291098594666, 0.7620506286621094, -0.06983928382396698, 0.9318711757659912, 1.0568366050720215, -0.5888562798500061, 1.7730979919433594, -0.09719441831111908, 1.2645537853240967, -0.3738459646701813], [-0.2506123483181, -0.883008599281311, 0.4613858759403229, 1.4478496313095093, -1.4658911228179932, -1.0502864122390747, -0.8352980017662048, 0.8621447682380676, -1.8650301694869995, -0.10342901945114136, -1.555006742477417, -1.0429846048355103, 0.5608426332473755, -1.5435378551483154, -0.6526157259941101, -0.5661517381668091, -1.0760231018066406, 1.0083718299865723, 2.276956558227539, 0.4765157997608185, 0.0552276149392128, 1.3801456689834595, -0.27713102102279663, -0.06949807703495026, 0.17812217772006989, 1.4819145202636719, -1.2790032625198364, 1.4679621458053589, -0.6302774548530579, 0.8237344026565552, 1.4300135374069214, -0.7178761959075928, 1.128496766090393, 0.12431377917528152, -2.029796838760376, -2.116199493408203, 1.2911640405654907, -0.7288637757301331, 0.701008677482605, -0.49275124073028564, 1.4989832639694214, -0.944408118724823, 1.635132074356079, -0.232826828956604, 1.1530972719192505, 1.3857090473175049, 1.0985677242279053, -0.22116853296756744, -0.36243703961372375, -0.7148537635803223, 0.5228362083435059, -0.7770734429359436, 1.2077679634094238, 0.7048594951629639, 0.24591587483882904, -0.662376880645752, -1.1202632188796997, 0.9060106873512268, -0.9209998846054077, -0.23833565413951874, -1.0463130474090576, 0.7357069849967957, 0.4196329414844513, 1.1784162521362305, 1.930533528327942, 2.48708438873291, -1.642247200012207, -1.0500985383987427, -0.5365822911262512, 1.2585077285766602, -0.677547812461853, 1.671662449836731, 1.0601766109466553, -1.2008121013641357, 1.2568567991256714, -0.914810299873352, -0.2893737256526947, -0.9453206658363342, -0.7537755370140076, -0.3335905075073242, 0.542646050453186, -1.8116016387939453, 0.10763110220432281, -0.04598064720630646, 0.5319458842277527, -1.6438943147659302, -1.6324695348739624, -1.6963176727294922, 0.5933473706245422, 0.8701152801513672, 1.1500247716903687, -0.8546888828277588, 0.3245086967945099, -1.0992801189422607, 0.1826675981283188, -0.4434283673763275, 0.7227587699890137, -0.2610023319721222, 0.38440293073654175, 0.4899634122848511, 0.7392884492874146, 0.9640873670578003, -0.18158918619155884, 0.8226199150085449, 0.05899607762694359, 0.44899624586105347, 1.2332326173782349, -0.9254288077354431, 1.2277246713638306, -0.7713693380355835, 0.7418264150619507, 0.8007709383964539, 0.6731951832771301, -0.518740713596344, 0.4634404182434082, 0.9117546081542969, -0.311491459608078, -0.10391116887331009, 0.36144569516181946, -1.37789785861969, -0.02225285954773426, -0.915315568447113, -0.9171502590179443, -0.30503717064857483, -1.466291904449463, -1.0559561252593994, -0.08111873269081116, 0.31607767939567566], [1.2360725402832031, -1.8136292695999146, -2.306438684463501, -1.9471521377563477, -0.5704308152198792, 2.674762487411499, -1.2229325771331787, -0.9562312364578247, 0.7170422077178955, -2.5660622119903564, -1.366677165031433, 0.6296941041946411, 1.000156283378601, 0.8399772047996521, -1.6123933792114258, 1.0976392030715942, 0.309792697429657, 1.1259475946426392, 1.5041955709457397, 1.6982228755950928, -0.8022699356079102, -0.42472460865974426, -0.880200982093811, 1.6497795581817627, -1.623250126838684, -2.1552886962890625, 1.306837558746338, -0.906571626663208, 0.591446578502655, -0.08752241730690002, -1.8133455514907837, 0.911130428314209, -1.2541917562484741, 0.8388539552688599, 1.2464088201522827, -0.5506411194801331, -0.4143126606941223, 0.7027673125267029, 2.1618356704711914, 0.7277621626853943, -1.4348808526992798, 0.17425556480884552, 1.5060272216796875, -1.6445400714874268, 0.5315471887588501, 0.7961457371711731, -0.6933515071868896, -0.3082086741924286, 0.25065407156944275, -0.6510505080223083, -1.0224074125289917, 0.8024541139602661, 0.48209723830223083, -1.6310991048812866, 4.69584846496582, 1.3868496417999268, 0.07210596650838852, -0.28162166476249695, 1.4650007486343384, -0.6989178657531738, -0.18657051026821136, -1.7817251682281494, -0.7157946825027466, 0.022512858733534813, -2.25424861907959, -1.658491611480713, 1.2475240230560303, 1.2424324750900269, -0.6923225522041321, -1.1972672939300537, 1.744593858718872, -0.9967718124389648, 1.069128394126892, 1.0439178943634033, 0.32499897480010986, -1.3795417547225952, -1.8423986434936523, 0.4206874370574951, -0.751396894454956, 1.3005445003509521, 2.93265700340271, 0.6309453845024109, 1.1232457160949707, -2.659311532974243, 0.3257514238357544, 1.5675387382507324, 0.7225959897041321, -0.701108992099762, 1.477645993232727, 1.4919778108596802, -0.3967927098274231, 1.4131922721862793, -0.8610033392906189, 0.4508049488067627, 0.8642727732658386, -1.2508517503738403, 2.3913564682006836, 0.6127707362174988, -0.2012941986322403, 0.19190305471420288, -0.07785823941230774, -0.4520869553089142, -0.7816168665885925, -0.9958223104476929, -3.0098876953125, 0.4068426489830017, -0.889953076839447, -1.9667143821716309, 1.8981455564498901, 2.3043344020843506, 0.9941785335540771, -2.2127556800842285, -1.5283576250076294, 0.7944265604019165, 1.1541861295700073, 0.22939138114452362, -2.5886073112487793, -0.5730271935462952, 1.8777309656143188, -0.14141036570072174, -0.5560105443000793, -0.2821095287799835, 1.6022387742996216, 0.6267910003662109, 0.9015957713127136, 3.06844425201416, -1.89264976978302, 0.3258713185787201], [-0.9893751740455627, -0.4838888347148895, -1.384673833847046, -1.239872932434082, 2.056354284286499, -0.3557793200016022, 0.12366681545972824, -0.690711498260498, -0.02951952815055847, -2.1998674869537354, 0.33512628078460693, 0.009015871211886406, 0.7195874452590942, -1.207159161567688, 0.42371270060539246, -0.19981609284877777, 1.8066717386245728, -0.8234453797340393, 0.7969253063201904, 0.013738987036049366, -0.5495086908340454, -0.47052934765815735, 1.3344892263412476, 1.0065605640411377, -0.8480579853057861, -0.28181636333465576, 0.3874857723712921, 1.1670119762420654, -0.5739730596542358, -0.8884281516075134, -0.5713850259780884, 0.7259960770606995, -1.1819812059402466, -0.4197721779346466, 0.113283172249794, 0.48714154958724976, 0.4330021142959595, -1.637953519821167, -0.7166212201118469, -1.5328916311264038, -0.046877194195985794, 0.7578994631767273, 1.724632978439331, -0.7601311802864075, 0.35455089807510376, 1.4865795373916626, 0.5565162897109985, -0.04082832857966423, -1.4727810621261597, -0.14037354290485382, 0.5825073719024658, -1.5497344732284546, 1.2481337785720825, 0.6003690958023071, 0.35505425930023193, -0.9942603707313538, 0.2012375444173813, -0.8578208684921265, 1.4898719787597656, 0.3553875982761383, 1.352858066558838, -1.3949869871139526, -1.804777979850769, 1.140614628791809, -1.5599358081817627, 1.5616341829299927, -0.14305900037288666, 0.6054959297180176, -0.49220940470695496, -0.415856271982193, 0.029413174837827682, -0.38279989361763, -0.7268613576889038, 0.3880246877670288, -2.6848928928375244, -0.3777748942375183, 0.6166103482246399, -0.10663628578186035, 0.20120397210121155, 0.7529199123382568, -0.9363962411880493, -0.7932813167572021, 0.17919418215751648, 1.2404192686080933, -0.8647449016571045, -0.8733676671981812, 1.1731206178665161, -0.3450390696525574, 1.6141250133514404, 0.41715338826179504, 0.5692415833473206, 0.22009049355983734, 0.6615841388702393, 0.5658887624740601, 0.37197384238243103, 0.4395504593849182, -1.0423082113265991, -0.9940413236618042, -0.843637228012085, -0.3899863660335541, -1.7202264070510864, 0.9715127348899841, 0.13851693272590637, 1.9249516725540161, -0.11556603759527206, -1.1080905199050903, 0.4269352853298187, -0.5672139525413513, 0.26692280173301697, -1.2769397497177124, -0.5824779868125916, 1.7090191841125488, -1.2198704481124878, -0.780978798866272, -0.2150651514530182, -1.9841848611831665, -0.9936823844909668, 1.157984733581543, 1.8863418102264404, 0.47256729006767273, -0.277010053396225, 0.31410306692123413, -0.12806959450244904, 0.4755737781524658, -0.8752300143241882, 0.8592641353607178, 1.2377699613571167, 1.5681103467941284], [0.5751049518585205, -0.3783988654613495, -0.5360936522483826, 1.138529896736145, 1.1572891473770142, -1.0196924209594727, -0.22524580359458923, 0.1545751541852951, 1.0664701461791992, -0.07987973093986511, 1.123088002204895, -1.7818200588226318, -0.3650403320789337, 1.8409712314605713, -0.3301650881767273, -0.2989809811115265, -0.6205189824104309, -0.31781360507011414, -0.9700040221214294, 1.1329443454742432, 0.2974439859390259, -0.3202691078186035, -1.1433912515640259, 0.4258292317390442, 0.07106338441371918, -1.2571604251861572, -1.721161127090454, -0.5464778542518616, -0.22032023966312408, 1.307363748550415, -0.9317874908447266, 0.4338397681713104, 0.7420024871826172, 0.7505287528038025, 0.23227402567863464, -1.0267874002456665, -1.0097460746765137, 0.4673808217048645, -0.15355601906776428, 1.5435709953308105, -1.1900867223739624, -0.19068582355976105, -0.654022753238678, -0.4025813043117523, -0.02338259480893612, -0.191551074385643, -1.6503150463104248, 1.0954914093017578, -1.163268804550171, -0.6041250228881836, 1.396227478981018, 1.5660698413848877, 0.8728598952293396, 0.29807737469673157, -0.7915497422218323, -0.33277061581611633, -0.25169721245765686, 0.5367242693901062, 0.2887001037597656, 0.04058995842933655, 0.010245315730571747, 1.1643980741500854, 0.3781902492046356, 0.07328086346387863, 0.6573172211647034, -1.0195140838623047, -0.11363024264574051, -0.07654604315757751, -0.037379082292318344, 0.8714058995246887, -0.6221709251403809, 0.25403067469596863, -0.7235115766525269, -0.03501659631729126, -0.1580413430929184, -1.0643888711929321, 0.8905365467071533, -0.4252234995365143, 0.13745439052581787, 0.3041015565395355, -0.0161062590777874, 1.2764256000518799, -0.45461761951446533, 0.24108383059501648, -1.0534511804580688, 0.43304067850112915, 0.5181148052215576, -0.16826632618904114, -0.33693110942840576, -1.0234776735305786, 0.4844219386577606, 0.9511089324951172, 0.27188023924827576, -0.007150387857109308, -0.7120168209075928, 1.5535331964492798, 0.7386195063591003, -0.8372353315353394, -1.712117075920105, 0.3506386876106262, -0.190874382853508, -0.8660781979560852, -0.07081738859415054, -0.4784744381904602, 1.5658823251724243, 0.8871094584465027, 1.2485253810882568, 1.7194876670837402, 0.6055388450622559, -0.3489236831665039, 0.5920685529708862, 0.5788446664810181, 1.4631987810134888, -0.27694252133369446, 0.38350850343704224, -0.5351517796516418, -1.0557384490966797, -0.35995689034461975, -0.3637806177139282, -0.3698273003101349, -1.0637896060943604, 0.875881016254425, -0.014486236497759819, -0.14209523797035217, -0.5700400471687317, -0.309736967086792, 0.17452427744865417, 0.9880223274230957], [-1.2452150583267212, 0.035050168633461, -0.3117612302303314, 1.3632307052612305, 0.4100024104118347, 0.4483577013015747, -1.0010892152786255, 1.4046903848648071, -0.8245489001274109, -1.1107984781265259, -0.20879530906677246, -1.4787707328796387, -0.8937547206878662, 1.252985954284668, -0.4425794184207916, -1.370734453201294, 1.1036734580993652, -0.189743772149086, 0.9413752555847168, 1.9893954992294312, 0.2586265206336975, 1.035409927368164, -0.19187644124031067, -1.7473479509353638, -3.626185178756714, -1.3455220460891724, -0.15682201087474823, -0.15878021717071533, -0.1309521645307541, -1.5940202474594116, -1.2239089012145996, 1.216617465019226, -0.2752941846847534, -0.005833892151713371, -0.8706597089767456, -1.4105219841003418, 0.19817045331001282, -2.5313990116119385, 0.24319319427013397, 0.5313823223114014, -0.1479983776807785, -1.0527186393737793, 0.9441131353378296, -1.8295787572860718, -0.9025473594665527, -0.13508574664592743, -0.33148303627967834, -0.9295184016227722, -1.7124465703964233, -0.31545811891555786, 0.5877910256385803, -0.5332607626914978, 1.4861189126968384, -0.7624161243438721, 0.9524933695793152, 1.5154820680618286, 0.7072630524635315, -0.2142459899187088, 2.2534077167510986, -1.0143004655838013, 1.4188357591629028, -0.6419584155082703, -1.5901751518249512, -0.9979014992713928, -1.2166281938552856, -0.1018938198685646, -1.1064481735229492, -0.840179979801178, 1.0122311115264893, -0.7462053894996643, -0.35968783497810364, -0.4433627426624298, -1.084143042564392, -0.23963721096515656, 0.9478196501731873, -1.4697344303131104, -0.5782597064971924, -1.3254642486572266, -0.29288068413734436, -0.3844098150730133, 1.288395881652832, 0.7931947112083435, 0.7389885783195496, -0.8952866792678833, -1.9121012687683105, -0.8811134696006775, -1.1705578565597534, -0.7766795754432678, 0.5462279915809631, 1.2811808586120605, 0.059223294258117676, -0.005783434025943279, 1.0530800819396973, 1.002700686454773, -1.0340949296951294, -0.16622917354106903, 0.5683966875076294, -0.6184030771255493, -0.6950834393501282, 0.5603476762771606, -0.7266674041748047, -0.21176455914974213, -1.6733107566833496, -1.1740198135375977, -1.3246229887008667, -0.3272639513015747, 0.6914439797401428, -0.6696503162384033, 1.7026482820510864, 0.1762911081314087, -0.25009071826934814, -0.9952572584152222, -1.3737781047821045, -0.16950571537017822, -0.020751116797327995, 0.5204784870147705, -0.47704970836639404, -0.03586801141500473, 1.1186178922653198, 0.9646469950675964, -1.9410085678100586, 1.8708935976028442, -0.10027303546667099, 0.04141395539045334, 0.13637258112430573, -1.0438119173049927, 0.5764167904853821, -0.9499973058700562], [-0.5347754955291748, 0.2584691643714905, 0.5567259192466736, -0.8345999717712402, -1.7447484731674194, 1.0966691970825195, -0.5272272825241089, 0.635011613368988, -0.40233170986175537, 1.0656535625457764, 0.04756073281168938, 0.40917477011680603, 1.0203279256820679, 0.8654645681381226, -0.8554061055183411, 0.4046567380428314, 0.800621747970581, -0.2812044322490692, 0.6166818141937256, -0.5199698209762573, 2.140387535095215, -0.32841774821281433, -0.04335114359855652, 0.2336958348751068, 0.7458881139755249, -0.9029912948608398, 1.0670711994171143, -0.31671786308288574, -1.5419292449951172, 0.3460111618041992, 0.0872451514005661, 0.8202843070030212, 0.500507116317749, -0.8421432971954346, -0.3158913254737854, -1.1575907468795776, 1.1505613327026367, 1.4193880558013916, -0.1898324340581894, -0.9191452264785767, 0.9691200852394104, -0.4535375237464905, 1.439984679222107, -1.282658338546753, 1.1431492567062378, 1.395017147064209, -0.6022879481315613, 0.615290641784668, -0.19998405873775482, 0.25577571988105774, 0.4647766947746277, -0.532189667224884, 1.128517746925354, -0.21878062188625336, 0.013352681882679462, 1.200961709022522, -0.7341068983078003, -1.2721714973449707, -0.49383047223091125, 0.7249591946601868, 0.750243604183197, -1.3886029720306396, -0.052676327526569366, 1.1670938730239868, -0.6579245328903198, 1.0237808227539062, -0.8299887776374817, -0.3719956576824188, 0.7160720825195312, 0.4215657413005829, -0.11441539227962494, -1.4360038042068481, 0.6947094798088074, -0.26985758543014526, 0.9168351292610168, -0.4133186340332031, -0.5284400582313538, -0.4663769006729126, -0.4640003740787506, -0.4800409972667694, -0.43929365277290344, -0.6082683801651001, 0.35504260659217834, 0.008647690527141094, -0.5609356164932251, 0.9076112508773804, -0.04237346351146698, 0.9066495895385742, 0.24981583654880524, 0.5147941708564758, 1.1973600387573242, -0.6393596529960632, -1.3412529230117798, -0.025025373324751854, 1.6303187608718872, -0.6359090805053711, -0.2800900638103485, 0.31388887763023376, 0.7036065459251404, 0.9519909024238586, 1.552838921546936, 0.4022149443626404, 0.9210808277130127, -0.06288875639438629, -0.5933457016944885, 0.6407893896102905, 0.48496773838996887, -0.8036587238311768, 0.9098108410835266, 1.0959936380386353, -0.48039260506629944, -0.5914233326911926, -0.2149091511964798, -0.5447365641593933, -1.0124796628952026, -1.3861315250396729, 0.39755770564079285, -0.6033720374107361, -0.18217916786670685, 1.2180001735687256, 0.12751050293445587, 0.6855026483535767, 0.5583387613296509, -0.2167159467935562, -0.17746876180171967, 0.2506925165653229, -0.37583521008491516, -1.9941658973693848], [0.6033805012702942, -0.90400630235672, -0.4643840491771698, 0.5963205695152283, -0.26391521096229553, 0.1472923457622528, 0.3725692331790924, -0.706498384475708, 1.175255298614502, 0.5402696132659912, 1.2217462062835693, -0.8685440421104431, -0.9220771789550781, -1.5820990800857544, -0.07633767277002335, -0.5215294361114502, -0.8688520789146423, 0.9906408190727234, -0.5707442164421082, 0.778217613697052, -2.4042534828186035, 0.47950279712677, 1.28444504737854, 0.3190687596797943, -0.6946955919265747, 0.5568401217460632, -0.88585364818573, -0.2519878149032593, -0.15822972357273102, -1.0409629344940186, -0.11880480498075485, -0.9228379726409912, 0.36650580167770386, -0.028117220848798752, 0.6592443585395813, -0.46707770228385925, 0.920554518699646, -0.10788959264755249, 0.8795016407966614, -0.6078389286994934, 1.7555854320526123, 0.6259662508964539, 0.6121718883514404, -1.251013159751892, -1.6750322580337524, -0.039289362728595734, 0.6437418460845947, -0.7679756879806519, -1.1020084619522095, -1.6476283073425293, 0.0038216824177652597, -0.9647521376609802, -0.2983799874782562, 0.9856473207473755, -0.913053035736084, 0.04477240517735481, -2.6979196071624756, 0.26109740138053894, 1.1532196998596191, -0.5055820941925049, 0.9982390999794006, 1.770638108253479, 1.0366026163101196, -0.09259098768234253, 0.6191010475158691, 0.3664707839488983, -1.8430914878845215, 0.16464821994304657, -1.0651483535766602, 0.5887197852134705, -0.4477579593658447, 0.285903662443161, -2.1046953201293945, -1.1864784955978394, 1.4752082824707031, -0.41521406173706055, 0.7040151953697205, -1.1991311311721802, -0.15751558542251587, -1.3784995079040527, 1.2628291845321655, -1.3407777547836304, 0.15725077688694, 0.7435215711593628, 0.37720054388046265, -1.397704839706421, 0.2305852323770523, -0.29760637879371643, 0.410502552986145, -0.9531459808349609, 0.04544108361005783, 1.136945366859436, 1.2994366884231567, -0.10711457580327988, 0.6608203053474426, 0.6055806279182434, 0.5376279950141907, 1.1271276473999023, -0.08594201505184174, 0.12078431993722916, -0.8648582696914673, 0.07493456453084946, -0.4449161887168884, 0.3768911361694336, -0.15447409451007843, 0.6211545467376709, 0.26055875420570374, -0.17957599461078644, 1.6867579221725464, -0.10532435029745102, -1.117288589477539, 0.8158890008926392, -1.1476852893829346, 0.5437076687812805, -1.0046806335449219, 0.06506180018186569, 0.925092875957489, -0.7111780643463135, 0.7278050780296326, 1.439513087272644, -0.6434158682823181, 1.7592694759368896, -0.35767561197280884, -0.37444236874580383, -0.16539956629276276, -0.501872181892395, 1.6748030185699463, 1.7580887079238892], [0.5545262694358826, 3.4715018272399902, -0.35412004590034485, 0.42460039258003235, -0.16101211309432983, -2.230100154876709, -1.461287260055542, 1.1782398223876953, -1.1372624635696411, 2.731475353240967, -1.609181523323059, -0.04082796722650528, -0.3379652500152588, -0.2431463897228241, -0.8667017817497253, 0.48653945326805115, 0.9545441269874573, -1.433799386024475, -2.8119163513183594, 1.045367956161499, -0.6355042457580566, -2.950531482696533, 2.0098540782928467, -0.43390336632728577, 0.3421980142593384, 0.18936972320079803, -1.8671618700027466, 1.1886264085769653, -0.8500572443008423, -2.262272596359253, -0.37650763988494873, 1.7795058488845825, 0.24092045426368713, 0.912555992603302, -0.5671489834785461, 0.8079380989074707, 2.971722364425659, -3.0764331817626953, -0.2988911271095276, 2.9886791706085205, 0.24281136691570282, -1.136356234550476, 1.3944599628448486, -2.3540592193603516, -1.045789122581482, 2.06906795501709, -0.69803786277771, 2.18239688873291, -0.657508373260498, -1.4130152463912964, -0.727976381778717, -1.7745682001113892, 1.8871766328811646, 0.22809508442878723, -2.0940935611724854, -0.5972306728363037, 0.14691191911697388, 0.8088722229003906, 1.1946781873703003, 3.9643778800964355, -1.5333924293518066, 1.6691670417785645, 0.435687780380249, 2.5325303077697754, 1.5482534170150757, -0.527816653251648, 0.7396572828292847, 0.31623831391334534, 1.8028349876403809, -1.9842652082443237, 0.038433533161878586, 2.3567988872528076, 0.2696714401245117, -2.2864418029785156, 0.8031859397888184, -1.2032685279846191, -0.8333543539047241, 0.11302455514669418, -0.22268246114253998, -0.41145092248916626, -1.7115705013275146, 0.41603711247444153, 0.24949567019939423, -0.47715041041374207, -0.14784134924411774, 0.6326987743377686, -0.5461437106132507, 0.2647473216056824, -1.706175684928894, 0.4628094434738159, 0.4604835510253906, 1.4368107318878174, -0.6974565982818604, -1.431800127029419, 3.398644208908081, 0.5420868992805481, 2.8086767196655273, -0.36366593837738037, -2.6376259326934814, 0.8819165825843811, -2.4225401878356934, -0.48115649819374084, 0.47733569145202637, 1.7740070819854736, -1.8673231601715088, 2.9415531158447266, 1.969787836074829, 1.7799348831176758, 0.7785012722015381, -1.7382354736328125, -1.064564824104309, 1.4375802278518677, -1.35537850856781, -0.5728397965431213, 2.7684860229492188, -1.143345832824707, 3.0048155784606934, 1.7885605096817017, -0.803604006767273, 1.2416911125183105, -1.3245116472244263, 0.03701983764767647, -2.8234477043151855, 2.998533248901367, 1.5923566818237305, 1.6362398862838745, -1.3370176553726196, 2.6220762729644775], [2.2582008838653564, -1.4448530673980713, -1.856386423110962, 0.895328164100647, 0.11427070200443268, 1.1717565059661865, -0.8021661043167114, 1.0245130062103271, 0.7477814555168152, 1.30807363986969, -1.5622261762619019, -0.9599224328994751, -2.2276289463043213, -0.31168702244758606, -0.17476364970207214, -0.27729541063308716, 0.7450934052467346, -1.9055253267288208, 0.9910627603530884, -0.9683383107185364, -0.9586604237556458, 1.510459065437317, 0.611815869808197, -0.03437859192490578, 0.11336776614189148, -0.2540280222892761, 1.1134872436523438, 0.07208174467086792, -0.02375052496790886, -1.6936142444610596, 0.29554781317710876, -0.14324501156806946, 0.24971593916416168, 0.7565293312072754, -1.000891923904419, 0.25220125913619995, 0.7539817690849304, 0.4064050316810608, -0.4143955409526825, -0.37572941184043884, -1.5514086484909058, -0.8025102615356445, 0.48819801211357117, 0.6015641093254089, 0.9426034688949585, 0.9441781640052795, 0.509349524974823, 0.7411935925483704, -0.28094586730003357, -0.4993531405925751, 0.32889506220817566, -1.8951412439346313, 0.44087591767311096, 2.230029344558716, 0.42606765031814575, 1.1772956848144531, 0.9732155203819275, -0.8358671069145203, -1.106650471687317, 0.3834516406059265, -0.3282383978366852, 0.2367706000804901, -1.126126766204834, 0.3507205843925476, 0.3271072506904602, -1.24765944480896, 1.7688894271850586, 0.4065450429916382, -1.2395483255386353, -0.26922157406806946, 1.4881701469421387, 0.956815779209137, -0.3407430648803711, 1.5249073505401611, -0.4370650053024292, -0.9509856700897217, 0.9824169278144836, -0.780772864818573, -0.6125386953353882, 0.23700165748596191, -1.6002904176712036, 1.0187588930130005, -1.6207730770111084, -0.026507874950766563, 0.014278293587267399, -0.25748685002326965, -0.5234372615814209, -0.46740370988845825, -0.2139309048652649, 0.5906431078910828, -0.5077835917472839, -0.9540785551071167, 0.8223694562911987, 0.5378502011299133, -0.2577912509441376, -1.061302900314331, 0.8456388115882874, 0.38672322034835815, 0.42038866877555847, -0.838205873966217, 0.9734686017036438, 0.23855102062225342, 1.167981505393982, 0.16079722344875336, -0.44717103242874146, -1.6346867084503174, -0.07239430397748947, -1.3050017356872559, -0.5148608684539795, -0.7428485155105591, -1.2690390348434448, -0.9701945781707764, 1.2087901830673218, -0.8523861765861511, -0.43573981523513794, 1.2352608442306519, -0.3488074839115143, 0.5437533259391785, 0.49369683861732483, 0.20162805914878845, 0.21098051965236664, 0.7444086074829102, -0.2798314094543457, 0.865252673625946, -0.7315540313720703, 1.2275198698043823, -0.4875672161579132, 0.331754207611084], [-0.23960420489311218, 0.15002615749835968, -0.11798719316720963, -0.35712236166000366, 0.10347533226013184, 0.12661442160606384, -0.22926466166973114, 0.4298307001590729, 0.24897348880767822, 0.13254250586032867, 0.28101831674575806, 0.06869035959243774, 0.41865089535713196, 0.27038124203681946, -0.16283577680587769, -0.028322827070951462, 0.11770476400852203, 0.23392532765865326, -0.0686425268650055, -0.22404314577579498, -0.12189046293497086, 0.15523377060890198, 0.016336021944880486, -0.2523692846298218, -0.2753164768218994, 0.02313576452434063, 0.3781972825527191, 0.4394146203994751, 0.13174308836460114, 0.06171490252017975, -0.11007823050022125, 0.21455420553684235, 0.2123984694480896, 0.1973961591720581, -0.41900956630706787, 0.11475112289190292, -0.542941153049469, -0.3220263123512268, 0.30531856417655945, -0.33970874547958374, 0.2730410099029541, 0.36627325415611267, 0.36642441153526306, 0.22686201333999634, -0.21098563075065613, -0.02517559565603733, -0.5207945704460144, 0.23096980154514313, -0.5741482973098755, -0.03861676901578903, -0.3059405982494354, 0.10134308785200119, -0.1314774602651596, -0.15275701880455017, 0.031295739114284515, -0.19827598333358765, -0.10117843002080917, -0.15531452000141144, -0.44745340943336487, 0.1930006742477417, -0.06879589706659317, 0.10837510228157043, 0.05561095103621483, 0.4406067728996277, -0.37808850407600403, 0.2538894712924957, -0.1968664973974228, 0.1312679499387741, 0.0602988600730896, 0.07460132986307144, -0.1965576857328415, 0.03060765191912651, 0.07275890558958054, -0.11225424706935883, 0.016664927825331688, -0.14127586781978607, -0.3881298005580902, -0.18993650376796722, 0.6338801383972168, -0.16420415043830872, -0.15955586731433868, 0.2067616581916809, -0.028223486617207527, -0.06848222017288208, 0.4246043562889099, 0.39793848991394043, 0.23206348717212677, -0.10475122183561325, -0.5794546604156494, 0.35089975595474243, 0.08931026607751846, 0.12613597512245178, -0.12140112370252609, -0.20347696542739868, -0.11514360457658768, 0.38369783759117126, -0.11939884722232819, -0.22751852869987488, -0.2954709827899933, -0.19033294916152954, -0.1488858163356781, -0.41220399737358093, -0.2647315263748169, 0.42936933040618896, 0.2547144293785095, -0.2287137806415558, -0.14355261623859406, 0.05300426483154297, -0.3249437212944031, -0.05954867601394653, -0.2317701131105423, -0.1193280890583992, -0.2636808156967163, -0.9137845039367676, 0.3569341003894806, 0.19473612308502197, -0.3346985876560211, 0.28082066774368286, -0.23877044022083282, 0.19624102115631104, -0.3193245232105255, 0.020879799500107765, -0.21537353098392487, 0.16783125698566437, -0.3316364288330078, -0.2074834257364273, 0.046304307878017426, 0.16994301974773407], [-0.06657140702009201, -0.10862166434526443, 0.005587981082499027, -0.2769249677658081, -0.18463504314422607, -0.32081273198127747, -0.11047851294279099, -0.18698404729366302, -0.22048978507518768, 0.05568265542387962, -0.21282148361206055, 0.024473000317811966, 0.5288302302360535, 0.23742413520812988, -0.1194864809513092, -0.02907627820968628, -0.15605542063713074, 0.003157765371724963, -0.07487641274929047, -0.13603636622428894, 0.3460187613964081, -0.2845706343650818, 0.276535302400589, 0.061713870614767075, 0.0043451194651424885, 0.16076058149337769, -0.40460461378097534, -0.3469991683959961, 0.01387232169508934, 0.3564252555370331, -0.2751638889312744, -0.041506558656692505, -0.2893469035625458, -0.024882987141609192, -0.34352874755859375, 0.07586005330085754, 0.14108797907829285, 0.3221141993999481, -0.16742990911006927, 0.04313087463378906, -0.3396204113960266, 0.1315562129020691, 0.025187471881508827, 0.0845392569899559, 0.049976713955402374, -0.10266026109457016, 0.14413580298423767, -0.04965364933013916, 0.35235556960105896, -0.15884269773960114, -0.11390796303749084, -0.08089219033718109, 0.22637099027633667, 0.1657850742340088, -0.18481524288654327, 0.4747346341609955, 0.00858010072261095, 0.08398490399122238, -0.029803160578012466, 0.1982591152191162, -0.17928501963615417, 0.42306578159332275, -0.27568137645721436, -0.6781967282295227, -0.40380245447158813, 0.3246500790119171, -0.2086036056280136, -0.010079458355903625, -0.18102166056632996, 0.17585134506225586, 0.06935398280620575, -0.15155503153800964, -0.12110868841409683, 0.08695738762617111, 0.20076899230480194, 0.09377790242433548, 0.2096371352672577, 0.13478678464889526, -0.5138893723487854, -0.24140305817127228, 0.2932406961917877, 0.4237860441207886, -0.3155837059020996, -0.26030728220939636, -0.1781364381313324, -0.21309320628643036, 0.319767564535141, -0.09423459321260452, 0.27534791827201843, -0.26670393347740173, 0.12989197671413422, -0.08219309151172638, -0.047390054911375046, 0.14399008452892303, -0.11117541790008545, -0.24862045049667358, 0.40619537234306335, -0.16596883535385132, 0.3932165503501892, -0.45076441764831543, 0.15058161318302155, -0.03916612267494202, 0.07071156799793243, 0.23958361148834229, 0.0023859329521656036, -0.11527647823095322, -0.05006609112024307, 0.10098876059055328, 0.10170310735702515, -0.35584649443626404, -0.34453287720680237, -0.0312967374920845, 0.14622680842876434, 0.25515416264533997, 0.6951481699943542, -0.7182324528694153, 0.2830478847026825, -0.3776719868183136, -0.14218303561210632, 0.022141776978969574, 0.4464792013168335, 0.25999635457992554, -0.2973094582557678, -0.6381993889808655, -0.1669209897518158, -0.004520933143794537, 0.13801220059394836, 0.020384998992085457], [-0.3198772370815277, -0.3461269438266754, 0.1625545471906662, -0.21936535835266113, 0.5339373350143433, 0.24142952263355255, -0.16057372093200684, -0.22141101956367493, 0.2833598256111145, -0.03656546398997307, -0.05936764180660248, -0.06458894163370132, -0.27009493112564087, -0.24561893939971924, 0.21919240057468414, -0.060239892452955246, 0.11806776374578476, -0.14267773926258087, -0.034769508987665176, 0.0054367282427847385, 0.3081020712852478, 0.11850972473621368, 0.2232554405927658, 0.5101736187934875, 0.02263028733432293, 0.17004559934139252, -0.01747141219675541, 0.219169482588768, 0.11322411149740219, -0.0413251593708992, 0.3175843358039856, 0.6664055585861206, -0.24117831885814667, -0.083399198949337, -0.2600554823875427, -0.2873043119907379, -0.47222480177879333, 0.6252643465995789, 0.12518231570720673, 0.08840742707252502, 0.18366889655590057, -0.0961100310087204, -0.11817806959152222, 0.2321314513683319, -0.24068309366703033, 0.038374535739421844, -0.40700095891952515, -0.07816098630428314, 0.1300380676984787, -0.3881056308746338, 0.16833212971687317, 0.028014596551656723, -0.2413836568593979, 0.14163057506084442, 0.31625792384147644, 0.10575225204229355, 0.07830046117305756, 0.0020231353119015694, 0.02885122038424015, 0.16623011231422424, -0.07779994606971741, 0.19179290533065796, -0.29754510521888733, -0.13719232380390167, -0.16242145001888275, 0.239817813038826, -0.11606277525424957, -0.018838440999388695, 0.09584444016218185, -0.27597492933273315, -0.3357665538787842, -0.10933547466993332, 0.05565602704882622, -0.3039320707321167, 0.11271386593580246, -0.3297770619392395, -0.13688097894191742, -0.10573337227106094, -0.22391104698181152, -0.21408842504024506, 0.0892442911863327, 0.07423316687345505, 0.00899879913777113, 0.12096583843231201, -0.0334952287375927, -0.1590667963027954, -0.13622866570949554, 0.0013813399709761143, -0.19619746506214142, 0.2705862522125244, -0.18075421452522278, 0.08263658732175827, -0.03503158316016197, -0.11388478428125381, -0.26061251759529114, -0.3402395248413086, -0.3478229343891144, -0.05953891575336456, -0.06493562459945679, -0.30242860317230225, 0.1617891639471054, 0.12794499099254608, 0.14697273075580597, 0.0710320696234703, 0.4017336070537567, 0.04386812821030617, -0.16941437125205994, -0.11756632477045059, 0.05033891275525093, -0.17760947346687317, -0.4474998116493225, -0.3222009837627411, -0.13414104282855988, -0.18871480226516724, -0.11447037756443024, -0.3041844964027405, 0.27471017837524414, 0.043778568506240845, -0.30611637234687805, -0.46029505133628845, 0.19057874381542206, -0.09659966081380844, -0.10578785091638565, -0.2032095193862915, -0.2557790279388428, -0.08300009369850159, -0.40763118863105774, 0.589927077293396], [-0.12672053277492523, 0.04062497243285179, -0.008728991262614727, -0.20064489543437958, 0.026269856840372086, -0.21116705238819122, -0.07353094220161438, -0.2348761260509491, 0.4414099454879761, 0.06726716458797455, -0.07091499119997025, 0.16882823407649994, -0.22757937014102936, -0.19965368509292603, -0.011739367619156837, -0.3163631856441498, -0.20776019990444183, -0.1861598789691925, -0.45877254009246826, -0.16215816140174866, 0.14364072680473328, -0.213025763630867, 0.11666055023670197, 0.04175076633691788, 0.04982063174247742, -0.29948869347572327, 0.2975860834121704, 0.08035823702812195, -0.2411935031414032, -0.4067379832267761, -0.15989479422569275, -0.23648987710475922, -0.11787313967943192, -0.23129189014434814, 0.4144723415374756, 0.05786513537168503, 0.4066122770309448, -0.7052627205848694, 0.054016709327697754, 0.2251715213060379, 0.08666616678237915, 0.0063261124305427074, -0.23336583375930786, -0.15349091589450836, 0.3009706139564514, -0.404573917388916, 0.32397690415382385, 0.1721188873052597, 0.1758536547422409, 0.02854742668569088, -0.17132113873958588, 0.003958411514759064, -0.12154166400432587, -0.24856038391590118, -0.023167716339230537, -0.017027419060468674, 0.35294467210769653, -0.23538647592067719, -0.3057079315185547, -0.18086020648479462, 0.04480046406388283, -0.41538503766059875, -0.3084641098976135, -0.03422877937555313, -0.14769020676612854, -0.01042948942631483, -0.25995102524757385, 0.05648926645517349, -0.050815969705581665, -0.33108821511268616, -0.04620926454663277, 0.018523890525102615, 0.1989479959011078, 0.03480445593595505, -0.10035839676856995, -0.07265090197324753, 0.3286275267601013, -0.2489999383687973, -0.008489240892231464, 0.24712634086608887, 0.47050121426582336, 0.16437406837940216, -0.21744918823242188, 0.33884397149086, -0.28766801953315735, -0.14529258012771606, 0.05037819221615791, -0.1902027130126953, 0.2922130227088928, 0.3089413046836853, 0.44690656661987305, 0.00752879586070776, 0.16894018650054932, -0.10781925171613693, -0.41457754373550415, -0.03098057582974434, 0.3512229025363922, -0.05337368696928024, -0.021560994908213615, -0.10939155519008636, -0.24918992817401886, 0.028658201918005943, 0.18447363376617432, -0.015100807882845402, -0.07181834429502487, -0.02436736971139908, 0.21840792894363403, 0.5615050792694092, -0.29384490847587585, 0.1699928343296051, 0.043279070407152176, -0.2805381417274475, -0.3211533725261688, 0.4615080952644348, 0.12336080521345139, 0.1709153652191162, 0.30241647362709045, -0.025430351495742798, -0.11157812923192978, -0.041781503707170486, 0.15133033692836761, 0.20488697290420532, 0.3699493706226349, 0.1334478110074997, 0.3869625926017761, 0.050470419228076935, -0.2643442451953888, -0.20074069499969482], [0.16472630202770233, -0.09095364809036255, 0.2039307802915573, 0.14099033176898956, -0.16555728018283844, -0.054903190582990646, 0.17787900567054749, 0.1719336360692978, -0.16671350598335266, 0.17232613265514374, 0.2426600605249405, -0.30398425459861755, -0.13850471377372742, 0.06532692164182663, -0.04830748215317726, 0.18329767882823944, 0.24454984068870544, -0.004446239676326513, -0.050889644771814346, -0.1593509018421173, -0.02336212992668152, 0.15783411264419556, 0.02728855237364769, -0.6844887733459473, -0.129191592335701, 0.06941031664609909, -0.24828855693340302, 0.06538724154233932, -0.03967047110199928, 0.19077879190444946, -0.26958349347114563, -0.0926111713051796, 0.22691479325294495, -0.3461988568305969, 0.14615698158740997, -0.1100652739405632, 0.3491861820220947, -0.03221013769507408, 0.22468331456184387, -0.07866115868091583, -0.32277175784111023, 0.03205840289592743, -0.10149451345205307, 0.1420448273420334, 0.1489643156528473, -0.25619977712631226, -0.05654764547944069, -0.09439793974161148, -0.014640485867857933, 0.14983141422271729, 0.021647382527589798, -0.23374295234680176, 0.1673058718442917, 0.06804794073104858, 0.2729911208152771, 0.3417673110961914, -0.09645514190196991, -0.36741742491722107, 0.09904824197292328, 0.30770090222358704, -0.10693159699440002, -0.12309117615222931, -0.08213949203491211, -0.4841780364513397, -0.13813132047653198, -0.13788361847400665, -0.22769802808761597, 0.06238623335957527, -0.10770575702190399, 0.1010633036494255, -0.16926752030849457, -0.22359733283519745, 0.12659458816051483, -0.008503220975399017, -0.011142078787088394, 0.22203002870082855, 0.11574634164571762, 0.25599581003189087, -0.43702298402786255, -0.20348523557186127, -0.731762170791626, 0.069333516061306, 0.3722913861274719, 0.4949330985546112, -0.15207669138908386, -0.13519002497196198, 0.27308234572410583, 0.182453453540802, -0.1586698442697525, -0.4273063540458679, 0.023458028212189674, 0.1606293022632599, 0.049064893275499344, 0.00503508560359478, -0.08540886640548706, 0.3048556447029114, 0.0911010280251503, 0.0832337886095047, 0.16549444198608398, 0.020573211833834648, 0.32990625500679016, -0.04654345661401749, -0.2923860251903534, 0.3126338720321655, -0.02610926702618599, 0.06827665120363235, -0.01732274889945984, -0.021929843351244926, 0.006341214291751385, -0.16080854833126068, -0.16217344999313354, -0.2122621089220047, 0.04118165001273155, 0.07707243412733078, 0.2135860025882721, -0.03940051048994064, -0.0011996036628261209, -0.13484938442707062, -0.30544501543045044, 0.17860834300518036, -0.14388331770896912, -0.31595873832702637, -0.6247228980064392, -0.026561086997389793, 0.11476754397153854, 0.2234448939561844, 0.31438225507736206, 0.057880885899066925], [0.2925580143928528, -0.12588906288146973, 0.22051717340946198, -0.16568394005298615, 0.018022963777184486, -0.16024987399578094, -0.32079800963401794, -0.2701135575771332, -0.2747017443180084, 0.25809210538864136, -0.0433354414999485, -0.05476895719766617, -0.09016591310501099, 0.32246264815330505, 0.10692863911390305, 0.33160799741744995, 0.007564023602753878, -0.34287208318710327, -0.04425603896379471, 0.21160058677196503, -0.15479010343551636, 0.01857038401067257, 0.10840419679880142, 0.021575655788183212, -0.29982736706733704, 0.11918816715478897, -0.050089865922927856, 0.24098902940750122, 0.013626514934003353, 0.22645847499370575, -0.06559243053197861, 0.17995086312294006, -0.06992384791374207, -0.10883233696222305, -0.21049709618091583, -0.11397691071033478, -0.22554610669612885, -0.06973974406719208, -0.08820275217294693, 0.14201168715953827, -0.0379367470741272, -0.337353378534317, 0.10939957201480865, 0.06113226339221001, 0.25174272060394287, -0.4166646897792816, -0.40192729234695435, -0.050202544778585434, 0.3594502806663513, 0.05126720666885376, 0.27150627970695496, 0.11111485958099365, -0.007284932769834995, -0.30465108156204224, 0.13624207675457, 0.29025396704673767, -0.04783233627676964, -0.1146513968706131, -0.2204742580652237, 0.011258327402174473, 0.015022629871964455, 0.17836551368236542, 0.05496684089303017, -0.2515605688095093, 0.11004577577114105, 0.09958604723215103, -0.18668729066848755, -0.2111486792564392, 0.18039408326148987, -0.4347136616706848, 0.41258710622787476, -0.29598480463027954, 0.014733396470546722, -0.6510977149009705, 0.037491779774427414, 0.1517631709575653, -0.06758823990821838, -0.2302144318819046, -0.2932037115097046, 0.38487279415130615, 0.24383865296840668, -0.14319920539855957, -0.15736010670661926, -0.19902440905570984, 0.25182947516441345, -0.21510319411754608, -0.39061373472213745, -0.17368873953819275, 0.16648176312446594, -0.21411077678203583, 0.25056588649749756, 0.14382769167423248, 0.5495523810386658, 0.13349153101444244, 0.08226709812879562, -0.38626134395599365, -0.1002897322177887, 0.01242045871913433, 0.20918676257133484, -0.05513468384742737, 0.16722466051578522, 0.28346630930900574, 0.23940889537334442, 0.15503475069999695, 0.027040308341383934, 0.2913071811199188, -0.048318132758140564, -0.064808689057827, -0.04663261026144028, -0.21840029954910278, -0.36771178245544434, -0.13697129487991333, -0.053138524293899536, -0.025981290265917778, 0.1639852672815323, 0.3507239520549774, 0.09757371991872787, -0.051079075783491135, 0.17597642540931702, -0.46341031789779663, 0.03800882399082184, -0.14644162356853485, -0.0016970778815448284, -0.29647111892700195, -0.28586050868034363, 0.05265161022543907, 0.032930947840213776, 0.040932897478342056], [-0.37183114886283875, -0.1602543592453003, 0.008500167168676853, -0.030316131189465523, 0.18827368319034576, 0.0056389025412499905, 0.3106513023376465, -0.48397892713546753, -0.041763994842767715, 0.25045955181121826, 0.08884990215301514, 0.23179320991039276, 0.014957974664866924, -0.022951344028115273, -0.035796988755464554, -0.31256529688835144, -0.061967432498931885, -0.04061846807599068, 0.19358746707439423, -0.09463533014059067, 0.4479998052120209, -0.10579444468021393, 0.32928603887557983, 0.016743561252951622, 0.13715341687202454, -0.45720481872558594, 0.4031454920768738, -0.3667989671230316, 0.4151393175125122, -0.12361836433410645, 0.0919000580906868, 0.04362640902400017, 0.12275172770023346, -0.008700655773282051, -0.3442986309528351, 0.01740111969411373, 0.09324312210083008, 0.3347548544406891, -0.13176195323467255, 0.4346095025539398, 0.19815368950366974, -0.2556050717830658, 0.011538192629814148, -0.19271478056907654, 0.10055891424417496, -0.2288167029619217, 0.010732186026871204, -0.019331810995936394, 0.04380153492093086, 0.07662241160869598, 0.17624904215335846, -0.05832799896597862, -0.4457676410675049, -0.2245488166809082, 0.0516633540391922, -0.14551562070846558, -0.13905006647109985, -0.06995575875043869, -0.02708447352051735, 0.14494110643863678, 0.060998909175395966, -0.12189508229494095, 0.42739206552505493, 0.4323459267616272, -0.18960778415203094, -0.07768481224775314, 0.03952905163168907, -0.25255629420280457, -0.2876472473144531, -0.03278548642992973, -0.054233916103839874, 0.019059546291828156, -0.06341499835252762, 0.5009263753890991, 0.2529946267604828, 0.09746698290109634, -0.1098196804523468, 0.044212084263563156, -0.12777958810329437, 0.05132756382226944, -0.21652063727378845, 0.10899779945611954, 0.12959936261177063, -0.02183825522661209, 0.020265011116862297, -0.162325918674469, -0.33777645230293274, -0.1045030951499939, -0.051967039704322815, 0.037285856902599335, 0.13517946004867554, -0.26826366782188416, 0.06223393604159355, 0.010945964604616165, -0.08241461217403412, -0.2715882360935211, 0.07102879881858826, -0.35659682750701904, 0.13509435951709747, -0.23052944242954254, 0.07682935893535614, 0.3445201814174652, -0.05943478271365166, -0.0955703854560852, 0.06871858984231949, -0.09790024161338806, 0.009157491847872734, -0.27166470885276794, 0.3170534670352936, -0.3672981262207031, -0.042720139026641846, -0.39273637533187866, 0.07278165966272354, -0.09432324022054672, -0.18440139293670654, -0.07775754481554031, -0.029491648077964783, 0.016819527372717857, -0.34851300716400146, 0.4837643504142761, -0.18091383576393127, 0.07061702013015747, -0.3218229115009308, 0.10220018029212952, -0.26823851466178894, 0.22085636854171753, 0.29976075887680054, 0.08555625379085541], [0.5829349756240845, 0.09588416665792465, 0.4351460337638855, -0.033662259578704834, 0.030180837959051132, -0.22092744708061218, 0.2559593617916107, -0.04451741650700569, 0.11126957833766937, 0.06272683292627335, 0.15290352702140808, -0.045058682560920715, 0.1917649507522583, 0.28691819310188293, -0.3501531779766083, 0.339890718460083, -0.21658030152320862, -0.16051949560642242, 0.20589594542980194, 0.11731068789958954, -0.10305985063314438, 0.026744944974780083, 0.09583916515111923, 0.07697277516126633, -0.17525753378868103, 0.25548863410949707, 0.18778187036514282, -0.19014230370521545, 0.3224788010120392, -0.11728497594594955, -0.30390945076942444, -0.32323384284973145, -0.19732064008712769, 0.03260781243443489, 0.14789023995399475, 0.17075017094612122, -0.2243141382932663, -0.11109515279531479, -0.3378192186355591, 0.24196121096611023, 0.1678951382637024, -0.2633855938911438, -0.548409104347229, -0.018533606082201004, -0.12515074014663696, -0.017875123769044876, 0.08340571820735931, -0.09454276412725449, -0.17945407330989838, -0.02557954378426075, 0.06742096692323685, -0.2023090124130249, 0.03958725556731224, 0.015322805382311344, 0.09708362817764282, 0.3356226086616516, -0.05324286222457886, 0.028820356354117393, 0.18960678577423096, 0.483256071805954, 0.13258062303066254, -0.18295209109783173, 0.033820539712905884, 0.1586698293685913, -0.051011428236961365, 0.48815643787384033, -0.13454943895339966, 0.003811429487541318, 0.0019370759837329388, -0.3156473934650421, -0.026598505675792694, -0.34597110748291016, 0.021323321387171745, -0.09649191796779633, 0.20085850358009338, -0.09688802063465118, -0.07739685475826263, -0.08966173976659775, -0.1853000521659851, 0.016356192529201508, -0.12473202496767044, -0.14652426540851593, 0.11347556859254837, 0.09733221679925919, 0.012461011298000813, 0.318722128868103, -0.3012222647666931, -0.00652796495705843, -0.32811275124549866, -0.4287355840206146, 0.6103867888450623, 0.16007141768932343, 0.05773796886205673, -0.36297234892845154, -0.03589276224374771, -0.3249717056751251, -0.04224369302392006, 0.14086338877677917, 0.14070141315460205, 0.10607387870550156, 0.31480854749679565, 0.1415214240550995, 0.2773003876209259, 0.14550021290779114, 0.40392810106277466, -0.038021497428417206, -0.07396181672811508, 0.10089021921157837, 0.0008409710717387497, -0.13213913142681122, 0.2926598787307739, -0.01023938786238432, -0.030056914314627647, 0.27817094326019287, 0.01183332595974207, 0.09806287288665771, -0.3061240315437317, 0.058396194130182266, 0.0652773454785347, 0.2352619767189026, -0.19145341217517853, -0.11215586215257645, -0.42578741908073425, -0.23372603952884674, 0.05763021484017372, 0.15127462148666382, 0.10097309201955795, 0.30147793889045715], [-0.0974733754992485, 0.07290242612361908, 0.10233258455991745, 0.2721431851387024, 0.07042080909013748, -0.12000410258769989, -0.1828402876853943, -0.20980873703956604, -0.3150622546672821, -0.3499774932861328, 0.08542657643556595, -0.019560765475034714, -0.09090490639209747, -0.2850002348423004, -0.4071538746356964, -0.08801516890525818, 0.11662544310092926, -0.0885915607213974, -0.08447929471731186, 0.004861262161284685, -0.18090325593948364, -0.083144910633564, 0.061880238354206085, -0.41542908549308777, -0.2006871998310089, -0.19038406014442444, -0.15799812972545624, -0.5166268944740295, 0.365944504737854, -0.08433540910482407, -0.12661315500736237, -0.15853558480739594, 0.13173764944076538, -0.17313262820243835, -0.050529658794403076, 0.24392646551132202, 0.21824388206005096, -0.42954736948013306, -0.04895222932100296, -0.05119328945875168, -0.4509553611278534, 0.035686928778886795, -0.15160304307937622, -0.10337785631418228, 0.02025400660932064, 0.059998687356710434, 0.33146145939826965, -0.2414422184228897, 0.23348882794380188, -0.21187463402748108, -0.12642182409763336, 0.01452675461769104, 0.1758699268102646, -0.1353941559791565, -0.18306311964988708, -0.462968647480011, 0.39917469024658203, -0.24035099148750305, -0.15778934955596924, 0.11056959629058838, 0.13112103939056396, 0.12046817690134048, 0.12533453106880188, -0.14112494885921478, -0.04363078624010086, 0.05599916726350784, -0.25264298915863037, 0.00855294894427061, 0.035950493067502975, 0.2797086834907532, 0.19049455225467682, -0.1519431173801422, -0.021505730226635933, 0.2088046371936798, -0.18688516318798065, -0.19955120980739594, 0.045143891125917435, 0.08440720289945602, -0.18105889856815338, -0.4427758455276489, -0.4158689081668854, -0.2241174280643463, -0.2059023231267929, 0.2967436611652374, 0.011762210167944431, 0.07958289980888367, -0.11566068232059479, -0.23029190301895142, -0.04920414090156555, -0.1431696116924286, -0.20924794673919678, 0.10665799677371979, -0.2433326244354248, 0.2418898195028305, 0.058858536183834076, -0.15171775221824646, 0.2991519272327423, -0.08685270696878433, -0.012767580337822437, 0.19619283080101013, 0.26807108521461487, -0.11171403527259827, 0.13239960372447968, -0.06590012460947037, 0.2331857681274414, 0.08445333689451218, 0.0038206276949495077, -0.1343112587928772, -0.2764120399951935, -0.22344250977039337, 0.10288344323635101, 0.24518874287605286, -0.2396678328514099, 0.5244462490081787, -0.06648743152618408, 0.34371837973594666, -0.011421487666666508, 0.10265379399061203, -0.1519934982061386, 0.24423432350158691, -0.224614679813385, 0.15681201219558716, 0.1551637351512909, 0.2156447023153305, 0.1435866802930832, -0.029407162219285965, 0.4041743278503418, 0.044619038701057434], [0.10701726377010345, 0.05280255153775215, -0.22945068776607513, -0.34134888648986816, -0.12425655126571655, 0.059338655322790146, 0.004718143027275801, 0.0912390872836113, -0.046548500657081604, -0.4096050560474396, -0.5358434319496155, 0.2504884898662567, 0.3359013795852661, 0.041217681020498276, 0.1788424402475357, 0.500664472579956, -0.10552652925252914, -0.0734785795211792, -0.032418765127658844, -0.14077328145503998, -0.2533096969127655, 0.05867782607674599, -0.12171074748039246, -0.3359758257865906, -0.09161145240068436, -0.22780458629131317, 0.0009040357545018196, 0.18875236809253693, 0.17258788645267487, -0.22205041348934174, 0.23511949181556702, -0.28885793685913086, 0.06537795811891556, 0.43033671379089355, 0.3025260865688324, -0.17158325016498566, -0.4533747434616089, 0.3186364769935608, -0.48127976059913635, -0.21218474209308624, -0.31097325682640076, -0.03245393559336662, 0.38662582635879517, 0.2628214955329895, -0.19723181426525116, -0.3820982873439789, -0.20456501841545105, 0.12077472358942032, -0.008441404439508915, -0.10581948608160019, -0.06811551749706268, 0.08572139590978622, 0.3736322224140167, 0.20542028546333313, -0.255478173494339, -0.25253963470458984, -0.3326076567173004, 0.134797140955925, 0.2091822326183319, -0.07790689915418625, -0.23115338385105133, 0.16003330051898956, -0.4280516505241394, 0.38501137495040894, 0.17359748482704163, -0.4396458566188812, -0.2740919589996338, 0.26994138956069946, 0.11976911872625351, 0.06858060508966446, 0.21595560014247894, -0.1391908824443817, 0.34649357199668884, 0.10088074952363968, 0.14905200898647308, -0.14004141092300415, 0.1708841770887375, 0.10139994323253632, 0.21475499868392944, -0.007542249746620655, -0.19936390221118927, 0.10108716785907745, -0.05895784869790077, -0.39194875955581665, 0.09158868342638016, -0.1496141403913498, -0.05499684810638428, 0.001349333906546235, 0.22543299198150635, -0.0875285193324089, -0.37059301137924194, -0.07526419311761856, -0.41290283203125, 0.09377259761095047, -0.119700588285923, -0.1499232053756714, 0.224726602435112, 0.44582200050354004, -0.019698772579431534, 0.0019784318283200264, -0.15685530006885529, -0.3235543668270111, 0.22380684316158295, 0.02847531996667385, 0.34040015935897827, 0.10671385377645493, 0.17190974950790405, -0.2812868356704712, -0.22877651453018188, 0.2792503833770752, -0.0334964394569397, -0.18862026929855347, 0.12229308485984802, -0.17738516628742218, -0.04658283665776253, -0.15301698446273804, -0.34710928797721863, -0.25098171830177307, 0.0015391011256724596, 0.22923678159713745, -0.442521870136261, 0.2471899688243866, -0.8608456254005432, 0.3249148428440094, -0.4851124584674835, 0.027194976806640625, 0.3355090022087097, -0.14588689804077148], [-0.21141308546066284, 0.18376564979553223, 0.10912001132965088, -0.4151188135147095, 0.025337597355246544, -0.0005175094702281058, -0.0005092715728096664, -0.272381067276001, -0.4878402352333069, -0.40039899945259094, 0.22243396937847137, -0.3248676657676697, 0.47843509912490845, 0.08042079955339432, -0.05900906026363373, -0.24943701922893524, -0.053810831159353256, -0.13958027958869934, -0.13433651626110077, 0.06011511757969856, 0.18262967467308044, 0.47139641642570496, 0.3772817850112915, 0.4258019030094147, 0.03728536516427994, 0.35309043526649475, 0.004590153228491545, 0.3453325629234314, -0.30406656861305237, -0.19402599334716797, 0.14393390715122223, 0.016134966164827347, 0.2803666293621063, -0.40382710099220276, -0.2910398542881012, -0.07332523167133331, 0.27764520049095154, 0.23054517805576324, -0.00029847354744561017, 0.05989168956875801, -0.16856811940670013, 0.1747862845659256, -0.3175228536128998, -0.041683729737997055, -0.14186401665210724, -0.3517833948135376, -0.09435397386550903, -0.23717232048511505, -0.3356749415397644, -0.16411443054676056, 0.30921006202697754, 0.35570254921913147, -0.2624426484107971, 0.22210179269313812, -0.15613141655921936, 0.014403490349650383, -0.45157960057258606, 0.14782509207725525, 0.3540339469909668, -0.4658297598361969, 0.032969728112220764, -0.28762850165367126, -0.17831043899059296, -0.17568820714950562, 0.3765908181667328, -0.15222620964050293, -0.2337423861026764, 0.09961729496717453, -0.3751920163631439, -0.15755034983158112, 0.12644676864147186, 0.01893252693116665, 0.21034841239452362, 0.050265077501535416, -0.05514217168092728, -0.025496769696474075, 0.2854737639427185, 0.30088281631469727, -0.5780099034309387, -0.16527727246284485, -0.16454117000102997, 0.10741951316595078, -0.21870003640651703, -0.3364669382572174, -0.0021561679895967245, -0.07289803773164749, -0.18464672565460205, 0.12123224139213562, -0.23155449330806732, 0.4529494345188141, -0.537987232208252, 0.07914413511753082, -0.04866594821214676, -0.38083669543266296, -0.08359578996896744, -0.3590153157711029, 0.3066116273403168, -0.2729838490486145, 0.24095039069652557, -0.15697592496871948, 0.36302217841148376, 0.34441253542900085, 0.147054985165596, 0.16135303676128387, 0.08730721473693848, -0.05859558284282684, -0.14202772080898285, 0.23501557111740112, -0.0810190886259079, -0.21440067887306213, 0.1322394609451294, -0.2589851915836334, 0.3075740337371826, 0.3109980821609497, -0.00890729296952486, 0.44964951276779175, 0.3356495201587677, -0.14274683594703674, 0.4055821895599365, 0.12660981714725494, 0.1884654015302658, 0.07990112900733948, -0.08504702150821686, 0.419201523065567, 0.3174841105937958, 0.2314859926700592, -0.16817179322242737, -0.4719808101654053], [-0.31073376536369324, -0.01855355314910412, -0.05278674140572548, -0.334255188703537, -0.2456086277961731, -0.27469491958618164, -0.2124677151441574, 0.03582955524325371, -0.05260373651981354, -0.476685106754303, 0.3800729811191559, -0.03434166684746742, -0.026426495984196663, 0.2039393186569214, 0.028853675350546837, 0.04092470929026604, 0.18840192258358002, -0.1087910383939743, -0.07858554273843765, 0.08068422228097916, -0.0991114154458046, 0.004643229767680168, -0.13596615195274353, -0.26400259137153625, -0.0775805413722992, -0.29998865723609924, -0.3364116847515106, -0.06060328707098961, 0.07887904345989227, 0.15781135857105255, 0.03618312254548073, 0.067329041659832, -0.02568727172911167, -0.36173897981643677, 0.21209408342838287, 0.04311104863882065, 0.392924964427948, -0.22773301601409912, 0.29485225677490234, -0.24860872328281403, -0.20343425869941711, -0.21409855782985687, -0.14230003952980042, 0.10864533483982086, 0.3641211688518524, -0.04212740808725357, -0.04144701734185219, 0.1196790263056755, 0.17982785403728485, -0.10280246287584305, -0.12084466964006424, -0.1692713350057602, -0.10897812247276306, -0.13719376921653748, -0.2710622549057007, -0.11969631910324097, -0.0849546417593956, 0.01176107581704855, 0.07759575545787811, -0.07512495666742325, -0.06861753761768341, -0.17882134020328522, -0.2186838835477829, -0.236764594912529, 0.024474138393998146, 0.04339960962533951, -0.18526464700698853, -0.4171757996082306, -0.15081308782100677, 0.10010823607444763, -0.03933190926909447, 0.05732554942369461, -0.020685788244009018, 0.2919715940952301, -0.21728801727294922, -0.08245997875928879, 0.07416047900915146, -0.06226438283920288, 0.23844200372695923, -0.001923594274558127, -0.02369268797338009, -0.020090248435735703, -0.22107848525047302, 0.19848302006721497, 0.07508428394794464, -0.10831604152917862, -0.16673041880130768, -0.07880999147891998, 0.07245032489299774, -0.20566917955875397, -0.01495695486664772, -0.08424413949251175, -0.027536625042557716, -0.40446019172668457, 0.282314270734787, -0.05728292837738991, 0.4480738043785095, 0.33293700218200684, -0.06427138298749924, -0.04474138841032982, 0.09019393473863602, -0.13595660030841827, 0.06493749469518661, -0.10541007667779922, -0.18434137105941772, 0.33519068360328674, -0.07845252007246017, -0.3813169598579407, 0.01556253619492054, 0.270629346370697, -0.21749281883239746, 0.3672732710838318, -0.1429554969072342, 0.874677300453186, 0.17249423265457153, 0.08433626592159271, 0.19064822793006897, -0.17469096183776855, 0.02053159475326538, 0.2185785472393036, -0.4033975899219513, 0.03263304382562637, 0.45833736658096313, -0.17764076590538025, 0.18667776882648468, -0.12172549217939377, -0.009186014533042908, -0.19376994669437408], [-0.058295827358961105, -0.07040239125490189, -0.11576037108898163, -0.11112723499536514, -0.03877595439553261, 0.029823657125234604, 0.08855115622282028, -0.0940314531326294, 0.0075224172323942184, 0.016755100339651108, -0.11484046280384064, -0.049938250333070755, 0.05519876629114151, -0.10231904685497284, -0.011741616763174534, -0.09455082565546036, -0.08701752126216888, 0.04281271994113922, -0.06910670548677444, 0.03130175918340683, 0.03886831924319267, 0.16348198056221008, -0.00472656637430191, 0.02922043763101101, 0.03981264680624008, -0.06804119050502777, -0.01121036522090435, -0.001780771417543292, -0.05199987813830376, -0.15371255576610565, 0.027798974886536598, 0.04653192684054375, -0.08866670727729797, 0.047560226172208786, -0.02796795405447483, -0.04181979224085808, 0.08061918616294861, -0.017606569454073906, 0.2595100700855255, 0.016297632828354836, 0.10320691019296646, 0.021306494250893593, -0.02821706421673298, -0.0937228798866272, -0.016910230740904808, -0.08820914477109909, -0.11408084630966187, 0.12322808057069778, -0.0648113414645195, -0.03375684842467308, 0.040643710643053055, -0.044639118015766144, -0.13364000618457794, -0.03953316807746887, -0.021027544513344765, -0.18038636445999146, -0.02255668118596077, 0.17022442817687988, -0.11476561427116394, -0.07677248865365982, 0.11724080890417099, -0.030772127211093903, -0.016982421278953552, 0.27246949076652527, -0.10413021594285965, -0.1069679707288742, 0.002160748466849327, 0.08777958899736404, 0.018256932497024536, 0.17555133998394012, -0.022259151563048363, -0.11177027225494385, -0.002405002946034074, 0.012715525925159454, -0.02906896360218525, 0.13663990795612335, 0.13853076100349426, -0.043365366756916046, -0.08561231195926666, 0.04315338283777237, -0.0724816769361496, -0.017751822248101234, 0.01440463773906231, -0.1678929626941681, -0.029351813718676567, -0.09227657318115234, 0.196483314037323, 0.01882113702595234, -0.02273157238960266, 0.011085777543485165, 0.10129168629646301, -0.12964901328086853, -0.04942687973380089, 0.13175079226493835, -0.014323210343718529, -0.08260442316532135, 0.013841812498867512, -0.09651001542806625, -0.05471717193722725, -0.0036431346088647842, 0.012786476872861385, -0.040634773671627045, 0.016485558822751045, -0.11452561616897583, -0.0088098319247365, 0.010196562856435776, 0.06653144955635071, 0.07695455104112625, -0.008725824765861034, -0.08829665184020996, 0.02346041612327099, -0.09916535019874573, 0.10606881976127625, -0.033619076013565063, -0.09278544038534164, 0.0032980800606310368, -0.043683670461177826, 0.009948056191205978, 0.03959421440958977, 0.030298452824354172, -0.012689000926911831, -0.010659169405698776, -0.06975644826889038, 0.04598521813750267, 0.10549533367156982, -0.009250103496015072, -0.051743846386671066, -0.07384096086025238], [0.042937666177749634, 0.05869853496551514, 0.04115651920437813, 0.07753435522317886, 0.09014035016298294, -0.10374011099338531, 0.014329295605421066, -0.08262337744235992, -0.19620688259601593, -0.07652078568935394, -0.1309697926044464, -0.02350122481584549, 0.020960822701454163, -0.20773287117481232, -0.08786510676145554, 0.04028188809752464, -0.017144406214356422, 0.03408145159482956, -0.03561532124876976, 0.1084802895784378, -0.02746621146798134, -0.06144389882683754, 7.669577826163732e-06, -0.06958445906639099, -0.06588114798069, 0.042957961559295654, -0.02722901664674282, 0.04593409597873688, -0.1568727046251297, 0.10544127225875854, 0.014238255098462105, 0.022259028628468513, 0.09962128847837448, 0.019368240609765053, 0.16031725704669952, 0.027506541460752487, 0.1660250872373581, 0.06889671832323074, -0.13306008279323578, 0.04106833413243294, 0.004550778307020664, -0.05730905011296272, -0.003704200265929103, 0.07767987251281738, 0.15252061188220978, -0.11249274760484695, 0.060153719037771225, -0.001497434452176094, 0.16094975173473358, -0.0814741849899292, -0.09061000496149063, 0.013022559694945812, -0.11393501609563828, 0.06582092493772507, 0.07576316595077515, -0.02366405352950096, 0.07255299389362335, -0.036781590431928635, -0.01769423857331276, 0.08532200008630753, -0.011864607222378254, 0.11419741809368134, -0.15375833213329315, 0.06420164555311203, 0.020655253902077675, -0.005670732352882624, -0.003752409713342786, -0.1072714552283287, 0.01513531431555748, -0.07016552984714508, 0.07301323115825653, 0.051554180681705475, -0.11964625865221024, -0.22688856720924377, -0.0978621169924736, 0.016806531697511673, -0.033767327666282654, -0.009695136919617653, -0.1411297470331192, 0.09797271341085434, -0.006234470754861832, -0.048545122146606445, -0.025992954149842262, -0.07932836562395096, 0.059236202389001846, 0.05742383375763893, 0.06549373269081116, 0.0030571327079087496, -0.009560437873005867, 0.09896967560052872, -0.05497967079281807, 0.1308961808681488, -0.03044954687356949, 0.1510773003101349, -0.06098445877432823, 0.021268393844366074, -0.05565466359257698, 0.054467614740133286, 0.07512848824262619, 0.04402121901512146, 0.13903146982192993, -0.1516088992357254, 0.019623706117272377, 0.03442308306694031, 0.028936732560396194, -0.10204457491636276, 0.060035549104213715, 0.09274255484342575, -0.07724298536777496, -0.09879806637763977, 0.09676936268806458, -0.11396804451942444, -0.031791385263204575, -0.03653256967663765, -0.18241074681282043, 0.1042851060628891, 0.0021640812046825886, -0.09012220799922943, 0.041729919612407684, 0.13323436677455902, 0.030017871409654617, 0.048888031393289566, 0.106992706656456, 0.01711503230035305, 0.010677067562937737, 0.1345607489347458, 0.04743942990899086, -0.02607092820107937], [0.08583228290081024, 0.014611240476369858, -0.12912802398204803, -0.07113151252269745, 0.085903100669384, 0.023626621812582016, -0.07573603093624115, -0.028682556003332138, -0.06049090623855591, 0.0766226276755333, 0.09411673992872238, -0.05544741824269295, -0.04349127784371376, 0.06717275083065033, -0.067662812769413, -0.14503318071365356, 0.09490911662578583, 0.13674046099185944, -0.09164799749851227, -0.21144425868988037, 0.24490584433078766, 0.024264885112643242, 0.11417403817176819, -0.0464218333363533, 0.0029700021259486675, 0.03884810209274292, 0.25315016508102417, 0.1848098784685135, 0.17804448306560516, -0.14095669984817505, -0.035215239971876144, -0.08724556863307953, -0.12813174724578857, 0.005118933971971273, -0.06436699628829956, 0.1460258513689041, -0.17874521017074585, -0.2838505804538727, -0.09305137395858765, -0.09089382737874985, 0.2637555003166199, 0.1368492841720581, -0.01473701186478138, 0.058253295719623566, 0.0648280456662178, -0.2519381046295166, 0.02701149322092533, -0.06025637313723564, -0.18063145875930786, -0.18641798198223114, 0.1536233276128769, 0.027832873165607452, -0.007783791050314903, -0.0977608859539032, 0.012621949426829815, 0.03574352338910103, -0.09153982996940613, 0.01819285936653614, -0.02642504684627056, 0.019203146919608116, -0.25477302074432373, -0.1555478572845459, 0.05379407852888107, -0.013552110642194748, 0.18291473388671875, 0.0351540632545948, -0.03727683424949646, -0.08619673550128937, 0.18998390436172485, -0.20974288880825043, -0.017496801912784576, -0.0941462591290474, 0.31254273653030396, 0.07113932073116302, -0.08654144406318665, -0.1078178733587265, 0.02164738066494465, -0.1540115922689438, 0.02788493037223816, 0.05150109529495239, 0.008123796433210373, 0.1723817139863968, 0.004252775572240353, 0.22639252245426178, 0.19512712955474854, -0.03827923163771629, -0.05347006395459175, 0.11557378619909286, 0.09637264907360077, -0.11674011498689651, 0.0662793517112732, -0.017331495881080627, -0.17077195644378662, 0.03871748223900795, -0.07171976566314697, -0.2988567054271698, 0.03257324546575546, -0.0974038764834404, -0.12935444712638855, -0.12037147581577301, -0.11372463405132294, -0.13414840400218964, 0.040577393025159836, -0.09406556934118271, 0.14035333693027496, -0.11316704005002975, 0.1633114069700241, -0.027731655165553093, -0.22812402248382568, 0.11295097321271896, -0.001516079413704574, -0.038628630340099335, -0.043696191161870956, 0.14127179980278015, -0.027077192440629005, 0.06502948701381683, -0.0025899249594658613, -0.02529330551624298, 0.11648957431316376, 0.133161261677742, -0.07674088329076767, 0.24698202311992645, -0.09029055386781693, 0.17601914703845978, -0.13832291960716248, 0.03017987124621868, 0.14502385258674622, -0.09346611052751541], [-0.9455113410949707, -1.775116205215454, 0.5847399830818176, 0.44155216217041016, -0.188638374209404, -0.985540509223938, 0.3342418670654297, -1.5868415832519531, -2.843562126159668, 1.3506999015808105, -1.3043546676635742, 0.1744997203350067, 1.4429819583892822, -2.8813726902008057, -2.1191565990448, -0.441546767950058, -0.3554699122905731, -2.16082501411438, -2.0915942192077637, 1.2973206043243408, -1.2697581052780151, 1.3042045831680298, 0.32579001784324646, 1.0663796663284302, -0.7301501035690308, 1.3089590072631836, -0.6619218587875366, 1.1544833183288574, 1.22662353515625, 0.028999552130699158, 2.7253332138061523, -2.770612955093384, -0.6966918706893921, 2.0007240772247314, -0.1144302636384964, -0.7177150845527649, 3.1407930850982666, -1.6512547731399536, -2.028639078140259, -1.5105482339859009, 0.8945308923721313, 0.6369283199310303, 1.017755389213562, 0.8800413608551025, 0.23085284233093262, 0.5993477702140808, 2.581160068511963, 0.7977355718612671, 1.329676628112793, -0.07367125898599625, 0.6892685890197754, 0.4044192433357239, 2.3402035236358643, 0.7041317224502563, 1.2220213413238525, 0.8252511024475098, -1.4164434671401978, 1.574871301651001, -0.42740094661712646, -0.6009269952774048, 1.4992711544036865, 0.17781312763690948, -1.1654043197631836, 1.2683168649673462, -0.6336801052093506, -0.007477440871298313, -0.263706237077713, -0.0393892265856266, 0.876695990562439, 0.7504518628120422, 0.7552300691604614, -2.079442262649536, -0.6864439845085144, -2.6858856678009033, -2.996450424194336, -0.8891125321388245, 1.6494479179382324, -0.5804120898246765, -1.910388708114624, 1.590358853340149, 1.264643907546997, -1.4836970567703247, -1.2067583799362183, -1.3372516632080078, 0.32311657071113586, -0.4867033064365387, -1.5612554550170898, 1.0935076475143433, 2.2932510375976562, 0.5444257259368896, -0.9652121663093567, 1.3508416414260864, 2.366593360900879, 2.7220277786254883, 1.153823733329773, 1.2280924320220947, -1.599936842918396, 3.3417820930480957, 1.515126347541809, -2.2758331298828125, 0.12144038081169128, 1.6036994457244873, -0.18618054687976837, -1.1078084707260132, -0.7570895552635193, -0.022046899423003197, -0.6826692819595337, -0.4083752930164337, 0.19569829106330872, 1.8141546249389648, 0.13342663645744324, 1.4411582946777344, -1.8866310119628906, 0.36097627878189087, 0.6889523267745972, -0.07970211654901505, 1.3347303867340088, 0.02230490744113922, -1.1393241882324219, 1.2970796823501587, 0.16046753525733948, -0.798308253288269, 0.420388787984848, 3.052814245223999, -0.07954339683055878, 0.9365957975387573, 2.261296272277832, -0.9079933762550354], [0.5908600687980652, 0.7174043655395508, 1.4636551141738892, -0.0037332430947571993, 2.5353214740753174, 0.07862699031829834, -2.079185962677002, 0.18246643245220184, -1.781926155090332, -0.3115914463996887, -2.7449936866760254, 0.13213711977005005, -0.03072652593255043, 3.0903613567352295, -1.652331829071045, 0.870193600654602, -0.09629625082015991, -1.045723795890808, -1.1273270845413208, 1.2388511896133423, 